{"learner":{"attributes":{"best_iteration":"43","best_score":"0.1519377963525867","scikit_learn":"{\"_estimator_type\": \"classifier\"}"},"feature_names":[],"feature_types":[],"gradient_booster":{"model":{"cats":{"enc":[],"feature_segments":[],"sorted_idx":[]},"gbtree_model_param":{"num_parallel_tree":"1","num_trees":"74"},"iteration_indptr":[0,1,2,3,4,5,6,7,8,9,10,11,12,13,14,15,16,17,18,19,20,21,22,23,24,25,26,27,28,29,30,31,32,33,34,35,36,37,38,39,40,41,42,43,44,45,46,47,48,49,50,51,52,53,54,55,56,57,58,59,60,61,62,63,64,65,66,67,68,69,70,71,72,73,74],"tree_info":[0,0,0,0,0,0,0,0,0,0,0,0,0,0,0,0,0,0,0,0,0,0,0,0,0,0,0,0,0,0,0,0,0,0,0,0,0,0,0,0,0,0,0,0,0,0,0,0,0,0,0,0,0,0,0,0,0,0,0,0,0,0,0,0,0,0,0,0,0,0,0,0,0,0],"trees":[{"base_weights":[5.919813E-3,-7.5545496E-1,4.0399152E-1,-9.571768E-1,9.755848E-1,7.334976E-1,-9.868776E-1,-5.825137E-1,-1.5929598E0,1.0988127E0,-4.7846216E-1,1.0656086E0,3.0857736E-1,1.5203412E-1,-1.2496663E0,-2.0982006E-3,-2.8648463E-1,4.35498E-2,-4.563904E-1,3.8169E-1,1.7914216E-1,-4.6650058E-1,2.8778702E-1,-1.3823783E-1,1.2516828E-1,3.975434E-1,-3.036933E-1,-3.65035E-1,2.4761057E-1],"categories":[],"categories_nodes":[],"categories_segments":[],"categories_sizes":[],"default_left":[0,0,0,0,0,0,0,0,0,0,0,0,0,0,0,0,0,0,0,0,0,0,0,0,0,0,0,0,0],"id":0,"left_children":[1,3,5,7,9,11,13,15,17,19,-1,21,23,25,27,-1,-1,-1,-1,-1,-1,-1,-1,-1,-1,-1,-1,-1,-1],"loss_changes":[1.8544762E3,7.344889E2,1.8421653E3,4.4737085E2,7.689203E1,4.5817065E2,2.306449E2,3.338897E2,1.4188953E2,2.8866577E1,0E0,6.237915E1,1.888537E2,2.5187698E2,1.6054462E2,0E0,0E0,0E0,0E0,0E0,0E0,0E0,0E0,0E0,0E0,0E0,0E0,0E0,0E0],"parents":[2147483647,0,0,1,1,2,2,3,3,4,4,5,5,6,6,7,7,8,8,9,9,11,11,12,12,13,13,14,14],"right_children":[2,4,6,8,10,12,14,16,18,20,-1,22,24,26,28,-1,-1,-1,-1,-1,-1,-1,-1,-1,-1,-1,-1,-1,-1],"split_conditions":[1.96E2,3.3833334E-1,7.735849E-1,2E0,6.8E-1,2E0,1E0,1.328E0,-9.376333E0,4.39E-1,-4.7846216E-1,2.23E-1,4.2E-1,8.3928573E-1,2.304E3,-2.0982006E-3,-2.8648463E-1,4.35498E-2,-4.563904E-1,3.8169E-1,1.7914216E-1,-4.6650058E-1,2.8778702E-1,-1.3823783E-1,1.2516828E-1,3.975434E-1,-3.036933E-1,-3.65035E-1,2.4761057E-1],"split_indices":[2,4,8,0,8,0,0,6,4,9,0,6,8,8,2,0,0,0,0,0,0,0,0,0,0,0,0,0,0],"split_type":[0,0,0,0,0,0,0,0,0,0,0,0,0,0,0,0,0,0,0,0,0,0,0,0,0,0,0,0,0],"sum_hessian":[6.1167256E3,2.0997417E3,4.016984E3,1.8809924E3,2.1874913E2,3.247987E3,7.6899695E2,1.1847452E3,6.962472E2,2.0999916E2,8.749965E0,1.8222427E3,1.4257443E3,1.4424942E2,6.247475E2,5.457478E2,6.3899744E2,4.299983E1,6.532474E2,1.17249535E2,9.2749626E1,6.999972E0,1.8152428E3,2.3099908E2,1.1947452E3,7.074972E1,7.349971E1,5.932476E2,3.1499874E1],"tree_param":{"num_deleted":"0","num_feature":"14","num_nodes":"29","size_leaf_vector":"1"}},{"base_weights":[-1.0757787E-2,-6.635253E-1,2.314997E-1,-4.704089E-2,-1.2008134E0,5.00559E-1,-5.4818195E-1,-5.127059E-1,7.245572E-1,2.4819387E-1,-1.3326887E0,1.9349065E-2,7.47883E-1,-1.9302389E-1,-1.1876378E0,-4.7548637E-1,-7.6103024E-2,2.7491808E-1,-4.985756E-2,-4.8439166E-1,3.9009544E-1,-3.788901E-1,1.8945707E-1,-5.3915745E-1,3.35618E-2,1.465461E-1,2.933076E-1,4.332798E-1,-1.2059676E-1,-3.6107144E-1,1.0347551E-1],"categories":[],"categories_nodes":[],"categories_segments":[],"categories_sizes":[],"default_left":[0,0,0,0,0,0,0,0,0,0,0,0,0,0,0,0,0,0,0,0,0,0,0,0,0,0,0,0,0,0,0],"id":1,"left_children":[1,3,5,7,9,11,13,15,17,19,21,23,25,27,29,-1,-1,-1,-1,-1,-1,-1,-1,-1,-1,-1,-1,-1,-1,-1,-1],"loss_changes":[9.422337E2,5.341303E2,9.118966E2,2.7059122E2,1.6498743E2,3.8455054E2,2.5307794E2,1.3506815E2,7.888805E1,1.843977E2,1.3938867E2,2.3809486E2,1.4831653E2,3.377074E2,1.03431335E2,0E0,0E0,0E0,0E0,0E0,0E0,0E0,0E0,0E0,0E0,0E0,0E0,0E0,0E0,0E0,0E0],"parents":[2147483647,0,0,1,1,2,2,3,3,4,4,5,5,6,6,7,7,8,8,9,9,10,10,11,11,12,12,13,13,14,14],"right_children":[2,4,6,8,10,12,14,16,18,20,22,24,26,28,30,-1,-1,-1,-1,-1,-1,-1,-1,-1,-1,-1,-1,-1,-1,-1,-1],"split_conditions":[1.2E1,2.1052632E-1,7E-1,1.0063167E2,-8.821E0,8.4298E1,9.1091E1,-9.31E-1,1.5E1,9.603367E1,5.233333E-1,2E0,-4.1766667E-1,2.51E1,4.2E1,-4.7548637E-1,-7.6103024E-2,2.7491808E-1,-4.985756E-2,-4.8439166E-1,3.9009544E-1,-3.788901E-1,1.8945707E-1,-5.3915745E-1,3.35618E-2,1.465461E-1,2.933076E-1,4.332798E-1,-1.2059676E-1,-3.6107144E-1,1.0347551E-1],"split_indices":[1,8,8,3,4,3,3,4,10,3,4,10,4,12,1,0,0,0,0,0,0,0,0,0,0,0,0,0,0,0,0],"split_type":[0,0,0,0,0,0,0,0,0,0,0,0,0,0,0,0,0,0,0,0,0,0,0,0,0,0,0,0,0,0,0],"sum_hessian":[5.9563364E3,1.611738E3,4.3445986E3,7.5105963E2,8.606784E2,3.230238E3,1.1143605E3,4.6859482E2,2.8246484E2,7.172315E1,7.8895526E2,1.0969731E3,2.133265E3,7.1728015E2,3.970803E2,7.035227E1,3.9824252E2,2.1158862E2,7.087621E1,2.6373613E1,4.534954E1,7.574386E2,3.1516619E1,5.3492348E1,1.0434808E3,1.361298E3,7.719669E2,8.874791E1,6.285322E2,3.5973477E2,3.7345512E1],"tree_param":{"num_deleted":"0","num_feature":"14","num_nodes":"31","size_leaf_vector":"1"}},{"base_weights":[1.362625E-2,-5.1469886E-1,2.0185189E-1,-1.260419E0,-1.2119644E-1,-2.1391274E-1,4.467174E-1,-1.4238278E0,-1.9460872E-1,1.6357565E-1,-9.4786704E-1,-9.1179326E-2,-7.455946E-1,-6.925746E-3,6.045438E-1,-3.9295492E-1,3.2144335E-1,-4.665057E-1,1.5571997E-1,8.598405E-2,-4.095782E-1,-2.8114867E-1,4.5941457E-1,-1.1980921E-1,3.417825E-2,-3.99042E-1,2.9612055E-2,-1.3937481E-1,9.338428E-2,1.7579E-1,-9.6502915E-2],"categories":[],"categories_nodes":[],"categories_segments":[],"categories_sizes":[],"default_left":[0,0,0,0,0,0,0,0,0,0,0,0,0,0,0,0,0,0,0,0,0,0,0,0,0,0,0,0,0,0,0],"id":2,"left_children":[1,3,5,7,9,11,13,15,17,19,21,23,25,27,29,-1,-1,-1,-1,-1,-1,-1,-1,-1,-1,-1,-1,-1,-1,-1,-1],"loss_changes":[5.786448E2,4.4837488E2,4.3686887E2,9.1656006E1,2.3595462E2,1.03744484E2,1.9334186E2,5.8632446E1,8.709405E1,2.0088646E2,7.352823E1,1.0136259E2,1.912993E2,1.283078E2,1.03898315E2,0E0,0E0,0E0,0E0,0E0,0E0,0E0,0E0,0E0,0E0,0E0,0E0,0E0,0E0,0E0,0E0],"parents":[2147483647,0,0,1,1,2,2,3,3,4,4,5,5,6,6,7,7,8,8,9,9,10,10,11,11,12,12,13,13,14,14],"right_children":[2,4,6,8,10,12,14,16,18,20,22,24,26,28,30,-1,-1,-1,-1,-1,-1,-1,-1,-1,-1,-1,-1,-1,-1,-1,-1],"split_conditions":[1.44E2,1E1,2.669E0,1.0691233E2,2.548E0,1.327E0,8.611111E-3,4.5946E1,6.4E1,6.576E0,1E0,7.13E-2,3.435E0,8.4473335E1,1.6E1,-3.9295492E-1,3.2144335E-1,-4.665057E-1,1.5571997E-1,8.598405E-2,-4.095782E-1,-2.8114867E-1,4.5941457E-1,-1.1980921E-1,3.417825E-2,-3.99042E-1,2.9612055E-2,-1.3937481E-1,9.338428E-2,1.7579E-1,-9.6502915E-2],"split_indices":[2,7,5,3,5,9,9,6,2,6,13,9,9,3,7,0,0,0,0,0,0,0,0,0,0,0,0,0,0,0,0],"split_type":[0,0,0,0,0,0,0,0,0,0,0,0,0,0,0,0,0,0,0,0,0,0,0,0,0,0,0,0,0,0,0],"sum_hessian":[5.8167354E3,1.5275013E3,4.2892344E3,5.2685803E2,1.0006433E3,1.5898707E3,2.6993635E3,4.565279E2,7.033018E1,7.448567E2,2.5578665E2,1.2926475E3,2.9722318E2,6.969795E2,2.0023839E3,4.488855E2,7.642388E0,2.3060629E1,4.726955E1,6.820318E2,6.2824913E1,2.4671082E2,9.07584E0,4.9095895E2,8.0168854E2,1.5822766E2,1.3899551E2,2.8498203E2,4.1199747E2,1.897453E3,1.0493096E2],"tree_param":{"num_deleted":"0","num_feature":"14","num_nodes":"31","size_leaf_vector":"1"}},{"base_weights":[1.30009325E-2,1.1532193E-1,-7.400211E-1,3.4229097E-1,-2.1020071E-1,1.6796997E-1,-9.2091537E-1,-9.5963955E-1,3.933309E-1,-5.5174136E-1,2.8077608E-1,-1.2182784E0,1.35977E0,1.15525365E-1,-1.1648377E0,-5.5168957E-1,5.59108E-3,-2.6682857E-1,1.15609124E-1,-2.6761265E-2,-2.0556742E-1,9.712046E-2,-4.083394E-1,2.4388433E-1,-4.1469476E-1,5.273129E-1,1.4636992E-1,-1.329151E-1,5.3673285E-1,-9.604959E-2,-3.7825269E-1],"categories":[],"categories_nodes":[],"categories_segments":[],"categories_sizes":[],"default_left":[0,0,0,0,0,0,0,0,0,0,0,0,0,0,0,0,0,0,0,0,0,0,0,0,0,0,0,0,0,0,0],"id":3,"left_children":[1,3,5,7,9,11,13,15,17,19,21,23,25,27,29,-1,-1,-1,-1,-1,-1,-1,-1,-1,-1,-1,-1,-1,-1,-1,-1],"loss_changes":[4.3617383E2,3.6827957E2,1.1138403E2,1.9552115E2,3.4357098E2,1.8891997E2,1.4293417E2,1.2047922E2,1.5581433E2,1.1876874E2,1.2656621E2,3.9121117E1,2.9551071E1,1.27011246E2,9.201831E1,0E0,0E0,0E0,0E0,0E0,0E0,0E0,0E0,0E0,0E0,0E0,0E0,0E0,0E0,0E0,0E0],"parents":[2147483647,0,0,1,1,2,2,3,3,4,4,5,5,6,6,7,7,8,8,9,9,10,10,11,11,12,12,13,13,14,14],"right_children":[2,4,6,8,10,12,14,16,18,20,22,24,26,28,30,-1,-1,-1,-1,-1,-1,-1,-1,-1,-1,-1,-1,-1,-1,-1,-1],"split_conditions":[8.2E-1,2E0,-7.917333E0,1.6211319E0,4.346E0,7.793E0,1.031E0,4.2857143E-1,8.77193E-2,3.6850212E0,7.735849E-1,1E0,7E0,9.32E-1,2.9E1,-5.5168957E-1,5.59108E-3,-2.6682857E-1,1.15609124E-1,-2.6761265E-2,-2.0556742E-1,9.712046E-2,-4.083394E-1,2.4388433E-1,-4.1469476E-1,5.273129E-1,1.4636992E-1,-1.329151E-1,5.3673285E-1,-9.604959E-2,-3.7825269E-1],"split_indices":[8,0,4,11,5,5,5,8,8,11,8,0,7,5,12,0,0,0,0,0,0,0,0,0,0,0,0,0,0,0,0],"split_type":[0,0,0,0,0,0,0,0,0,0,0,0,0,0,0,0,0,0,0,0,0,0,0,0,0,0,0,0,0,0,0],"sum_hessian":[5.6588145E3,4.9826206E3,6.76194E2,2.9356804E3,2.0469401E3,1.1234657E2,5.638474E2,1.1007508E2,2.8256052E3,1.207109E3,8.3983105E2,5.192617E1,6.0420403E1,1.07519005E2,4.563284E2,5.121511E1,5.885997E1,7.725042E1,2.748355E3,3.9332245E2,8.137866E2,8.038386E2,3.5992393E1,6.8045835E0,4.5121586E1,3.357726E1,2.6843145E1,8.178046E1,2.5738546E1,1.0910027E2,3.4722812E2],"tree_param":{"num_deleted":"0","num_feature":"14","num_nodes":"31","size_leaf_vector":"1"}},{"base_weights":[1.5295993E-2,-2.737624E-1,2.4253058E-1,1.3458237E-1,-6.9722944E-1,4.178881E-1,-4.138265E-1,2.8877762E-1,-9.8836744E-1,1.0678806E0,-7.594992E-1,5.359447E-1,-2.629457E-1,1.016399E0,-5.09268E-1,-2.2962224E-2,1.7491876E-1,-1.1155877E-1,-4.5554328E-1,-3.8280743E-1,4.3192476E-1,-1.6557211E-2,-2.3758231E-1,1.2210299E-1,3.626686E-1,-3.815385E-1,1.4234816E-1,4.1617692E-1,-5.316874E-2,-1.7085384E-1,1.5093246E-1],"categories":[],"categories_nodes":[],"categories_segments":[],"categories_sizes":[],"default_left":[0,0,0,0,0,0,0,0,0,0,0,0,0,0,0,0,0,0,0,0,0,0,0,0,0,0,0,0,0,0,0],"id":4,"left_children":[1,3,5,7,9,11,13,15,17,19,21,23,25,27,29,-1,-1,-1,-1,-1,-1,-1,-1,-1,-1,-1,-1,-1,-1,-1,-1],"loss_changes":[3.6227884E2,4.1986462E2,3.5558478E2,2.1441957E2,1.3181232E2,1.9604938E2,8.9457016E1,1.4933249E2,6.0484955E1,5.8668503E1,1.0435254E2,1.3394818E2,3.3546793E2,2.7364994E1,8.600238E1,0E0,0E0,0E0,0E0,0E0,0E0,0E0,0E0,0E0,0E0,0E0,0E0,0E0,0E0,0E0,0E0],"parents":[2147483647,0,0,1,1,2,2,3,3,4,4,5,5,6,6,7,7,8,8,9,9,10,10,11,11,12,12,13,13,14,14],"right_children":[2,4,6,8,10,12,14,16,18,20,22,24,26,28,30,-1,-1,-1,-1,-1,-1,-1,-1,-1,-1,-1,-1,-1,-1,-1,-1],"split_conditions":[1.6E1,2.857143E-1,7.5714284E-1,9.031555E0,2.97E-1,1.4602667E1,3.73E-1,9.5766335E1,1E1,2.23E-1,-7.832667E0,1.37106695E1,-1.2006667E0,5.0120554E0,2.4445E1,-2.2962224E-2,1.7491876E-1,-1.1155877E-1,-4.5554328E-1,-3.8280743E-1,4.3192476E-1,-1.6557211E-2,-2.3758231E-1,1.2210299E-1,3.626686E-1,-3.815385E-1,1.4234816E-1,4.1617692E-1,-5.316874E-2,-1.7085384E-1,1.5093246E-1],"split_indices":[1,8,8,11,6,11,6,3,7,6,4,11,4,11,6,0,0,0,0,0,0,0,0,0,0,0,0,0,0,0,0],"split_type":[0,0,0,0,0,0,0,0,0,0,0,0,0,0,0,0,0,0,0,0,0,0,0,0,0,0,0,0,0,0,0],"sum_hessian":[5.5134644E3,2.4265356E3,3.086929E3,1.2356722E3,1.1908634E3,2.4363718E3,6.50557E2,1.0871373E3,1.4853488E2,4.0029537E1,1.1508339E3,2.0765166E3,3.5985522E2,4.00934E1,6.1046356E2,5.375889E2,5.495484E2,8.358943E1,6.494546E1,6.917014E0,3.3112526E1,1.8097113E2,9.6986273E2,1.8962073E3,1.8030931E2,1.4570023E2,2.14155E2,2.7538738E1,1.2554658E1,5.4476135E2,6.5702225E1],"tree_param":{"num_deleted":"0","num_feature":"14","num_nodes":"31","size_leaf_vector":"1"}},{"base_weights":[4.408612E-3,-3.9117876E-1,1.5587738E-1,-1.159171E-1,-7.7581537E-1,5.562813E-1,-2.1263324E-3,-6.15717E-1,7.534949E-2,-8.532154E-1,3.3551496E-1,-7.59967E-1,5.8887875E-1,-3.6925116E-1,2.4676834E-1,1.2392416E-1,-3.0520746E-1,-8.453644E-3,2.2687466E-1,-2.8711674E-1,-1.0147145E-1,3.2334077E-1,-4.169739E-1,2.0693888E-1,8.9907296E-2,-1.8799134E-1,5.322754E-3,1.15559034E-1,-1.3851834E-2],"categories":[],"categories_nodes":[],"categories_segments":[],"categories_sizes":[],"default_left":[0,0,0,0,0,0,0,0,0,0,0,0,0,0,0,0,0,0,0,0,0,0,0,0,0,0,0,0,0],"id":5,"left_children":[1,3,5,7,9,11,13,15,17,19,-1,21,23,25,27,-1,-1,-1,-1,-1,-1,-1,-1,-1,-1,-1,-1,-1,-1],"loss_changes":[3.2179117E2,1.5734358E2,2.4568834E2,8.301205E1,9.8591064E1,4.7594727E1,2.5462668E2,1.3724088E2,5.208416E1,6.2331055E1,0E0,4.449749E1,5.004303E1,1.4660193E2,9.219563E1,0E0,0E0,0E0,0E0,0E0,0E0,0E0,0E0,0E0,0E0,0E0,0E0,0E0,0E0],"parents":[2147483647,0,0,1,1,2,2,3,3,4,4,5,5,6,6,7,7,8,8,9,9,11,11,12,12,13,13,14,14],"right_children":[2,4,6,8,10,12,14,16,18,20,-1,22,24,26,28,-1,-1,-1,-1,-1,-1,-1,-1,-1,-1,-1,-1,-1,-1],"split_conditions":[8.611111E-3,2E0,2.7455556E-1,1E1,3.8476667E0,9E0,2.293E0,9.72E-1,2.8E1,7.162E0,3.3551496E-1,3.92E-1,4.673706E0,-4.8966667E-1,2E0,1.2392416E-1,-3.0520746E-1,-8.453644E-3,2.2687466E-1,-2.8711674E-1,-1.0147145E-1,3.2334077E-1,-4.169739E-1,2.0693888E-1,8.9907296E-2,-1.8799134E-1,5.322754E-3,1.15559034E-1,-1.3851834E-2],"split_indices":[9,0,9,1,4,1,5,5,1,5,0,5,11,4,0,0,0,0,0,0,0,0,0,0,0,0,0,0,0],"split_type":[0,0,0,0,0,0,0,0,0,0,0,0,0,0,0,0,0,0,0,0,0,0,0,0,0,0,0,0,0],"sum_hessian":[5.3684067E3,1.485965E3,3.882442E3,8.668868E2,6.190782E2,1.0978395E3,2.7846023E3,2.3931422E2,6.275726E2,5.969202E2,2.215798E1,2.5992147E1,1.0718474E3,1.124887E3,1.6597153E3,7.852747E1,1.6078674E2,5.5219745E2,7.537515E1,4.056592E2,1.9126103E2,7.364982E0,1.8627165E1,6.1599194E2,4.5585547E2,6.0446716E2,5.204198E2,1.0227384E3,6.369769E2],"tree_param":{"num_deleted":"0","num_feature":"14","num_nodes":"29","size_leaf_vector":"1"}},{"base_weights":[1.5495031E-3,-2.9709888E-1,1.828428E-1,-8.5674685E-1,-5.9729405E-3,3.0302826E-1,-5.503351E-1,-3.2057616E-1,-1.1150466E0,-1.1173475E0,1.3400151E-1,-2.8720662E-1,4.0572122E-1,-3.2634538E-1,-3.637259E-1,-1.9569342E-1,2.5853518E-1,-3.3072275E-1,-1.4597724E-1,-8.997412E-2,-4.463964E-1,5.071424E-1,2.0995958E-2,4.388993E-2,-2.5093183E-1,1.2839592E-1,-1.944057E-2,-1.7034933E-1,1.0039952E-1],"categories":[],"categories_nodes":[],"categories_segments":[],"categories_sizes":[],"default_left":[0,0,0,0,0,0,0,0,0,0,0,0,0,0,0,0,0,0,0,0,0,0,0,0,0,0,0,0,0],"id":6,"left_children":[1,3,5,7,9,11,13,15,17,19,21,23,25,27,-1,-1,-1,-1,-1,-1,-1,-1,-1,-1,-1,-1,-1,-1,-1],"loss_changes":[2.7889014E2,3.1701062E2,2.8260498E2,9.1851715E1,1.9941727E2,1.6707364E2,8.166051E1,1.1638165E2,3.0743896E1,6.1423462E1,1.1114995E2,1.20543945E2,8.421069E1,7.794575E1,0E0,0E0,0E0,0E0,0E0,0E0,0E0,0E0,0E0,0E0,0E0,0E0,0E0,0E0,0E0],"parents":[2147483647,0,0,1,1,2,2,3,3,4,4,5,5,6,6,7,7,8,8,9,9,10,10,11,11,12,12,13,13],"right_children":[2,4,6,8,10,12,14,16,18,20,22,24,26,28,-1,-1,-1,-1,-1,-1,-1,-1,-1,-1,-1,-1,-1,-1,-1],"split_conditions":[2.25E2,-3.345E0,8.2E-1,3.04E1,4E0,1.336E0,2.1E1,8.039216E-1,1.37106695E1,6E0,-2.961E0,3.54E1,1.4602667E1,1.0525E1,-3.637259E-1,-1.9569342E-1,2.5853518E-1,-3.3072275E-1,-1.4597724E-1,-8.997412E-2,-4.463964E-1,5.071424E-1,2.0995958E-2,4.388993E-2,-2.5093183E-1,1.2839592E-1,-1.944057E-2,-1.7034933E-1,1.0039952E-1],"split_indices":[2,4,8,12,7,5,10,8,11,10,4,12,11,5,0,0,0,0,0,0,0,0,0,0,0,0,0,0,0],"split_type":[0,0,0,0,0,0,0,0,0,0,0,0,0,0,0,0,0,0,0,0,0,0,0,0,0,0,0,0,0],"sum_hessian":[5.1489937E3,1.944741E3,3.2042527E3,6.648052E2,1.2799358E3,2.7534783E3,4.507744E2,2.1687138E2,4.4793378E2,1.4239108E2,1.1375447E3,4.0780344E2,2.3456748E3,3.543528E2,9.642161E1,1.6464812E2,5.222326E1,3.6723965E2,8.069413E1,5.9770176E1,8.2620895E1,3.3611652E1,1.103933E3,2.4142107E2,1.6638237E2,2.0279636E3,3.177111E2,2.4555267E2,1.0880013E2],"tree_param":{"num_deleted":"0","num_feature":"14","num_nodes":"29","size_leaf_vector":"1"}},{"base_weights":[-2.165657E-2,-1.0253087E-1,5.639919E-1,-7.7802926E-1,-4.045893E-2,-6.3110656E-1,6.18469E-1,-9.339113E-1,6.876189E-1,-2.4157483E-3,-1.3099313E0,6.773231E-1,-1.4073896E0,5.1667687E-2,-2.832169E-1,2.5193802E-1,1.2529107E-2,-5.1958966E-1,3.6910737E-3,2.9058585E-1,-4.0900266E-1,-2.6034737E-1,1.9511765E-1,-7.027054E-1,1.8741101E-1],"categories":[],"categories_nodes":[],"categories_segments":[],"categories_sizes":[],"default_left":[0,0,0,0,0,0,0,0,0,0,0,0,0,0,0,0,0,0,0,0,0,0,0,0,0],"id":7,"left_children":[1,3,5,7,9,-1,11,13,15,17,19,21,23,-1,-1,-1,-1,-1,-1,-1,-1,-1,-1,-1,-1],"loss_changes":[2.353589E2,1.8303221E2,9.759503E1,8.4575714E1,1.9315723E2,0E0,7.1624176E1,4.757782E1,5.8332825E0,1.22536255E2,6.341057E1,5.134796E1,4.5858334E1,0E0,0E0,0E0,0E0,0E0,0E0,0E0,0E0,0E0,0E0,0E0,0E0],"parents":[2147483647,0,0,1,1,2,2,3,3,4,4,6,6,7,7,8,8,9,9,10,10,11,11,12,12],"right_children":[2,4,6,8,10,-1,12,14,16,18,20,22,24,-1,-1,-1,-1,-1,-1,-1,-1,-1,-1,-1,-1],"split_conditions":[3.3833334E-1,4.9E1,7.1070335E1,1.1440033E2,2.2203848E1,-6.3110656E-1,4.73E1,7.017544E-2,1E0,-1.7792667E1,3.58E1,2.92E1,3.275862E-1,5.1667687E-2,-2.832169E-1,2.5193802E-1,1.2529107E-2,-5.1958966E-1,3.6910737E-3,2.9058585E-1,-4.0900266E-1,-2.6034737E-1,1.9511765E-1,-7.027054E-1,1.8741101E-1],"split_indices":[4,2,3,3,11,0,12,8,0,4,12,12,8,0,0,0,0,0,0,0,0,0,0,0,0],"split_type":[0,0,0,0,0,0,0,0,0,0,0,0,0,0,0,0,0,0,0,0,0,0,0,0,0],"sum_hessian":[4.9669404E3,4.364989E3,6.0195197E2,3.6637503E2,3.9986135E3,1.02255745E1,5.9172644E2,3.3148233E2,3.4892693E1,3.8832434E3,1.1537001E2,5.756681E2,1.6058334E1,3.336295E1,2.981194E2,2.4605507E1,1.0287188E1,3.119517E1,3.8520483E3,9.416414E0,1.059536E2,1.7404028E1,5.5826404E2,1.0006477E1,6.051858E0],"tree_param":{"num_deleted":"0","num_feature":"14","num_nodes":"25","size_leaf_vector":"1"}},{"base_weights":[3.4396067E-2,-6.1296213E-2,3.106022E-1,-1.0323418E0,-3.3442374E-2,3.748508E-1,-1.1232922E0,-1.4519852E0,1.4162484E-1,1.1006398E-1,-2.776005E-1,6.414287E-1,1.9264002E-1,-4.8746887E-1,1.1340378E-1,-4.409622E-1,-1.8469261E-2,3.2452968E-1,-9.811421E-2,-6.726585E-2,8.163862E-2,1.56195285E-2,-1.7687692E-1,1.2672988E-1,3.26552E-1,2.9966572E-2,2.862614E-1,4.0140957E-1,-2.0646983E-1],"categories":[],"categories_nodes":[],"categories_segments":[],"categories_sizes":[],"default_left":[0,0,0,0,0,0,0,0,0,0,0,0,0,0,0,0,0,0,0,0,0,0,0,0,0,0,0,0,0],"id":8,"left_children":[1,3,5,7,9,11,13,15,17,19,21,23,25,-1,27,-1,-1,-1,-1,-1,-1,-1,-1,-1,-1,-1,-1,-1,-1],"loss_changes":[1.3204053E2,1.0032668E2,1.188407E2,5.11622E1,1.2645345E2,5.967209E1,4.8260056E1,2.0865448E1,1.5822783E1,1.6096413E2,1.7271086E2,4.7876663E1,5.1694794E1,0E0,2.7007704E1,0E0,0E0,0E0,0E0,0E0,0E0,0E0,0E0,0E0,0E0,0E0,0E0,0E0,0E0],"parents":[2147483647,0,0,1,1,2,2,3,3,4,4,5,5,6,6,7,7,8,8,9,9,10,10,11,11,12,12,14,14],"right_children":[2,4,6,8,10,12,14,16,18,20,22,24,26,-1,28,-1,-1,-1,-1,-1,-1,-1,-1,-1,-1,-1,-1,-1,-1],"split_conditions":[5.76E2,1.6211319E0,1.7E1,1.3666667E-2,2E0,6E0,-2.2066666E-1,5.29E2,3.2E-2,-1.9013333E0,-5.8163333E0,2.3E1,2.401E3,-4.8746887E-1,-8.366667E-2,-4.409622E-1,-1.8469261E-2,3.2452968E-1,-9.811421E-2,-6.726585E-2,8.163862E-2,1.56195285E-2,-1.7687692E-1,1.2672988E-1,3.26552E-1,2.9966572E-2,2.862614E-1,4.0140957E-1,-2.0646983E-1],"split_indices":[2,11,7,4,0,7,4,2,4,4,4,10,2,0,4,0,0,0,0,0,0,0,0,0,0,0,0,0,0],"split_type":[0,0,0,0,0,0,0,0,0,0,0,0,0,0,0,0,0,0,0,0,0,0,0,0,0,0,0,0,0],"sum_hessian":[4.993988E3,3.709575E3,1.2844132E3,1.0243414E2,3.6071406E3,1.2300374E3,5.43758E1,7.528583E1,2.714832E1,2.2721887E3,1.3349521E3,4.98379E2,7.316584E2,3.4388634E1,1.998717E1,6.565039E1,9.635437E0,8.286069E0,1.886225E1,7.970392E2,1.4751494E3,7.12858E2,6.220942E2,3.8854645E2,1.0983256E2,6.71344E2,6.0314392E1,7.513887E0,1.2473282E1],"tree_param":{"num_deleted":"0","num_feature":"14","num_nodes":"29","size_leaf_vector":"1"}},{"base_weights":[-1.6719216E-2,-5.3473485E-1,6.055541E-2,-1.3632172E-1,-1.0632085E0,1.6822508E-1,-2.738027E-1,-5.2008915E-1,8.0649817E-1,2.4790739E-1,-1.151286E0,-9.186222E-2,3.3093056E-1,7.720328E-1,-4.2311317E-1,-1.6369407E-1,2.3215176E-1,2.5509498E-1,-4.0733993E-2,-3.293689E-1,1.949528E-1,-1.589879E-1,1.1788056E-1,-5.016667E-1,9.644364E-2,4.2415565E-1,-2.1604095E-1,-2.0188202E-1,-6.0414493E-2],"categories":[],"categories_nodes":[],"categories_segments":[],"categories_sizes":[],"default_left":[0,0,0,0,0,0,0,0,0,0,0,0,0,0,0,0,0,0,0,0,0,0,0,0,0,0,0,0,0],"id":9,"left_children":[1,3,5,7,9,11,13,15,17,-1,19,21,23,25,27,-1,-1,-1,-1,-1,-1,-1,-1,-1,-1,-1,-1,-1,-1],"loss_changes":[1.9146716E2,1.305857E2,1.4989516E2,1.2892407E2,4.785211E1,1.3329599E2,1.5870993E2,3.3132233E1,1.4835114E1,0E0,4.027307E1,3.2572223E2,1.296437E2,1.6517944E2,5.8022324E1,0E0,0E0,0E0,0E0,0E0,0E0,0E0,0E0,0E0,0E0,0E0,0E0,0E0,0E0],"parents":[2147483647,0,0,1,1,2,2,3,3,4,4,5,5,6,6,7,7,8,8,10,10,11,11,12,12,13,13,14,14],"right_children":[2,4,6,8,10,12,14,16,18,-1,20,22,24,26,28,-1,-1,-1,-1,-1,-1,-1,-1,-1,-1,-1,-1,-1,-1],"split_conditions":[9E0,1.754386E-1,6.857143E-1,1.0777033E2,-1.3197667E1,8.526767E1,2.51E1,4.6733335E-1,1.469E0,2.4790739E-1,5.233333E-1,2.3E1,1.5789473E-1,7.609634E1,2.6192307E-2,-1.6369407E-1,2.3215176E-1,2.5509498E-1,-4.0733993E-2,-3.293689E-1,1.949528E-1,-1.589879E-1,1.1788056E-1,-5.016667E-1,9.644364E-2,4.2415565E-1,-2.1604095E-1,-2.0188202E-1,-6.0414493E-2],"split_indices":[1,8,8,3,4,3,12,4,9,0,4,1,8,3,9,0,0,0,0,0,0,0,0,0,0,0,0,0,0],"split_type":[0,0,0,0,0,0,0,0,0,0,0,0,0,0,0,0,0,0,0,0,0,0,0,0,0,0,0,0,0],"sum_hessian":[4.7813467E3,6.1989813E2,4.1614487E3,3.5415826E2,2.6573987E2,3.1481738E3,1.01327496E3,2.5202275E2,1.02135506E2,1.0852056E1,2.5488783E2,1.2116952E3,1.9364785E3,1.26068146E2,8.8720685E2,2.3677457E2,1.524819E1,8.844266E1,1.3692848E1,2.4459686E2,1.0290958E1,6.2322217E2,5.884731E2,2.5233398E1,1.9112451E3,8.31487E1,4.291945E1,3.2884488E2,5.5836194E2],"tree_param":{"num_deleted":"0","num_feature":"14","num_nodes":"29","size_leaf_vector":"1"}},{"base_weights":[2.4162693E-2,7.2068505E-2,-4.723013E-1,5.0115407E-2,9.249323E-1,-7.207062E-1,4.532979E-1,4.528593E-1,1.3707837E-2,1.1196601E0,2.5350982E-1,6.647732E-1,-1.0913177E0,-3.37872E-1,1.3514342E0,-4.562577E-1,1.3771959E-1,-2.2045335E-1,9.695727E-3,2.4125479E-1,5.38748E-1,-1.9739443E-1,2.8882006E-1,3.5469195E-1,-3.3877045E-1,-1.6081825E-1,-3.4165215E-1,3.0955039E-2,4.974079E-1],"categories":[],"categories_nodes":[],"categories_segments":[],"categories_sizes":[],"default_left":[0,0,0,0,0,0,0,0,0,0,0,0,0,0,0,0,0,0,0,0,0,0,0,0,0,0,0,0,0],"id":10,"left_children":[1,3,5,7,9,11,13,15,17,19,21,23,25,-1,27,-1,-1,-1,-1,-1,-1,-1,-1,-1,-1,-1,-1,-1,-1],"loss_changes":[1.11408035E2,7.993067E1,9.510844E1,6.1071564E1,1.3723648E1,1.6780736E2,1.3725874E2,4.7690277E1,7.2457634E1,1.4251801E1,2.1649593E1,9.050701E1,2.2846344E1,0E0,3.649112E1,0E0,0E0,0E0,0E0,0E0,0E0,0E0,0E0,0E0,0E0,0E0,0E0,0E0,0E0],"parents":[2147483647,0,0,1,1,2,2,3,3,4,4,5,5,6,6,7,7,8,8,9,9,10,10,11,11,12,12,14,14],"right_children":[2,4,6,8,10,12,14,16,18,20,22,24,26,-1,28,-1,-1,-1,-1,-1,-1,-1,-1,-1,-1,-1,-1,-1,-1],"split_conditions":[8.4210527E-1,1.1503167E2,1.37106695E1,4.76E-1,2.293E0,8.11E-1,8.949E0,1.03E-1,1.6211319E0,4.817E0,1.1709E1,4.6198378E0,2.303E0,-3.37872E-1,8.51E0,-4.562577E-1,1.3771959E-1,-2.2045335E-1,9.695727E-3,2.4125479E-1,5.38748E-1,-1.9739443E-1,2.8882006E-1,3.5469195E-1,-3.3877045E-1,-1.6081825E-1,-3.4165215E-1,3.0955039E-2,4.974079E-1],"split_indices":[8,3,11,6,5,6,5,6,11,6,5,11,6,0,6,0,0,0,0,0,0,0,0,0,0,0,0,0,0],"split_type":[0,0,0,0,0,0,0,0,0,0,0,0,0,0,0,0,0,0,0,0,0,0,0,0,0,0,0,0,0],"sum_hessian":[4.681824E3,4.2705923E3,4.112318E2,4.1644565E3,1.061362E2,3.243947E2,8.6837105E1,3.4430325E2,3.820153E3,8.1757164E1,2.437904E1,6.829386E1,2.5610086E2,2.9669125E1,5.7167984E1,8.972881E0,3.3533035E2,9.922799E1,3.720925E3,6.748417E1,1.4272996E1,1.1135078E1,1.3243961E1,5.1083355E1,1.7210508E1,7.218983E1,1.8391103E2,1.707903E1,4.0088955E1],"tree_param":{"num_deleted":"0","num_feature":"14","num_nodes":"29","size_leaf_vector":"1"}},{"base_weights":[6.261704E-2,-4.1096386E-1,7.8598805E-2,-3.2345313E-1,1.3287547E-1,-1.1714181E0,2.2505343E-2,9.900906E-1,9.9634044E-2,-3.4610295E-1,-1.4416629E-1,-8.633164E-2,1.5903237E-1,4.1875663E-1,1.2337709E-1,-9.106157E-4,8.14886E-2],"categories":[],"categories_nodes":[],"categories_segments":[],"categories_sizes":[],"default_left":[0,0,0,0,0,0,0,0,0,0,0,0,0,0,0,0,0],"id":11,"left_children":[1,-1,3,5,7,9,11,13,15,-1,-1,-1,-1,-1,-1,-1,-1],"loss_changes":[1.2153143E2,0E0,1.02576E2,1.6405966E2,1.1788363E2,1.2025314E1,7.9037865E1,4.6400696E1,8.4402664E1,0E0,0E0,0E0,0E0,0E0,0E0,0E0,0E0],"parents":[2147483647,0,0,2,2,3,3,4,4,5,5,6,6,7,7,8,8],"right_children":[2,-1,4,6,8,10,12,14,16,-1,-1,-1,-1,-1,-1,-1,-1],"split_conditions":[1.79E1,-4.1096386E-1,9E0,1E1,2.49E1,1.0777033E2,4.11E1,7.7164E1,-8.2533336E-1,-3.4610295E-1,-1.4416629E-1,-8.633164E-2,1.5903237E-1,4.1875663E-1,1.2337709E-1,-9.106157E-4,8.14886E-2],"split_indices":[12,0,1,7,12,3,12,3,4,0,0,0,0,0,0,0,0],"split_type":[0,0,0,0,0,0,0,0,0,0,0,0,0,0,0,0,0],"sum_hessian":[4.743537E3,4.5937225E1,4.6976E3,5.581523E2,4.1394478E3,1.610422E2,3.9711008E2,1.5345418E2,3.9859934E3,1.336833E2,2.735889E1,2.47929E2,1.4918108E2,7.235653E1,8.109765E1,2.6552021E3,1.3307914E3],"tree_param":{"num_deleted":"0","num_feature":"14","num_nodes":"17","size_leaf_vector":"1"}},{"base_weights":[-8.083706E-4,-2.2999722E-1,1.0065951E-1,5.045815E-1,-3.510616E-1,2.5484967E-1,-5.7598792E-2,5.941635E-1,-4.317622E-1,-1.6139107E-2,-5.352898E-1,-1.1060849E-1,4.1000256E-1,9.1835655E-2,-5.455126E-1,-3.9512002E-1,1.8258347E-1,-1.0601025E-1,5.4656744E-2,-1.9313166E-1,-2.4058964E-2,1.2792924E-1,-9.0890184E-2,8.452674E-2,2.1824557E-1,-9.287908E-2,6.8609186E-2,-3.4762374E-1,-7.432847E-3],"categories":[],"categories_nodes":[],"categories_segments":[],"categories_sizes":[],"default_left":[0,0,0,0,0,0,0,0,0,0,0,0,0,0,0,0,0,0,0,0,0,0,0,0,0,0,0,0,0],"id":12,"left_children":[1,3,5,7,9,11,13,15,-1,17,19,21,23,25,27,-1,-1,-1,-1,-1,-1,-1,-1,-1,-1,-1,-1,-1,-1],"loss_changes":[1.05321884E2,1.23772514E2,7.661605E1,3.840057E1,7.364737E1,9.0212715E1,1.1305938E2,3.618696E1,0E0,3.5773663E1,6.430669E1,6.443604E1,4.2259933E1,8.6218735E1,1.4223036E2,0E0,0E0,0E0,0E0,0E0,0E0,0E0,0E0,0E0,0E0,0E0,0E0,0E0,0E0],"parents":[2147483647,0,0,1,1,2,2,3,3,4,4,5,5,6,6,7,7,9,9,10,10,11,11,12,12,13,13,14,14],"right_children":[2,4,6,8,10,12,14,16,-1,18,20,22,24,26,28,-1,-1,-1,-1,-1,-1,-1,-1,-1,-1,-1,-1,-1,-1],"split_conditions":[1.4E1,5.3E-1,2E0,4.97E-1,1.061E0,2.463E0,8.78E-1,1.66E-1,-4.317622E-1,9.82E-1,-1.3266666E-1,6.36E-1,1.2519E1,8.611111E-3,4.671E0,-3.9512002E-1,1.8258347E-1,-1.0601025E-1,5.4656744E-2,-1.9313166E-1,-2.4058964E-2,1.2792924E-1,-9.0890184E-2,8.452674E-2,2.1824557E-1,-9.287908E-2,6.8609186E-2,-3.4762374E-1,-7.432847E-3],"split_indices":[1,6,0,9,5,5,9,6,0,6,4,5,6,9,6,0,0,0,0,0,0,0,0,0,0,0,0,0,0],"split_type":[0,0,0,0,0,0,0,0,0,0,0,0,0,0,0,0,0,0,0,0,0,0,0,0,0,0,0,0,0],"sum_hessian":[4.526944E3,1.3887844E3,3.1381597E3,1.9604999E2,1.1927344E3,1.5892004E3,1.5489591E3,1.8879591E2,7.2540655E0,4.2364514E2,7.6908923E2,4.737003E2,1.1155002E3,1.1864073E3,3.6255182E2,7.160217E0,1.816357E2,1.5519257E2,2.6845258E2,5.40524E2,2.2856526E2,1.3249644E2,3.4120383E2,9.084819E2,2.0701831E2,3.2353284E2,8.628745E2,1.467531E2,2.1579874E2],"tree_param":{"num_deleted":"0","num_feature":"14","num_nodes":"29","size_leaf_vector":"1"}},{"base_weights":[2.3140488E-2,-1.6141744E-1,1.3037165E-1,-2.9751595E-2,-9.3814284E-1,6.168226E-2,6.95151E-1,8.547386E-1,-1.0574103E-1,-1.3566557E0,-1.8880199E-1,1.3320893E-1,-1.6031227E0,1.9553967E-1,1.1502826E0,2.933653E-1,-7.875515E-2,-1.1585159E-1,3.1989355E-2,7.253531E-2,-4.088169E-1,1.6554728E-1,-3.7745726E-1,-2.882236E-2,9.082683E-2,-4.6836162E-1,-3.0326255E-2,-8.3170846E-2,1.9518624E-1,3.813153E-1,-1.1604478E-1],"categories":[],"categories_nodes":[],"categories_segments":[],"categories_sizes":[],"default_left":[0,0,0,0,0,0,0,0,0,0,0,0,0,0,0,0,0,0,0,0,0,0,0,0,0,0,0,0,0,0,0],"id":13,"left_children":[1,3,5,7,9,11,13,15,17,19,21,23,25,27,29,-1,-1,-1,-1,-1,-1,-1,-1,-1,-1,-1,-1,-1,-1,-1,-1],"loss_changes":[8.861577E1,1.6826454E2,1.0982508E2,9.4732285E1,7.453546E1,3.010125E2,6.958205E1,3.1546104E1,9.6022545E1,4.3687775E1,8.663077E1,1.2086449E2,2.3117737E1,4.0257336E1,7.111948E1,0E0,0E0,0E0,0E0,0E0,0E0,0E0,0E0,0E0,0E0,0E0,0E0,0E0,0E0,0E0,0E0],"parents":[2147483647,0,0,1,1,2,2,3,3,4,4,5,5,6,6,7,7,8,8,9,9,10,10,11,11,12,12,13,13,14,14],"right_children":[2,4,6,8,10,12,14,16,18,20,22,24,26,28,30,-1,-1,-1,-1,-1,-1,-1,-1,-1,-1,-1,-1,-1,-1,-1,-1],"split_conditions":[8.4678E1,8.2529E1,1.37106695E1,2.51E1,2.5E1,9.031555E0,6.551724E-1,7.6640335E1,1.9E1,1.14285715E-1,6.896552E-1,9.603367E1,3.8E1,1.7E1,7.5714284E-1,2.933653E-1,-7.875515E-2,-1.1585159E-1,3.1989355E-2,7.253531E-2,-4.088169E-1,1.6554728E-1,-3.7745726E-1,-2.882236E-2,9.082683E-2,-4.6836162E-1,-3.0326255E-2,-8.3170846E-2,1.9518624E-1,3.813153E-1,-1.1604478E-1],"split_indices":[3,3,11,12,1,11,8,3,1,8,8,3,1,1,8,0,0,0,0,0,0,0,0,0,0,0,0,0,0,0,0],"split_type":[0,0,0,0,0,0,0,0,0,0,0,0,0,0,0,0,0,0,0,0,0,0,0,0,0,0,0,0,0,0,0],"sum_hessian":[4.47566E3,1.644599E3,2.831061E3,1.407112E3,2.3748692E2,2.5250674E3,3.0599365E2,1.1051448E2,1.2965977E3,1.5186092E2,8.5626015E1,2.4219316E3,1.0313587E2,1.465505E2,1.5944315E2,9.123069E1,1.9283794E1,5.278883E2,7.6870935E2,1.4597039E1,1.3726387E2,5.186593E1,3.3760082E1,1.1184934E3,1.3034381E3,9.352145E1,9.614424E0,7.547857E1,7.1071945E1,1.3578459E2,2.3658545E1],"tree_param":{"num_deleted":"0","num_feature":"14","num_nodes":"31","size_leaf_vector":"1"}},{"base_weights":[1.9873142E-2,-5.9851173E-2,3.006495E-1,-1.857887E-2,-8.698635E-1,2.0236486E-1,8.7412685E-1,1.1102508E-3,-3.2199866E-1,-1.1901451E0,9.616862E-3,3.9193448E-1,-1.2623872E-1,-3.6150214E-1,9.961832E-1,6.1543737E-2,-2.6505515E-2,-9.765744E-2,-4.8029107E-1,1.3126168E-1,-4.3927315E-1,1.5851032E-2,1.8191698E-1,-2.918396E-1,2.6225237E-2,3.359555E-1,8.78522E-2],"categories":[],"categories_nodes":[],"categories_segments":[],"categories_sizes":[],"default_left":[0,0,0,0,0,0,0,0,0,0,0,0,0,0,0,0,0,0,0,0,0,0,0,0,0,0,0],"id":14,"left_children":[1,3,5,7,9,11,13,15,-1,17,19,21,23,-1,25,-1,-1,-1,-1,-1,-1,-1,-1,-1,-1,-1,-1],"loss_changes":[9.866333E1,1.1475571E2,5.476274E1,7.636415E1,4.688958E1,5.1965855E1,4.003971E1,7.400047E1,0E0,6.050058E1,3.70057E1,5.0805008E1,6.63938E1,0E0,2.323436E1,0E0,0E0,0E0,0E0,0E0,0E0,0E0,0E0,0E0,0E0,0E0,0E0],"parents":[2147483647,0,0,1,1,2,2,3,3,4,4,5,5,6,6,7,7,9,9,10,10,11,11,12,12,14,14],"right_children":[2,4,6,8,10,12,14,16,-1,18,20,22,24,-1,26,-1,-1,-1,-1,-1,-1,-1,-1,-1,-1,-1,-1],"split_conditions":[2.6E1,4.317E0,1.7621E1,9.310345E-1,1.6126E1,6.551724E-1,-8.821E0,6E0,-3.2199866E-1,3E-1,2.4445E1,5.5172414E-1,2.26E-2,-3.6150214E-1,3.59E1,6.1543737E-2,-2.6505515E-2,-9.765744E-2,-4.8029107E-1,1.3126168E-1,-4.3927315E-1,1.5851032E-2,1.8191698E-1,-2.918396E-1,2.6225237E-2,3.359555E-1,8.78522E-2],"split_indices":[1,9,6,8,6,8,4,10,0,8,6,8,9,0,12,0,0,0,0,0,0,0,0,0,0,0,0],"split_type":[0,0,0,0,0,0,0,0,0,0,0,0,0,0,0,0,0,0,0,0,0,0,0,0,0,0,0],"sum_hessian":[4.405819E3,3.43209E3,9.7372906E2,3.2666675E3,1.6542255E2,8.3241895E2,1.4131012E2,3.2143452E3,5.2322285E1,1.2100334E2,4.4419197E1,5.2776276E2,3.046562E2,6.8167863E0,1.3449333E2,9.780478E2,2.2362974E3,5.203381E1,6.8969536E1,3.494413E1,9.475066E0,2.4599088E2,2.8177188E2,5.6688744E1,2.4796744E2,9.598505E1,3.8508278E1],"tree_param":{"num_deleted":"0","num_feature":"14","num_nodes":"27","size_leaf_vector":"1"}},{"base_weights":[2.084165E-2,-1.5860482E-1,1.19447984E-1,-5.002274E-1,-3.485738E-2,8.855281E-1,7.385208E-2,6.242654E-2,-7.545935E-1,-1.3356411E-1,5.7229036E-1,1.0919145E0,-4.033066E-1,-1.6169222E-1,1.6767643E-1,-3.9458972E-1,1.3574523E-1,-2.9213497E-1,-6.6407785E-2,6.1457556E-2,-1.1416801E-1,-2.399707E-2,3.0838996E-1,-2.0618883E-1,3.5973227E-1,-1.7037606E-1,5.395605E-2,-6.6203296E-2,6.909444E-2],"categories":[],"categories_nodes":[],"categories_segments":[],"categories_sizes":[],"default_left":[0,0,0,0,0,0,0,0,0,0,0,0,0,0,0,0,0,0,0,0,0,0,0,0,0,0,0,0,0],"id":15,"left_children":[1,3,5,7,9,11,13,15,17,19,21,23,-1,25,27,-1,-1,-1,-1,-1,-1,-1,-1,-1,-1,-1,-1,-1,-1],"loss_changes":[7.669431E1,6.496529E1,9.763861E1,5.8536064E1,6.776542E1,7.928519E1,5.8394665E1,8.871057E1,4.8028366E1,1.04002E2,6.1068832E1,6.99883E1,0E0,1.3050343E2,7.1499466E1,0E0,0E0,0E0,0E0,0E0,0E0,0E0,0E0,0E0,0E0,0E0,0E0,0E0,0E0],"parents":[2147483647,0,0,1,1,2,2,3,3,4,4,5,5,6,6,7,7,8,8,9,9,10,10,11,11,13,13,14,14],"right_children":[2,4,6,8,10,12,14,16,18,20,22,24,-1,26,28,-1,-1,-1,-1,-1,-1,-1,-1,-1,-1,-1,-1,-1,-1],"split_conditions":[8.4581665E1,8.611111E-3,-8.821E0,7.5892334E1,1.8439E1,1.9E1,1.45E0,4.355E0,-1.4823333E0,1.511E0,7.783E0,3.248E0,-4.033066E-1,1.2E1,1.2E1,-3.9458972E-1,1.3574523E-1,-2.9213497E-1,-6.6407785E-2,6.1457556E-2,-1.1416801E-1,-2.399707E-2,3.0838996E-1,-2.0618883E-1,3.5973227E-1,-1.7037606E-1,5.395605E-2,-6.6203296E-2,6.909444E-2],"split_indices":[3,9,4,3,5,7,5,6,4,6,6,5,0,7,1,0,0,0,0,0,0,0,0,0,0,0,0,0,0],"split_type":[0,0,0,0,0,0,0,0,0,0,0,0,0,0,0,0,0,0,0,0,0,0,0,0,0,0,0,0,0],"sum_hessian":[4.332274E3,1.5361459E3,2.7961282E3,4.0767047E2,1.1284755E3,1.560377E2,2.6400906E3,1.2715659E2,2.805139E2,9.713403E2,1.5713513E2,1.441611E2,1.1876609E1,7.5185333E2,1.8882372E3,2.8029594E1,9.9127E1,1.672596E2,1.1325429E2,4.3421426E2,5.3712604E2,7.391986E1,8.321528E1,1.7096006E1,1.27065094E2,3.2525934E2,4.26594E2,3.389132E2,1.549324E3],"tree_param":{"num_deleted":"0","num_feature":"14","num_nodes":"29","size_leaf_vector":"1"}},{"base_weights":[2.9329594E-2,1.3208297E-1,-1.3542591E-1,2.0209745E-1,-2.6550546E-1,-9.4477326E-2,-3.3262703E-1,-5.962582E-1,2.3876102E-1,-7.376414E-1,6.077046E-1,-3.577459E-1,-5.597702E-2,-5.696952E-2,-7.4022275E-1,2.1820035E-2,1.132248E-1,-2.7720568E-1,-8.267762E-2,4.9060255E-1,2.398422E-2,-6.176772E-2,4.5077592E-2],"categories":[],"categories_nodes":[],"categories_segments":[],"categories_sizes":[],"default_left":[0,0,0,0,0,0,0,0,0,0,0,0,0,0,0,0,0,0,0,0,0,0,0],"id":16,"left_children":[1,3,5,7,9,11,-1,13,15,17,19,-1,21,-1,-1,-1,-1,-1,-1,-1,-1,-1,-1],"loss_changes":[7.2823456E1,7.379906E1,7.4979004E1,6.609173E1,1.6416109E2,7.635331E1,0E0,8.205015E1,6.262532E1,3.28564E1,8.8887054E1,0E0,6.100898E1,0E0,0E0,0E0,0E0,0E0,0E0,0E0,0E0,0E0,0E0],"parents":[2147483647,0,0,1,1,2,2,3,3,4,4,5,5,7,7,8,8,9,9,10,10,12,12],"right_children":[2,4,6,8,10,12,-1,14,16,18,20,-1,22,-1,-1,-1,-1,-1,-1,-1,-1,-1,-1],"split_conditions":[4.997539E0,7.3239434E-1,9E-1,1.6211319E0,2.8E1,1.2820514E-1,-3.3262703E-1,4.52E0,1.7E1,7.406E0,1.031E0,-3.577459E-1,1.37106695E1,-5.696952E-2,-7.4022275E-1,2.1820035E-2,1.132248E-1,-2.7720568E-1,-8.267762E-2,4.9060255E-1,2.398422E-2,-6.176772E-2,4.5077592E-2],"split_indices":[11,8,8,11,1,8,0,5,1,5,5,0,11,0,0,0,0,0,0,0,0,0,0],"split_type":[0,0,0,0,0,0,0,0,0,0,0,0,0,0,0,0,0,0,0,0,0,0,0],"sum_hessian":[4.299595E3,2.6481914E3,1.651404E3,2.252094E3,3.9609726E2,1.5936892E3,5.7714832E1,9.821358E1,2.1538804E3,2.571916E2,1.3890567E2,4.6797153E1,1.5468921E3,8.444261E1,1.37709675E1,1.1660114E3,9.878691E2,1.5035399E2,1.06837616E2,4.0426945E1,9.847873E1,8.690848E2,6.7780725E2],"tree_param":{"num_deleted":"0","num_feature":"14","num_nodes":"23","size_leaf_vector":"1"}},{"base_weights":[-3.0104032E-2,2.6439473E-1,-9.522149E-2,-8.374575E-1,3.6837748E-1,-3.817571E-1,-8.260666E-2,-3.979958E-1,2.902468E-1,3.061767E-2,5.457346E-1,5.2837723E-1,-1.1421139E-1,1.542092E-1,-1.04521744E-1,2.15036E-1,-1.0440652E-1,-3.055888E-2,1.818953E-1,1.8381491E-1,-3.9115146E-1,-4.3109927E-1,-2.694898E-2],"categories":[],"categories_nodes":[],"categories_segments":[],"categories_sizes":[],"default_left":[0,0,0,0,0,0,0,0,0,0,0,0,0,0,0,0,0,0,0,0,0,0,0],"id":17,"left_children":[1,3,5,7,9,-1,11,-1,13,15,17,19,21,-1,-1,-1,-1,-1,-1,-1,-1,-1,-1],"loss_changes":[7.7827034E1,8.450779E1,5.5803993E1,4.7291435E1,4.0251717E1,0E0,6.3649586E1,0E0,4.956483E0,7.620809E1,3.942305E1,5.2635513E1,6.2404663E1,0E0,0E0,0E0,0E0,0E0,0E0,0E0,0E0,0E0,0E0],"parents":[2147483647,0,0,1,1,2,2,3,3,4,4,6,6,8,8,9,9,10,10,11,11,12,12],"right_children":[2,4,6,8,10,-1,12,-1,14,16,18,20,22,-1,-1,-1,-1,-1,-1,-1,-1,-1,-1],"split_conditions":[1E0,6.4E1,-1.42786665E1,1.1440033E2,2.99E1,-3.817571E-1,-8.821E0,-3.979958E-1,1.4E1,2.51E1,7.7028E1,4.09E1,-8.234E0,1.542092E-1,-1.04521744E-1,2.15036E-1,-1.0440652E-1,-3.055888E-2,1.818953E-1,1.8381491E-1,-3.9115146E-1,-4.3109927E-1,-2.694898E-2],"split_indices":[0,2,4,3,12,0,4,0,7,12,3,12,4,0,0,0,0,0,0,0,0,0,0],"split_type":[0,0,0,0,0,0,0,0,0,0,0,0,0,0,0,0,0,0,0,0,0,0,0],"sum_hessian":[4.056038E3,7.338924E2,3.3221458E3,6.2677452E1,6.712149E2,3.0069504E1,3.2920762E3,3.949967E1,2.3177786E1,2.3150612E2,4.397088E2,1.6114261E2,3.1309336E3,1.6416088E1,6.7616987E0,8.127165E1,1.5023447E2,7.479048E1,3.6491833E2,1.4978705E2,1.1355565E1,2.6506395E1,3.1044272E3],"tree_param":{"num_deleted":"0","num_feature":"14","num_nodes":"23","size_leaf_vector":"1"}},{"base_weights":[-5.1283436E-3,1.15824394E-1,-1.7379543E-1,1.2892312E-1,-1.5376719E0,-7.298315E-1,-8.045434E-2,7.702402E-2,8.1079805E-1,-6.3419527E-1,4.734983E-2,-1.1509236E0,-1.5035906E-1,-3.675067E-2,-8.0862576E-1,-3.228447E-1,2.654294E-2,2.6293737E-1,-7.733667E-2,-3.2620552E-1,-1.3536184E-1,7.318413E-2,-3.236222E-1,5.5096373E-2,-4.1225743E-2,-3.3602008E-1,2.8280142E-1],"categories":[],"categories_nodes":[],"categories_segments":[],"categories_sizes":[],"default_left":[0,0,0,0,0,0,0,0,0,0,0,0,0,0,0,0,0,0,0,0,0,0,0,0,0,0,0],"id":18,"left_children":[1,3,5,7,9,11,13,15,17,-1,-1,19,21,23,25,-1,-1,-1,-1,-1,-1,-1,-1,-1,-1,-1,-1],"loss_changes":[8.409823E1,5.2195393E1,8.929261E1,8.4261955E1,2.7603695E1,6.017917E1,4.6917915E1,6.3769264E1,3.2453796E1,0E0,0E0,5.8623047E0,4.772411E1,3.983174E1,7.138152E1,0E0,0E0,0E0,0E0,0E0,0E0,0E0,0E0,0E0,0E0,0E0,0E0],"parents":[2147483647,0,0,1,1,2,2,3,3,4,4,5,5,6,6,7,7,8,8,11,11,12,12,13,13,14,14],"right_children":[2,4,6,8,10,12,14,16,18,-1,-1,20,22,24,26,-1,-1,-1,-1,-1,-1,-1,-1,-1,-1,-1,-1],"split_conditions":[2E0,3.9E1,1.3E1,3E1,8.381467E1,3.934E0,1.0577067E2,7.0653336E1,1.607E0,-6.3419527E-1,4.734983E-2,1.0744666E2,1.0456E1,1.8E1,4.8E1,-3.228447E-1,2.654294E-2,2.6293737E-1,-7.733667E-2,-3.2620552E-1,-1.3536184E-1,7.318413E-2,-3.236222E-1,5.5096373E-2,-4.1225743E-2,-3.3602008E-1,2.8280142E-1],"split_indices":[0,1,1,1,3,6,3,3,9,0,0,3,6,1,1,0,0,0,0,0,0,0,0,0,0,0,0],"split_type":[0,0,0,0,0,0,0,0,0,0,0,0,0,0,0,0,0,0,0,0,0,0,0,0,0,0,0],"sum_hessian":[4.1203247E3,2.399753E3,1.7205719E3,2.3818066E3,1.7946241E1,2.4633382E2,1.4742382E3,2.2143782E3,1.6742853E2,1.1803565E1,6.1426754E0,1.42092E2,1.0424183E2,1.3917576E3,8.248057E1,3.692398E1,2.1774543E3,1.4470624E2,2.2722282E1,1.2730039E2,1.4791598E1,7.499536E1,2.9246464E1,4.5358612E2,9.3817145E2,6.674554E1,1.573503E1],"tree_param":{"num_deleted":"0","num_feature":"14","num_nodes":"27","size_leaf_vector":"1"}},{"base_weights":[-1.803442E-2,7.5239256E-2,-1.6698343E-1,1.6858125E-1,-2.991981E-1,-3.5582075E-1,7.6356396E-2,-1.1147882E0,1.9360991E-1,-5.466114E-1,4.6496588E-1,-7.478844E-1,-3.399965E-2,-2.542922E-1,5.5317557E-1,-4.4079274E-1,1.9571066E-2,-3.6322214E-2,7.036261E-2,-2.0694391E-1,6.929456E-2,-3.055783E-1,2.3712504E-1,-3.7251985E-1,-1.0542315E-1,4.0183946E-2,-2.6728508E-1,2.3900726E-1,-1.0232094E-1,1.7229143E-1,-4.4123572E-1],"categories":[],"categories_nodes":[],"categories_segments":[],"categories_sizes":[],"default_left":[0,0,0,0,0,0,0,0,0,0,0,0,0,0,0,0,0,0,0,0,0,0,0,0,0,0,0,0,0,0,0],"id":19,"left_children":[1,3,5,7,9,11,13,15,17,19,21,23,25,27,29,-1,-1,-1,-1,-1,-1,-1,-1,-1,-1,-1,-1,-1,-1,-1,-1],"loss_changes":[5.553168E1,8.5961044E1,7.075313E1,6.3436493E1,9.30557E1,1.09342186E2,1.0629937E2,2.4165539E1,4.4476074E1,6.8470024E1,8.3047104E1,8.8699905E1,8.521045E1,5.927993E1,5.6969482E1,0E0,0E0,0E0,0E0,0E0,0E0,0E0,0E0,0E0,0E0,0E0,0E0,0E0,0E0,0E0,0E0],"parents":[2147483647,0,0,1,1,2,2,3,3,4,4,5,5,6,6,7,7,8,8,9,9,10,10,11,11,12,12,13,13,14,14],"right_children":[2,4,6,8,10,12,14,16,18,20,22,24,26,28,30,-1,-1,-1,-1,-1,-1,-1,-1,-1,-1,-1,-1,-1,-1,-1,-1],"split_conditions":[4.997539E0,6.619718E-1,1.37106695E1,7.091333E1,9.2957747E-1,-1.8186667E0,8.4298E1,5.29E2,-6.4496665E0,4.6198378E0,8E0,2.05E0,9.031555E0,2.92E1,9.1503E1,-4.4079274E-1,1.9571066E-2,-3.6322214E-2,7.036261E-2,-2.0694391E-1,6.929456E-2,-3.055783E-1,2.3712504E-1,-3.7251985E-1,-1.0542315E-1,4.0183946E-2,-2.6728508E-1,2.3900726E-1,-1.0232094E-1,1.7229143E-1,-4.4123572E-1],"split_indices":[11,8,11,3,8,4,3,2,4,11,7,6,11,12,3,0,0,0,0,0,0,0,0,0,0,0,0,0,0,0,0],"split_type":[0,0,0,0,0,0,0,0,0,0,0,0,0,0,0,0,0,0,0,0,0,0,0,0,0,0,0,0,0,0,0],"sum_hessian":[3.9951877E3,2.4570488E3,1.5381389E3,1.9672024E3,4.898463E2,8.6579767E2,6.7234125E2,3.6798187E1,1.9304043E3,3.702539E2,1.19592415E2,3.8970703E2,4.7609064E2,3.9730096E2,2.7504028E2,2.5097942E1,1.1700245E1,3.372485E2,1.5931558E3,2.8860605E2,8.164785E1,2.4530262E1,9.506215E1,1.3661186E2,2.5309517E2,4.0051596E2,7.5574684E1,3.943795E1,3.57863E2,2.6472174E2,1.0318543E1],"tree_param":{"num_deleted":"0","num_feature":"14","num_nodes":"31","size_leaf_vector":"1"}},{"base_weights":[2.0530334E-2,-1.0298433E0,3.5682607E-2,-1.2349538E0,1.3523245E-1,-8.760863E-1,5.3234424E-2,-3.8888544E-1,-1.3404241E-1,-4.1199857E-1,4.2404372E-1,1.6423589E-1,-9.164197E-2,3.0630144E-1,-1.4898506E-1,3.0616486E-2,2.251789E-1,-8.378126E-3,-2.812231E-1],"categories":[],"categories_nodes":[],"categories_segments":[],"categories_sizes":[],"default_left":[0,0,0,0,0,0,0,0,0,0,0,0,0,0,0,0,0,0,0],"id":20,"left_children":[1,3,5,7,-1,9,11,-1,-1,-1,13,15,17,-1,-1,-1,-1,-1,-1],"loss_changes":[6.323239E1,1.8426468E1,6.270216E1,7.390106E0,0E0,6.47645E1,6.180311E1,0E0,0E0,0E0,1.8988209E1,7.317845E1,9.657152E1,0E0,0E0,0E0,0E0,0E0,0E0],"parents":[2147483647,0,0,1,1,2,2,3,3,5,5,6,6,10,10,11,11,12,12],"right_children":[2,4,6,8,-1,10,12,-1,-1,-1,14,16,18,-1,-1,-1,-1,-1,-1],"split_conditions":[7.091333E1,8.41E2,2.47E1,3.25E1,1.3523245E-1,1.945E0,3.6E1,-3.8888544E-1,-1.3404241E-1,-4.1199857E-1,2.202E0,6.216E0,1.4602667E1,3.0630144E-1,-1.4898506E-1,3.0616486E-2,2.251789E-1,-8.378126E-3,-2.812231E-1],"split_indices":[3,2,12,12,0,9,12,0,0,0,9,9,11,0,0,0,0,0,0],"split_type":[0,0,0,0,0,0,0,0,0,0,0,0,0,0,0,0,0,0,0],"sum_hessian":[3.969685E3,5.549848E1,3.9141868E3,4.913394E1,6.364541E0,7.3002304E1,3.8411843E3,3.699798E1,1.2135965E1,4.8142166E1,2.4860142E1,2.174778E3,1.6664062E3,1.4223048E1,1.06370945E1,2.0277322E3,1.47046E2,1.5690443E3,9.736185E1],"tree_param":{"num_deleted":"0","num_feature":"14","num_nodes":"19","size_leaf_vector":"1"}},{"base_weights":[1.574258E-2,-1.02696225E-1,1.18411615E-1,-3.8539466E-1,6.404308E-2,2.2499385E-1,-1.4485654E-1,-1.2328226E-1,-9.743093E-1,-2.0051803E-1,2.5436392E-1,1.15325436E-1,7.0159936E-1,1.4967619E-1,-6.9009453E-1,-3.2177356E-1,3.2111272E-2,-3.9923212E-1,-1.3040598E-1,1.3396633E-1,-1.9767518E-1,-2.2299956E-1,9.074935E-2,-1.1894983E-1,4.9656887E-2,9.76346E-2,2.3109098E-1,1.2628154E-1,-1.02746196E-1,-3.7139598E-1,-6.335681E-4],"categories":[],"categories_nodes":[],"categories_segments":[],"categories_sizes":[],"default_left":[0,0,0,0,0,0,0,0,0,0,0,0,0,0,0,0,0,0,0,0,0,0,0,0,0,0,0,0,0,0,0],"id":21,"left_children":[1,3,5,7,9,11,13,15,17,19,21,23,25,27,29,-1,-1,-1,-1,-1,-1,-1,-1,-1,-1,-1,-1,-1,-1,-1,-1],"loss_changes":[4.770153E1,8.588896E1,5.8992546E1,1.04219955E2,5.7786407E1,7.811797E1,9.744266E1,1.2361204E2,5.1890396E1,1.8230493E2,6.2344933E1,4.8256134E1,1.5055801E1,6.826512E1,1.0247203E2,0E0,0E0,0E0,0E0,0E0,0E0,0E0,0E0,0E0,0E0,0E0,0E0,0E0,0E0,0E0,0E0],"parents":[2147483647,0,0,1,1,2,2,3,3,4,4,5,5,6,6,7,7,8,8,9,9,10,10,11,11,12,12,13,13,14,14],"right_children":[2,4,6,8,10,12,14,16,18,20,22,24,26,28,30,-1,-1,-1,-1,-1,-1,-1,-1,-1,-1,-1,-1,-1,-1,-1,-1],"split_conditions":[1.7E1,9E0,9.1236664E1,3.7E1,-1.4823333E0,8.7284E1,4.997539E0,1.1E1,9.853567E1,3.04E1,2.95E1,1.9E1,3.32E1,-1.7506666E0,2.7E1,-3.2177356E-1,3.2111272E-2,-3.9923212E-1,-1.3040598E-1,1.3396633E-1,-1.9767518E-1,-2.2299956E-1,9.074935E-2,-1.1894983E-1,4.9656887E-2,9.76346E-2,2.3109098E-1,1.2628154E-1,-1.02746196E-1,-3.7139598E-1,-6.335681E-4],"split_indices":[1,7,3,12,4,3,11,1,3,12,12,1,12,4,1,0,0,0,0,0,0,0,0,0,0,0,0,0,0,0,0],"split_type":[0,0,0,0,0,0,0,0,0,0,0,0,0,0,0,0,0,0,0,0,0,0,0,0,0,0,0,0,0,0,0],"sum_hessian":[3.920824E3,1.820592E3,2.100232E3,6.749447E2,1.1456473E3,1.4950977E3,6.051342E2,4.6790173E2,2.0704297E2,4.7931198E2,6.663354E2,1.2164343E3,2.7866336E2,3.9336658E2,2.1176765E2,8.5271194E1,3.8263052E2,9.8999054E1,1.0804391E2,2.0831548E2,2.709965E2,4.7797173E1,6.185382E2,1.3541829E2,1.081016E3,9.227835E1,1.8638501E2,2.4521129E2,1.4815527E2,1.0441614E2,1.0735152E2],"tree_param":{"num_deleted":"0","num_feature":"14","num_nodes":"31","size_leaf_vector":"1"}},{"base_weights":[3.1042725E-2,4.7105274E-1,3.3350436E-3,5.8406174E-1,-5.551329E-1,-4.076038E-1,4.2997617E-2,5.0543666E-1,6.418098E-1,-7.207335E-1,8.592866E-1,3.97851E-1,9.571847E-3,-3.217937E-1,1.7121387E-1,2.862559E-2,-3.0170745E-1,-5.0153947E-1,3.429892E-1,-1.6415574E-2,2.7118516E-1,-3.49933E-2,3.5392877E-2],"categories":[],"categories_nodes":[],"categories_segments":[],"categories_sizes":[],"default_left":[0,0,0,0,0,0,0,0,0,0,0,0,0,0,0,0,0,0,0,0,0,0,0],"id":22,"left_children":[1,3,5,7,-1,9,11,13,-1,15,17,19,21,-1,-1,-1,-1,-1,-1,-1,-1,-1,-1],"loss_changes":[4.746921E1,6.766583E1,5.973755E1,3.0480484E1,0E0,1.2859927E2,3.964174E1,5.031647E1,0E0,8.7850525E1,7.727321E1,8.165233E1,5.28248E1,0E0,0E0,0E0,0E0,0E0,0E0,0E0,0E0,0E0,0E0],"parents":[2147483647,0,0,1,1,2,2,3,3,5,5,6,6,7,7,9,9,10,10,11,11,12,12],"right_children":[2,4,6,8,-1,10,12,14,-1,16,18,20,22,-1,-1,-1,-1,-1,-1,-1,-1,-1,-1],"split_conditions":[2.52E1,1.0525E1,2.94E1,8.3928573E-1,-5.551329E-1,1.946E1,3E1,1.79E1,6.418098E-1,2.68E1,8.1973E1,9.846267E1,-1.4823333E0,-3.217937E-1,1.7121387E-1,2.862559E-2,-3.0170745E-1,-5.0153947E-1,3.429892E-1,-1.6415574E-2,2.7118516E-1,-3.49933E-2,3.5392877E-2],"split_indices":[12,5,12,8,0,5,12,12,0,12,3,3,4,0,0,0,0,0,0,0,0,0,0],"split_type":[0,0,0,0,0,0,0,0,0,0,0,0,0,0,0,0,0,0,0,0,0,0,0],"sum_hessian":[3.8927107E3,2.2965701E2,3.6630537E3,2.2064691E2,9.010092E0,3.216106E2,3.341443E3,2.127284E2,7.918519E0,2.582192E2,6.3391396E1,2.867161E2,3.054727E3,1.5043483E1,1.9768492E2,8.5598564E1,1.7262064E2,8.057294E0,5.53341E1,1.6492407E2,1.2179203E2,1.4250422E3,1.6296847E3],"tree_param":{"num_deleted":"0","num_feature":"14","num_nodes":"23","size_leaf_vector":"1"}},{"base_weights":[2.5538618E-2,1.0534188E-1,-1.0669925E-1,7.400103E-2,6.205622E-1,-5.157108E-2,-1.030298E0,-5.528142E-1,8.130543E-2,1.1190785E0,-2.7068725E-1,-2.7375543E-1,1.3426156E-1,-3.7431112E-1,1.4684519E-1,9.031093E-2,2.0648246E-3,-1.0158244E-1,3.6590323E-1,-2.8711E-1,1.521564E-1,2.5290072E-1,-9.328181E-2,-4.4821974E-2,1.1989173E-1],"categories":[],"categories_nodes":[],"categories_segments":[],"categories_sizes":[],"default_left":[0,0,0,0,0,0,0,0,0,0,0,0,0,0,0,0,0,0,0,0,0,0,0,0,0],"id":23,"left_children":[1,3,5,7,9,11,13,-1,15,17,19,21,23,-1,-1,-1,-1,-1,-1,-1,-1,-1,-1,-1,-1],"loss_changes":[4.0485626E1,3.858496E1,7.346776E1,3.5497463E1,6.1193874E1,5.6341694E1,4.8421448E1,0E0,4.2501892E1,3.364135E1,3.437772E1,5.7573093E1,7.070334E1,0E0,0E0,0E0,0E0,0E0,0E0,0E0,0E0,0E0,0E0,0E0,0E0],"parents":[2147483647,0,0,1,1,2,2,3,3,4,4,5,5,6,6,8,8,9,9,10,10,11,11,12,12],"right_children":[2,4,6,8,10,12,14,-1,16,18,20,22,24,-1,-1,-1,-1,-1,-1,-1,-1,-1,-1,-1,-1],"split_conditions":[4.997539E0,2.4445E1,2.2E1,1.66E-1,1.2E1,6.3905625E0,1.444E3,-5.528142E-1,8.37E-1,8.1E1,5.76E2,2.68E-1,8.4234E1,-3.7431112E-1,1.4684519E-1,9.031093E-2,2.0648246E-3,-1.0158244E-1,3.6590323E-1,-2.8711E-1,1.521564E-1,2.5290072E-1,-9.328181E-2,-4.4821974E-2,1.1989173E-1],"split_indices":[11,6,10,6,10,11,2,0,6,2,2,6,3,0,0,0,0,0,0,0,0,0,0,0,0],"split_type":[0,0,0,0,0,0,0,0,0,0,0,0,0,0,0,0,0,0,0,0,0,0,0,0,0],"sum_hessian":[3.8343394E3,2.3913838E3,1.4429554E3,2.2553354E3,1.3604843E2,1.3626753E3,8.028012E1,6.7002015E0,2.2486353E3,8.70832E1,4.896523E1,6.204193E2,7.42256E2,6.510494E1,1.5175186E1,4.99978E2,1.7486572E3,1.2404075E1,7.467913E1,2.4878012E1,2.4087215E1,3.545589E1,5.8496344E2,3.7890158E2,3.6335443E2],"tree_param":{"num_deleted":"0","num_feature":"14","num_nodes":"25","size_leaf_vector":"1"}},{"base_weights":[1.5894692E-2,4.846623E-1,-1.6150778E-2,2.2178519E-1,1.0092412E0,-8.104818E-1,6.8853837E-3,-3.4264284E-1,6.6006523E-1,3.2177636E-1,-1.016396E-1,-1.6775133E-1,-5.570642E-1,-1.3214974E-1,1.2098296E-1,8.4061585E-2,-3.6188695E-1,-7.3744915E-2,2.587689E-1,5.7815704E-2,-3.971735E-1,-1.23705365E-1,1.4946137E-2,5.4832224E-2,-8.288548E-2],"categories":[],"categories_nodes":[],"categories_segments":[],"categories_sizes":[],"default_left":[0,0,0,0,0,0,0,0,0,0,0,0,0,0,0,0,0,0,0,0,0,0,0,0,0],"id":24,"left_children":[1,3,5,7,9,11,13,15,17,-1,-1,19,-1,21,23,-1,-1,-1,-1,-1,-1,-1,-1,-1,-1],"loss_changes":[5.6585297E1,3.301394E1,6.453117E1,4.026358E1,2.2233948E1,8.110221E1,5.4394997E1,4.7933548E1,2.6694916E1,0E0,0E0,3.4364666E1,0E0,9.6250725E1,6.853391E1,0E0,0E0,0E0,0E0,0E0,0E0,0E0,0E0,0E0,0E0],"parents":[2147483647,0,0,1,1,2,2,3,3,4,4,5,5,6,6,7,7,8,8,11,11,13,13,14,14],"right_children":[2,4,6,8,10,12,14,16,18,-1,-1,20,-1,22,24,-1,-1,-1,-1,-1,-1,-1,-1,-1,-1],"split_conditions":[2.52E1,8.028169E-1,2.79E1,9.9883E1,-5.5193334E0,2.4E-1,2.89E2,-7.12E0,1.959E0,3.2177636E-1,-1.016396E-1,2.68E1,-5.570642E-1,-1.4823333E0,1.945E0,8.4061585E-2,-3.6188695E-1,-7.3744915E-2,2.587689E-1,5.7815704E-2,-3.971735E-1,-1.23705365E-1,1.4946137E-2,5.4832224E-2,-8.288548E-2],"split_indices":[12,8,12,3,4,9,2,4,5,0,0,12,0,4,9,0,0,0,0,0,0,0,0,0,0],"split_type":[0,0,0,0,0,0,0,0,0,0,0,0,0,0,0,0,0,0,0,0,0,0,0,0,0],"sum_hessian":[3.7653376E3,2.4002847E2,3.5253093E3,1.608474E2,7.918109E1,9.83917E1,3.4269175E3,7.0401184E1,9.0446205E1,6.953665E1,9.644438E0,6.616854E1,3.222316E1,1.5445848E3,1.8823326E3,4.3099617E1,2.730157E1,2.2455538E1,6.799067E1,5.1891457E1,1.4277087E1,5.5919885E2,9.85386E2,1.5750156E3,3.0731708E2],"tree_param":{"num_deleted":"0","num_feature":"14","num_nodes":"25","size_leaf_vector":"1"}},{"base_weights":[8.852466E-3,-4.2409065E-1,3.4107134E-2,6.90301E-1,-5.82094E-1,-3.8734642E-1,4.0335786E-2,6.4275175E-2,4.5195922E-1,-9.256451E-1,1.1404116E-1,2.5328305E-1,-4.0398487E-3,2.7841395E-1,-3.1055447E-1,-3.739574E-1,-1.0087055E-1,1.3241966E-1,-3.3982173E-1,2.7356582E-2,1.5683581E-1,1.2283587E-2,-9.387236E-2],"categories":[],"categories_nodes":[],"categories_segments":[],"categories_sizes":[],"default_left":[0,0,0,0,0,0,0,0,0,0,0,0,0,0,0,0,0,0,0,0,0,0,0],"id":25,"left_children":[1,3,5,7,9,-1,11,13,-1,15,17,19,21,-1,-1,-1,-1,-1,-1,-1,-1,-1,-1],"loss_changes":[4.0784077E1,3.6602287E1,3.2638794E1,1.6188356E1,4.329896E1,0E0,3.3173233E1,2.1650444E1,0E0,3.09356E1,3.268059E1,3.0433567E1,5.0520245E1,0E0,0E0,0E0,0E0,0E0,0E0,0E0,0E0,0E0,0E0],"parents":[2147483647,0,0,1,1,2,2,3,3,4,4,6,6,7,7,9,9,10,10,11,11,12,12],"right_children":[2,4,6,8,10,-1,12,14,-1,16,18,20,22,-1,-1,-1,-1,-1,-1,-1,-1,-1,-1],"split_conditions":[7E0,7.017544E-2,9.859155E-2,2.3E1,1.0830967E2,-3.8734642E-1,1E0,8.611111E-3,4.5195922E-1,2.8E-1,1.3725491E-1,3.92E1,7.586207E-1,2.7841395E-1,-3.1055447E-1,-3.739574E-1,-1.0087055E-1,1.3241966E-1,-3.3982173E-1,2.7356582E-2,1.5683581E-1,1.2283587E-2,-9.387236E-2],"split_indices":[1,8,8,10,3,0,0,9,0,8,8,12,8,0,0,0,0,0,0,0,0,0,0],"split_type":[0,0,0,0,0,0,0,0,0,0,0,0,0,0,0,0,0,0,0,0,0,0,0],"sum_hessian":[3.7277573E3,2.0459381E2,3.5231633E3,2.498769E1,1.7960612E2,1.3754477E1,3.509409E3,1.6032457E1,8.955233E0,1.2003681E2,5.9569313E1,6.043898E2,2.9050193E3,9.004752E0,7.0277047E0,6.3508316E1,5.6528496E1,4.7211845E1,1.235747E1,4.1718488E2,1.872049E2,2.5401003E3,3.6491888E2],"tree_param":{"num_deleted":"0","num_feature":"14","num_nodes":"23","size_leaf_vector":"1"}},{"base_weights":[-6.7645893E-3,-7.581576E-1,8.372586E-3,-9.363374E-1,1.5921958E-1,1.8819636E-2,-7.7070373E-1,-4.2798482E-2,-3.623808E-1,-3.0462694E-1,2.5611084E-2,2.4660952E-1,-3.1866208E-1,-3.2959217E-1,4.71249E-1,7.981215E-2,-5.908029E-4],"categories":[],"categories_nodes":[],"categories_segments":[],"categories_sizes":[],"default_left":[0,0,0,0,0,0,0,0,0,0,0,0,0,0,0,0,0],"id":26,"left_children":[1,3,5,7,-1,9,11,13,-1,-1,15,-1,-1,-1,-1,-1,-1],"loss_changes":[4.1122158E1,1.7786049E1,2.8863426E1,2.3785572E1,0E0,2.7574043E1,3.4669098E1,4.811445E1,0E0,0E0,2.6445463E1,0E0,0E0,0E0,0E0,0E0,0E0],"parents":[2147483647,0,0,1,1,2,2,3,3,5,5,6,6,7,7,10,10],"right_children":[2,4,6,8,-1,10,12,14,-1,-1,16,-1,-1,-1,-1,-1,-1],"split_conditions":[9.859155E-2,1.1503167E2,9.677419E-1,8.2529E1,1.5921958E-1,1.79E1,-1.2018333E1,8.238467E1,-3.623808E-1,-3.0462694E-1,6.26E-1,2.4660952E-1,-3.1866208E-1,-3.2959217E-1,4.71249E-1,7.981215E-2,-5.908029E-4],"split_indices":[8,3,8,3,0,12,4,3,0,0,5,0,0,0,0,0,0],"split_type":[0,0,0,0,0,0,0,0,0,0,0,0,0,0,0,0,0],"sum_hessian":[3.6139045E3,7.039682E1,3.5435078E3,6.2484234E1,7.912583E0,3.4975828E3,4.5925106E1,2.0342398E1,4.2141838E1,1.9398582E1,3.478184E3,8.927563E0,3.6997543E1,1.2451877E1,7.89052E0,3.205947E2,3.1575894E3],"tree_param":{"num_deleted":"0","num_feature":"14","num_nodes":"17","size_leaf_vector":"1"}},{"base_weights":[3.437411E-2,7.4360065E-2,-3.0512467E-1,1.24565296E-1,-1.860515E-1,-6.7287934E-1,1.5036088E-1,1.4163224E-1,-6.895801E-1,-3.9808565E-1,4.428877E-1,-4.518594E-1,-1.2120208E0,-9.3524367E-1,5.573239E-1,1.3578813E-2,7.4024536E-2,-3.9396295E-1,2.1506472E-1,-5.2780747E-2,-3.0061775E-1,-4.8768494E-2,1.8168464E-1,-2.873944E-1,-3.4475707E-2,-4.0342495E-1,2.2637913E-1,-4.5375878E-1,3.131131E-2,2.2061893E-1,-4.0694603E-1],"categories":[],"categories_nodes":[],"categories_segments":[],"categories_sizes":[],"default_left":[0,0,0,0,0,0,0,0,0,0,0,0,0,0,0,0,0,0,0,0,0,0,0,0,0,0,0,0,0,0,0],"id":27,"left_children":[1,3,5,7,9,11,13,15,17,19,21,23,25,27,29,-1,-1,-1,-1,-1,-1,-1,-1,-1,-1,-1,-1,-1,-1,-1,-1],"loss_changes":[5.056465E1,4.3580822E1,6.584715E1,3.891641E1,7.204123E1,2.5351372E1,7.834539E1,3.3660942E1,6.87226E1,5.862536E1,2.0360601E1,3.123554E1,3.9739716E1,3.909498E1,7.322388E1,0E0,0E0,0E0,0E0,0E0,0E0,0E0,0E0,0E0,0E0,0E0,0E0,0E0,0E0,0E0,0E0],"parents":[2147483647,0,0,1,1,2,2,3,3,4,4,5,5,6,6,7,7,8,8,9,9,10,10,11,11,12,12,13,13,14,14],"right_children":[2,4,6,8,10,12,14,16,18,20,22,24,26,28,30,-1,-1,-1,-1,-1,-1,-1,-1,-1,-1,-1,-1,-1,-1,-1,-1],"split_conditions":[3.016E0,4.35E1,6.216E0,1.9E1,2.5E1,2E0,3E0,1.2E1,1.0830967E2,2E0,4.69E1,8.4298E1,5E1,9.7761E1,1.1E1,1.3578813E-2,7.4024536E-2,-3.9396295E-1,2.1506472E-1,-5.2780747E-2,-3.0061775E-1,-4.8768494E-2,1.8168464E-1,-2.873944E-1,-3.4475707E-2,-4.0342495E-1,2.2637913E-1,-4.5375878E-1,3.131131E-2,2.2061893E-1,-4.0694603E-1],"split_indices":[9,12,9,7,1,0,7,7,3,0,12,3,1,3,7,0,0,0,0,0,0,0,0,0,0,0,0,0,0,0,0],"split_type":[0,0,0,0,0,0,0,0,0,0,0,0,0,0,0,0,0,0,0,0,0,0,0,0,0,0,0,0,0,0,0],"sum_hessian":[3.7221147E3,3.330618E3,3.9149707E2,2.7927249E3,5.3789294E2,2.1634496E2,1.7515211E2,2.7361921E3,5.653282E1,4.025488E2,1.3534415E2,1.5474548E2,6.1599476E1,4.7402977E1,1.2774913E2,1.6391729E3,1.0970192E3,3.706978E1,1.9463043E1,3.165638E2,8.5985E1,3.7288994E1,9.805515E1,5.195775E1,1.02787735E2,5.4038963E1,7.560513E0,2.7116726E1,2.0286251E1,1.1367721E2,1.4071923E1],"tree_param":{"num_deleted":"0","num_feature":"14","num_nodes":"31","size_leaf_vector":"1"}},{"base_weights":[1.2228519E-2,-3.216474E-2,4.985464E-1,-4.619084E-1,-2.5139503E-2,7.6674867E-1,4.2350005E-2,5.3134316E-1,-4.032697E-2,9.374912E-1,-1.2758496E-1,-2.4164374E-1,8.564125E-1,3.1086275E-1,3.3758037E-2,-5.2299666E-1,-9.207969E-3,7.931354E-1,2.217264E-1,-3.2133517E-1,9.336635E-2,-2.3490584E-1,1.8724363E-1,3.6808535E-1,7.835124E-2],"categories":[],"categories_nodes":[],"categories_segments":[],"categories_sizes":[],"default_left":[0,0,0,0,0,0,0,0,0,0,0,0,0,0,0,0,0,0,0,0,0,0,0,0,0],"id":28,"left_children":[1,3,5,-1,7,9,11,13,15,17,19,21,23,-1,-1,-1,-1,-1,-1,-1,-1,-1,-1,-1,-1],"loss_changes":[7.823597E1,3.9551228E1,3.7056107E1,0E0,2.798169E1,2.9260849E1,2.6398054E1,2.2381575E1,3.6097816E1,3.2529358E1,1.6569992E1,5.157989E1,8.266275E0,0E0,0E0,0E0,0E0,0E0,0E0,0E0,0E0,0E0,0E0,0E0,0E0],"parents":[2147483647,0,0,1,1,2,2,4,4,5,5,6,6,7,7,8,8,9,9,10,10,11,11,12,12],"right_children":[2,4,6,-1,8,10,12,14,16,18,20,22,24,-1,-1,-1,-1,-1,-1,-1,-1,-1,-1,-1,-1],"split_conditions":[1.7621E1,1.66E-1,1.4E1,-4.619084E-1,2.97E-1,1.9E1,1.2213334E0,9.59E-1,3.25E-1,6.17E-1,3.6850212E0,2.4578E1,7E0,3.1086275E-1,3.3758037E-2,-5.2299666E-1,-9.207969E-3,7.931354E-1,2.217264E-1,-3.2133517E-1,9.336635E-2,-2.3490584E-1,1.8724363E-1,3.6808535E-1,7.835124E-2],"split_indices":[6,6,10,0,6,7,4,5,6,5,11,5,1,0,0,0,0,0,0,0,0,0,0,0,0],"split_type":[0,0,0,0,0,0,0,0,0,0,0,0,0,0,0,0,0,0,0,0,0,0,0,0,0],"sum_hessian":[3.6220986E3,3.3199707E3,3.0212784E2,1.2675804E1,3.307295E3,1.8983894E2,1.1228891E2,8.6961464E1,3.2203335E3,1.5936533E2,3.0473627E1,8.376858E1,2.8520334E1,3.32144E1,5.3747066E1,8.786656E0,3.2115469E3,6.663026E0,1.5270229E2,8.897583E0,2.1576044E1,5.0003395E1,3.376518E1,1.405404E1,1.4466294E1],"tree_param":{"num_deleted":"0","num_feature":"14","num_nodes":"25","size_leaf_vector":"1"}},{"base_weights":[2.3209184E-2,-6.690616E-1,4.092825E-2,-8.6242974E-1,2.9602E-1,2.1336798E-1,-1.4727819E-2,-3.4989765E-1,-3.555464E-1,8.700758E-2,6.1367637E-1,-8.0469215E-1,7.0640096E-3,2.8174244E-2,-3.2921007E-1,5.32512E-2,-1.5016012E-1,5.79487E-1,1.4561184E-1,9.852563E-2,-3.7419724E-1,-1.7934956E-2,7.41428E-2],"categories":[],"categories_nodes":[],"categories_segments":[],"categories_sizes":[],"default_left":[0,0,0,0,0,0,0,0,0,0,0,0,0,0,0,0,0,0,0,0,0,0,0],"id":29,"left_children":[1,3,5,7,-1,9,11,-1,13,15,17,19,21,-1,-1,-1,-1,-1,-1,-1,-1,-1,-1],"loss_changes":[4.4817066E1,3.229354E1,3.4181393E1,1.8316116E1,0E0,4.3904118E1,4.6368732E1,0E0,1.638125E1,4.8372738E1,2.1032372E1,5.1110413E1,5.265094E1,0E0,0E0,0E0,0E0,0E0,0E0,0E0,0E0,0E0,0E0],"parents":[2147483647,0,0,1,1,2,2,3,3,5,5,6,6,8,8,9,9,10,10,11,11,12,12],"right_children":[2,4,6,8,-1,10,12,-1,14,16,18,20,22,-1,-1,-1,-1,-1,-1,-1,-1,-1,-1],"split_conditions":[1.6211319E0,4.6733335E-1,3.5828524E0,2.3E1,2.9602E-1,2.2E1,2E0,-3.4989765E-1,5.0877196E-1,6.197183E-1,1E0,2.93E1,1.37106695E1,2.8174244E-2,-3.2921007E-1,5.32512E-2,-1.5016012E-1,5.79487E-1,1.4561184E-1,9.852563E-2,-3.7419724E-1,-1.7934956E-2,7.41428E-2],"split_indices":[11,4,11,1,0,1,10,0,8,8,0,12,11,0,0,0,0,0,0,0,0,0,0],"split_type":[0,0,0,0,0,0,0,0,0,0,0,0,0,0,0,0,0,0,0,0,0,0,0],"sum_hessian":[3.6504143E3,9.018522E1,3.5602292E3,8.180017E1,8.385049E0,8.680153E2,2.6922139E3,4.260323E1,3.919694E1,6.60683E2,2.0733229E2,7.130881E1,2.620905E3,2.626739E1,1.2929551E1,5.6379895E2,9.688409E1,7.4550605E0,1.9987723E2,2.4151684E1,4.715712E1,2.0572856E3,5.636194E2],"tree_param":{"num_deleted":"0","num_feature":"14","num_nodes":"23","size_leaf_vector":"1"}},{"base_weights":[1.4925586E-2,-3.1210555E-2,3.038122E-1,-1.01104245E-1,2.2246021E-1,-3.716643E-1,3.4263515E-1,-7.946306E-2,-3.4442687E-1,-3.4520453E-1,2.656208E-1,4.2238212E-1,-4.7439536E-1,-1.4354411E-2,-2.6600137E-1,-1.12351775E-2,1.1845066E-1,-1.2417797E-2,1.450871E-1,-3.4151268E-1,1.12692416E-1],"categories":[],"categories_nodes":[],"categories_segments":[],"categories_sizes":[],"default_left":[0,0,0,0,0,0,0,0,0,0,0,0,0,0,0,0,0,0,0,0,0],"id":30,"left_children":[1,3,5,7,9,-1,11,13,-1,-1,15,17,19,-1,-1,-1,-1,-1,-1,-1,-1],"loss_changes":[4.7962524E1,5.5044437E1,3.309158E1,6.2484756E1,4.4192055E1,0E0,3.1818325E1,5.631318E1,0E0,0E0,3.57434E1,2.5094452E1,3.1981426E1,0E0,0E0,0E0,0E0,0E0,0E0,0E0,0E0],"parents":[2147483647,0,0,1,1,2,2,3,3,4,4,6,6,7,7,10,10,11,11,12,12],"right_children":[2,4,6,8,10,-1,12,14,-1,-1,16,18,20,-1,-1,-1,-1,-1,-1,-1,-1],"split_conditions":[3E1,2.3E1,-1.3197667E1,2.2E1,2.97E1,-3.716643E-1,-6.3333334E-3,2.8E1,-3.4442687E-1,-3.4520453E-1,1.6E1,4E0,5E1,-1.4354411E-2,-2.6600137E-1,-1.12351775E-2,1.1845066E-1,-1.2417797E-2,1.450871E-1,-3.4151268E-1,1.12692416E-1],"split_indices":[1,10,4,10,12,0,4,1,0,0,1,10,1,0,0,0,0,0,0,0,0],"split_type":[0,0,0,0,0,0,0,0,0,0,0,0,0,0,0,0,0,0,0,0,0],"sum_hessian":[3.596887E3,3.1023271E3,4.9455984E2,2.4326597E3,6.696673E2,1.0292411E1,4.8426743E2,2.3901985E3,4.2461323E1,1.7749851E1,6.519174E2,4.4164346E2,4.262397E1,2.3259658E3,6.423257E1,2.3906009E2,4.1285733E2,9.059532E1,3.5104813E2,2.2242004E1,2.0381966E1],"tree_param":{"num_deleted":"0","num_feature":"14","num_nodes":"21","size_leaf_vector":"1"}},{"base_weights":[3.5250377E-2,6.095933E-2,-3.202279E-1,-5.5157423E-2,1.630516E-1,-6.667081E-1,4.1332986E-2,1.0474762E-1,-3.0732384E-1,-4.2302836E-2,2.8403577E-1,1.9976819E-1,-3.070523E-1,2.4905974E-1,-3.2228974E-1,-3.5562178E-1,3.7806682E-2,-1.9265427E-1,-2.453475E-2,3.2164864E-2,-1.2333519E-1,9.657675E-2,-1.1115709E-1,-3.072665E-1,2.2743616E-1,-3.276954E-1,9.64738E-2],"categories":[],"categories_nodes":[],"categories_segments":[],"categories_sizes":[],"default_left":[0,0,0,0,0,0,0,0,0,0,0,0,0,0,0,0,0,0,0,0,0,0,0,0,0,0,0],"id":31,"left_children":[1,3,5,7,9,11,13,15,17,19,21,23,-1,25,-1,-1,-1,-1,-1,-1,-1,-1,-1,-1,-1,-1,-1],"loss_changes":[3.3222794E1,4.0183777E1,3.074413E1,6.3996838E1,4.482269E1,5.2636066E1,3.1648083E1,5.151942E1,5.4859406E1,4.5752E1,6.17658E1,4.1168797E1,0E0,1.7734634E1,0E0,0E0,0E0,0E0,0E0,0E0,0E0,0E0,0E0,0E0,0E0,0E0,0E0],"parents":[2147483647,0,0,1,1,2,2,3,3,4,4,5,5,6,6,7,7,8,8,9,9,10,10,11,11,13,13],"right_children":[2,4,6,8,10,12,14,16,18,20,22,24,-1,26,-1,-1,-1,-1,-1,-1,-1,-1,-1,-1,-1,-1,-1],"split_conditions":[8.4210527E-1,1.7E1,8.089E0,3.0645162E-1,4.9295774E-1,1.031E0,3.75E1,3.71E-1,1.997E0,3.63E0,4.35E1,9.4E-1,-3.070523E-1,7.87E-1,-3.2228974E-1,-3.5562178E-1,3.7806682E-2,-1.9265427E-1,-2.453475E-2,3.2164864E-2,-1.2333519E-1,9.657675E-2,-1.1115709E-1,-3.072665E-1,2.2743616E-1,-3.276954E-1,9.64738E-2],"split_indices":[8,1,5,8,8,5,12,5,6,6,12,8,0,6,0,0,0,0,0,0,0,0,0,0,0,0,0],"split_type":[0,0,0,0,0,0,0,0,0,0,0,0,0,0,0,0,0,0,0,0,0,0,0,0,0,0,0],"sum_hessian":[3.6321506E3,3.3879548E3,2.4419568E2,1.5853191E3,1.8026357E3,1.2426745E2,1.1992823E2,9.7049097E2,6.1482806E2,6.685359E2,1.1340999E3,4.4676815E1,7.959064E1,1.0350008E2,1.6428154E1,2.3363083E1,9.471279E2,2.0967896E2,4.051491E2,4.821846E2,1.8635129E2,1.0214832E3,1.12616684E2,1.429574E1,3.0381077E1,6.60539E0,9.6894684E1],"tree_param":{"num_deleted":"0","num_feature":"14","num_nodes":"27","size_leaf_vector":"1"}},{"base_weights":[3.047139E-2,-3.054417E-1,3.6997996E-2,4.2277205E-1,1.7926103E-2,6.057983E-2,1.1594435E0,2.7083527E-2,-3.0017275E-1,5.7673186E-2,-4.274054E-1,3.6023924E-1,3.1684995E-2,-2.7886795E-2,2.133194E-2],"categories":[],"categories_nodes":[],"categories_segments":[],"categories_sizes":[],"default_left":[0,0,0,0,0,0,0,0,0,0,0,0,0,0,0],"id":32,"left_children":[1,-1,3,5,7,9,11,13,-1,-1,-1,-1,-1,-1,-1],"loss_changes":[2.7269089E1,0E0,2.59993E1,4.434816E1,3.5256653E1,2.940742E1,1.0635147E1,2.3210548E1,0E0,0E0,0E0,0E0,0E0,0E0,0E0],"parents":[2147483647,0,0,2,2,3,3,4,4,5,5,6,6,7,7],"right_children":[2,-1,4,6,8,10,12,14,-1,-1,-1,-1,-1,-1,-1],"split_conditions":[4E0,-3.054417E-1,-1.0049E1,-1.1261E1,9.677419E-1,4.89E1,3.94E1,1.4E1,-3.0017275E-1,5.7673186E-2,-4.274054E-1,3.6023924E-1,3.1684995E-2,-2.7886795E-2,2.133194E-2],"split_indices":[1,0,4,4,8,12,12,1,0,0,0,0,0,0,0],"split_type":[0,0,0,0,0,0,0,0,0,0,0,0,0,0,0],"sum_hessian":[3.5524492E3,1.8677202E1,3.5337722E3,1.6547536E2,3.3682969E3,1.1165918E2,5.3816174E1,3.3424636E3,2.58331E1,1.0290387E2,8.75531E0,4.5287655E1,8.528519E0,9.5709656E2,2.3853672E3],"tree_param":{"num_deleted":"0","num_feature":"14","num_nodes":"15","size_leaf_vector":"1"}},{"base_weights":[-2.0335684E-2,-4.748146E-2,3.0421674E-1,1.0599206E-2,-2.5581428E-1,5.9711856E-1,-1.7742808E-1,4.995348E-2,-2.8824967E-1,-4.650498E-1,1.4316016E-1,6.8675405E-1,-1.4443007E-1,4.5258284E-1,-7.7357465E-1,7.997424E-2,-8.517204E-3,-2.3137478E-2,-2.8589872E-1,-4.5080107E-1,-9.468446E-2,-7.307183E-2,1.3813807E-1,-1.1911412E-1,1.9920816E-1,2.4044698E-2,5.470777E-1,-2.772439E-1,6.785638E-2],"categories":[],"categories_nodes":[],"categories_segments":[],"categories_sizes":[],"default_left":[0,0,0,0,0,0,0,0,0,0,0,0,0,0,0,0,0,0,0,0,0,0,0,0,0,0,0,0,0],"id":33,"left_children":[1,3,5,7,9,11,13,15,17,19,21,23,-1,25,27,-1,-1,-1,-1,-1,-1,-1,-1,-1,-1,-1,-1,-1,-1],"loss_changes":[3.0331598E1,3.8437424E1,3.759488E1,2.9238909E1,5.7878193E1,1.7248257E1,3.8382065E1,4.4852867E1,4.5526466E1,6.084877E1,3.7391354E1,1.0619179E1,0E0,2.8661304E1,1.4498409E1,0E0,0E0,0E0,0E0,0E0,0E0,0E0,0E0,0E0,0E0,0E0,0E0,0E0,0E0],"parents":[2147483647,0,0,1,1,2,2,3,3,4,4,5,5,6,6,7,7,8,8,9,9,10,10,11,11,13,13,14,14],"right_children":[2,4,6,8,10,12,14,16,18,20,22,24,-1,26,28,-1,-1,-1,-1,-1,-1,-1,-1,-1,-1,-1,-1,-1,-1],"split_conditions":[1.7621E1,1.327E0,4.5946E1,4.59E1,4.15E1,2.2203848E1,4.6198378E0,3.5828524E0,1.3E1,1.607E0,1.8E1,2.91E1,-1.4443007E-1,4.81E1,3E1,7.997424E-2,-8.517204E-3,-2.3137478E-2,-2.8589872E-1,-4.5080107E-1,-9.468446E-2,-7.307183E-2,1.3813807E-1,-1.1911412E-1,1.9920816E-1,2.4044698E-2,5.470777E-1,-2.772439E-1,6.785638E-2],"split_indices":[6,9,6,12,12,11,11,11,7,9,1,12,0,12,1,0,0,0,0,0,0,0,0,0,0,0,0,0,0],"split_type":[0,0,0,0,0,0,0,0,0,0,0,0,0,0,0,0,0,0,0,0,0,0,0,0,0,0,0,0,0],"sum_hessian":[3.440132E3,3.1753938E3,2.6473828E2,2.48387E3,6.915237E2,1.6447603E2,1.0026225E2,2.195576E3,2.882942E2,4.5351807E2,2.3800562E2,1.5283269E2,1.1643343E1,4.8863674E1,5.139858E1,5.4172284E2,1.653853E3,2.3008688E2,5.820732E1,3.6430435E1,4.1708765E2,1.12699394E2,1.2530622E2,7.246325E0,1.4558635E2,4.067688E1,8.186797E0,4.0873466E1,1.0525109E1],"tree_param":{"num_deleted":"0","num_feature":"14","num_nodes":"29","size_leaf_vector":"1"}},{"base_weights":[2.6799224E-2,-2.6846513E-1,8.148767E-2,-4.0691033E-1,2.3120365E-1,6.279892E-2,7.3549706E-1,-1.6367118E-1,-8.198904E-1,1.1380699E0,-1.9028774E-2,1.7132407E-1,-4.6491522E-2,7.805281E-1,5.023834E-1,-1.548332E-3,-2.7110785E-1,-3.2203984E-1,1.5780823E-1,4.1203594E-1,1.0895176E-1,2.0915703E-1,-1.2772791E-1,-4.443745E-3,1.049357E-1,9.195188E-2,-3.295361E-2,2.1265931E-1,-1.0439097E-2],"categories":[],"categories_nodes":[],"categories_segments":[],"categories_sizes":[],"default_left":[0,0,0,0,0,0,0,0,0,0,0,0,0,0,0,0,0,0,0,0,0,0,0,0,0,0,0,0,0],"id":34,"left_children":[1,3,5,7,9,11,13,15,17,19,21,23,25,-1,27,-1,-1,-1,-1,-1,-1,-1,-1,-1,-1,-1,-1,-1,-1],"loss_changes":[5.5825405E1,3.7469696E1,3.560181E1,4.2400833E1,2.6767164E1,3.3652508E1,3.9786476E1,3.5976303E1,8.5986496E1,6.9037247E0,3.4754406E1,5.9280132E1,4.2522003E1,0E0,1.1856558E1,0E0,0E0,0E0,0E0,0E0,0E0,0E0,0E0,0E0,0E0,0E0,0E0,0E0,0E0],"parents":[2147483647,0,0,1,1,2,2,3,3,4,4,5,5,6,6,7,7,8,8,9,9,10,10,11,11,12,12,14,14],"right_children":[2,4,6,8,10,12,14,16,18,20,22,24,26,-1,28,-1,-1,-1,-1,-1,-1,-1,-1,-1,-1,-1,-1,-1,-1],"split_conditions":[4E0,1.6E1,1E0,3.26E1,3.07E1,1.5E1,4E0,3.6850212E0,1.0830967E2,7.272E0,8.11E-1,1.1E1,7.77E1,7.805281E-1,2.54E1,-1.548332E-3,-2.7110785E-1,-3.2203984E-1,1.5780823E-1,4.1203594E-1,1.0895176E-1,2.0915703E-1,-1.2772791E-1,-4.443745E-3,1.049357E-1,9.195188E-2,-3.295361E-2,2.1265931E-1,-1.0439097E-2],"split_indices":[10,7,13,12,12,10,1,11,3,6,6,7,3,0,12,0,0,0,0,0,0,0,0,0,0,0,0,0,0],"split_type":[0,0,0,0,0,0,0,0,0,0,0,0,0,0,0,0,0,0,0,0,0,0,0,0,0,0,0,0,0],"sum_hessian":[3.4548513E3,5.392918E2,2.9155596E3,4.2243243E2,1.16859375E2,2.8356257E3,7.993386E1,2.667292E2,1.5570323E2,2.450454E1,9.2354836E1,1.4225094E3,1.4131163E3,6.5894327E0,7.334443E1,2.2585132E2,4.0877872E1,1.2238297E2,3.3320267E1,1.5053023E1,9.451516E0,3.336557E1,5.8989265E1,7.7006445E2,6.5244495E2,2.3175331E2,1.181363E3,4.724304E1,2.6101389E1],"tree_param":{"num_deleted":"0","num_feature":"14","num_nodes":"29","size_leaf_vector":"1"}},{"base_weights":[1.972681E-2,5.1742727E-1,-4.3325507E-4,-6.097475E-1,6.54216E-1,-3.027623E-1,3.281389E-2,-3.4587932E-1,1.8232876E-2,-2.6405343E-1,7.5886506E-1,-1.0661803E0,-8.9437075E-2,6.931554E-1,1.8236674E-2,3.1334573E-1,9.527075E-2,-4.0243122E-1,7.3314436E-2,1.1336528E-2,-4.397048E-1,1.1915877E-2,3.7742877E-1,2.7717033E-3,2.6501608E-1],"categories":[],"categories_nodes":[],"categories_segments":[],"categories_sizes":[],"default_left":[0,0,0,0,0,0,0,0,0,0,0,0,0,0,0,0,0,0,0,0,0,0,0,0,0],"id":35,"left_children":[1,3,5,7,9,11,13,-1,-1,-1,15,17,19,21,23,-1,-1,-1,-1,-1,-1,-1,-1,-1,-1],"loss_changes":[3.487696E1,2.1262985E1,3.35988E1,7.1316657E0,2.1578762E1,5.3837967E1,2.8975685E1,0E0,0E0,0E0,1.8651733E1,4.3067215E1,5.34335E1,3.0290228E1,2.2552786E1,0E0,0E0,0E0,0E0,0E0,0E0,0E0,0E0,0E0,0E0],"parents":[2147483647,0,0,1,1,2,2,3,3,4,4,5,5,6,6,10,10,11,11,12,12,13,13,14,14],"right_children":[2,4,6,8,10,12,14,-1,-1,-1,16,18,20,22,24,-1,-1,-1,-1,-1,-1,-1,-1,-1,-1],"split_conditions":[2.49E1,1.1E1,2.95E1,2.486E0,1.78E1,4.5714286E-1,2.96E1,-3.4587932E-1,1.8232876E-2,-2.6405343E-1,-5.2256665E0,4.404E0,1.469E0,-6.8766665E-1,1E0,3.1334573E-1,9.527075E-2,-4.0243122E-1,7.3314436E-2,1.1336528E-2,-4.397048E-1,1.1915877E-2,3.7742877E-1,2.7717033E-3,2.6501608E-1],"split_indices":[12,1,12,5,12,8,12,0,0,0,4,5,9,4,13,0,0,0,0,0,0,0,0,0,0],"split_type":[0,0,0,0,0,0,0,0,0,0,0,0,0,0,0,0,0,0,0,0,0,0,0,0,0],"sum_hessian":[3.4749692E3,1.3431866E2,3.3406504E3,1.4162054E1,1.2015662E2,3.3017114E2,3.0104792E3,6.591407E0,7.5706477E0,6.690076E0,1.1346654E2,7.123774E1,2.589334E2,6.401635E1,2.946463E3,5.4952667E1,5.851387E1,5.352876E1,1.770898E1,2.396076E2,1.9325806E1,3.4234745E1,2.9781605E1,2.9238765E3,2.2586536E1],"tree_param":{"num_deleted":"0","num_feature":"14","num_nodes":"25","size_leaf_vector":"1"}},{"base_weights":[5.1295385E-3,8.685595E-2,-1.1197402E-1,6.1148256E-1,5.8070485E-2,-1.8908998E-1,2.4592534E-1,-2.4634482E-1,7.61072E-1,3.1617194E-1,6.736366E-3,-5.829691E-1,-7.9125226E-2,1.2321833E0,5.4445997E-2,6.206049E-1,1.618982E-1,-1.8609051E-1,1.4212091E-1,-3.0715677E-1,8.8016195E-3,-2.3844476E-1,7.366481E-2,-1.5096101E-3,-2.1274811E-1,2.1270187E-1,8.2166684E-1,7.0160806E-2,-1.0952285E-1],"categories":[],"categories_nodes":[],"categories_segments":[],"categories_sizes":[],"default_left":[0,0,0,0,0,0,0,0,0,0,0,0,0,0,0,0,0,0,0,0,0,0,0,0,0,0,0,0,0],"id":36,"left_children":[1,3,5,7,9,11,13,-1,15,17,19,21,23,25,27,-1,-1,-1,-1,-1,-1,-1,-1,-1,-1,-1,-1,-1,-1],"loss_changes":[3.270966E1,3.0362675E1,3.8820015E1,2.469941E1,2.5295147E1,5.0039734E1,4.7045776E1,0E0,2.1796925E1,6.962928E1,4.835818E1,6.732939E1,4.770297E1,3.0112926E1,2.0413612E1,0E0,0E0,0E0,0E0,0E0,0E0,0E0,0E0,0E0,0E0,0E0,0E0,0E0,0E0],"parents":[2147483647,0,0,1,1,2,2,3,3,4,4,5,5,6,6,8,8,9,9,10,10,11,11,12,12,13,13,14,14],"right_children":[2,4,6,8,10,12,14,-1,16,18,20,22,24,26,28,-1,-1,-1,-1,-1,-1,-1,-1,-1,-1,-1,-1,-1,-1],"split_conditions":[2E0,2E0,3.2E1,7.18E-1,6.62E-1,1.033E0,3.3E1,-2.4634482E-1,7.4E-1,8.6E-1,7.4E-1,1.9E1,2.829E0,4.525E0,5.44E-1,6.206049E-1,1.618982E-1,-1.8609051E-1,1.4212091E-1,-3.0715677E-1,8.8016195E-3,-2.3844476E-1,7.366481E-2,-1.5096101E-3,-2.1274811E-1,2.1270187E-1,8.2166684E-1,7.0160806E-2,-1.0952285E-1],"split_indices":[0,10,1,6,6,6,1,0,6,5,6,10,9,9,9,0,0,0,0,0,0,0,0,0,0,0,0,0,0],"split_type":[0,0,0,0,0,0,0,0,0,0,0,0,0,0,0,0,0,0,0,0,0,0,0,0,0,0,0,0,0],"sum_hessian":[3.4157588E3,2.0119087E3,1.40385E3,1.0359556E2,1.9083131E3,1.155375E3,2.4847499E2,8.747024E0,9.484853E1,3.157256E2,1.5925875E3,2.512237E2,9.041513E2,3.9514008E1,2.0896098E2,7.296093E0,8.7552444E1,5.5082993E1,2.606426E2,3.4344925E1,1.5582427E3,1.8460542E2,6.661827E1,8.210634E2,8.3087875E1,3.3117474E1,6.3965354E0,1.4458102E2,6.437996E1],"tree_param":{"num_deleted":"0","num_feature":"14","num_nodes":"29","size_leaf_vector":"1"}},{"base_weights":[1.3950396E-2,-6.652277E-1,2.5735242E-2,2.2254397E-1,-1.0489578E0,4.557725E-2,-2.9509196E-1,-4.8696208E-1,-7.9349846E-1,2.0566802E-2,5.910639E-1,-6.0521704E-1,5.215727E-1,5.146141E-3,-2.990075E-1,2.8985376E-2,-2.8269578E-2,-4.137139E-1,2.0568219E-1,-3.5615006E-1,4.406657E-2,-3.4107023E-1,2.0984495E-1],"categories":[],"categories_nodes":[],"categories_segments":[],"categories_sizes":[],"default_left":[0,0,0,0,0,0,0,0,0,0,0,0,0,0,0,0,0,0,0,0,0,0,0],"id":37,"left_children":[1,3,5,-1,7,9,11,-1,13,15,17,19,21,-1,-1,-1,-1,-1,-1,-1,-1,-1,-1],"loss_changes":[2.708419E1,3.4058144E1,2.1179762E1,0E0,7.727249E0,4.2719765E1,4.93976E1,0E0,9.730005E0,3.3316143E1,5.3765278E1,7.924721E1,2.6586327E1,0E0,0E0,0E0,0E0,0E0,0E0,0E0,0E0,0E0,0E0],"parents":[2147483647,0,0,1,1,2,2,4,4,5,5,6,6,8,8,9,9,10,10,11,11,12,12],"right_children":[2,4,6,-1,8,10,12,-1,14,16,18,20,22,-1,-1,-1,-1,-1,-1,-1,-1,-1,-1],"split_conditions":[5E0,4.38E-1,4.5156E1,2.2254397E-1,7.4E-1,1.8439E1,7.2E-1,-4.8696208E-1,7.52E-1,2E0,1.849E0,4.13E1,7.783E0,5.146141E-3,-2.990075E-1,2.8985376E-2,-2.8269578E-2,-4.137139E-1,2.0568219E-1,-3.5615006E-1,4.406657E-2,-3.4107023E-1,2.0984495E-1],"split_indices":[1,5,5,0,6,5,8,0,5,0,6,12,6,0,0,0,0,0,0,0,0,0,0],"split_type":[0,0,0,0,0,0,0,0,0,0,0,0,0,0,0,0,0,0,0,0,0,0,0],"sum_hessian":[3.380689E3,5.6714264E1,3.3239749E3,1.1324277E1,4.5389988E1,3.1311804E3,1.927943E2,9.739633E0,3.5650352E1,2.9949026E3,1.3627794E2,1.399194E2,5.287491E1,1.0473253E1,2.5177101E1,1.7661743E3,1.2287281E3,9.9267025E0,1.26351234E2,7.1547966E1,6.837143E1,6.277895E0,4.659701E1],"tree_param":{"num_deleted":"0","num_feature":"14","num_nodes":"23","size_leaf_vector":"1"}},{"base_weights":[-3.522597E-3,8.136994E-2,-1.3151555E-1,9.433546E-2,-9.910527E-1,-1.4891435E-1,7.8340197E-1,-4.484601E-1,1.1700903E-1,-6.0255915E-1,1.10901706E-1,-7.641404E-1,-7.94642E-2,-2.7458677E-1,8.4814996E-2,7.754856E-4,6.2431138E-2,2.0588674E-1,-2.7969778E-1,1.3811063E-2,-8.622859E-2],"categories":[],"categories_nodes":[],"categories_segments":[],"categories_sizes":[],"default_left":[0,0,0,0,0,0,0,0,0,0,0,0,0,0,0,0,0,0,0,0,0],"id":38,"left_children":[1,3,5,7,9,11,-1,13,15,-1,-1,17,19,-1,-1,-1,-1,-1,-1,-1,-1],"loss_changes":[3.630395E1,2.8025368E1,7.147332E1,2.449132E1,4.377153E1,5.6586594E1,0E0,3.5763664E1,2.5396233E1,0E0,0E0,5.916977E1,3.8079643E1,0E0,0E0,0E0,0E0,0E0,0E0,0E0,0E0],"parents":[2147483647,0,0,1,1,2,2,3,3,4,4,5,5,7,7,8,8,11,11,12,12],"right_children":[2,4,6,8,10,12,-1,14,16,-1,-1,18,20,-1,-1,-1,-1,-1,-1,-1,-1],"split_conditions":[2E0,1.511E0,1.1503167E2,1.6211319E0,2.2203848E1,1.69E2,7.8340197E-1,9.3565E1,8.7399666E1,-6.0255915E-1,1.10901706E-1,-1.0533E1,9.1236664E1,-2.7458677E-1,8.4814996E-2,7.754856E-4,6.2431138E-2,2.0588674E-1,-2.7969778E-1,1.3811063E-2,-8.622859E-2],"split_indices":[0,4,3,11,11,2,0,3,3,0,0,4,3,0,0,0,0,0,0,0,0],"split_type":[0,0,0,0,0,0,0,0,0,0,0,0,0,0,0,0,0,0,0,0,0],"sum_hessian":[3.3391836E3,2.0078334E3,1.3313502E3,1.98475E3,2.3083479E1,1.3247799E3,6.570342E0,7.882935E1,1.9059205E3,1.1834891E1,1.1248589E1,1.3336446E2,1.1914154E3,4.4681946E1,3.414741E1,9.642662E2,9.416544E2,2.049167E1,1.1287278E2,7.7465894E2,4.1675647E2],"tree_param":{"num_deleted":"0","num_feature":"14","num_nodes":"21","size_leaf_vector":"1"}},{"base_weights":[2.8534418E-2,1.7433856E-1,-1.1846694E-2,-9.5940787E-1,2.1745956E-1,-9.793001E-1,1.1305223E-2,-3.5361683E-1,-7.795287E-2,1.0780018E-1,5.484147E-1,-4.8602352E-1,1.6827807E-1,-1.2099502E-1,9.952309E-2,4.585064E-2,-5.277647E-1,5.915214E-1,9.748172E-2,1.8842283E-1,-1.5010838E-1,7.3156275E-2,-5.8141932E-2,9.920402E-2,4.5058564E-3],"categories":[],"categories_nodes":[],"categories_segments":[],"categories_sizes":[],"default_left":[0,0,0,0,0,0,0,0,0,0,0,0,0,0,0,0,0,0,0,0,0,0,0,0,0],"id":39,"left_children":[1,3,5,7,9,11,13,-1,-1,15,17,-1,19,21,23,-1,-1,-1,-1,-1,-1,-1,-1,-1,-1],"loss_changes":[1.9451345E1,3.5237946E1,5.7974506E1,6.0460243E0,2.5021767E1,5.8637432E1,2.9520977E1,0E0,0E0,6.956802E1,5.1691143E1,0E0,1.0785236E1,3.8688873E1,3.4092777E1,0E0,0E0,0E0,0E0,0E0,0E0,0E0,0E0,0E0,0E0],"parents":[2147483647,0,0,1,1,2,2,3,3,4,4,5,5,6,6,9,9,10,10,12,12,13,13,14,14],"right_children":[2,4,6,8,10,12,14,-1,-1,16,18,-1,20,22,24,-1,-1,-1,-1,-1,-1,-1,-1,-1,-1],"split_conditions":[8.37E-1,6E0,9.25E-1,1.1440033E2,5.67E-1,2.2E1,8.5529335E1,-3.5361683E-1,-7.795287E-2,4.39E-1,5.81E-1,-4.8602352E-1,8.76E-1,7.5653336E1,8.9785E1,4.585064E-2,-5.277647E-1,5.915214E-1,9.748172E-2,1.8842283E-1,-1.5010838E-1,7.3156275E-2,-5.8141932E-2,9.920402E-2,4.5058564E-3],"split_indices":[6,1,6,3,9,1,3,0,0,9,9,0,6,3,3,0,0,0,0,0,0,0,0,0,0],"split_type":[0,0,0,0,0,0,0,0,0,0,0,0,0,0,0,0,0,0,0,0,0,0,0,0,0],"sum_hessian":[3.3023557E3,7.1551764E2,2.5868381E3,2.5438335E1,6.900793E2,5.9493034E1,2.5273452E3,1.5819025E1,9.619309E0,5.1932935E2,1.7074997E2,3.400726E1,2.5485773E1,1.0109112E3,1.516434E3,5.0477774E2,1.4551591E1,1.5839188E1,1.5491078E2,1.4704164E1,1.078161E1,1.9845909E2,8.124521E2,3.5272498E2,1.163709E3],"tree_param":{"num_deleted":"0","num_feature":"14","num_nodes":"25","size_leaf_vector":"1"}},{"base_weights":[2.0671869E-2,2.8479949E-2,-2.9349485E-1,1.15731716E-1,-5.3268E-2,4.7939923E-2,5.4602677E-1,-4.1152722E-1,-3.938676E-2,1.7953478E-2,-3.0928874E-1,-3.6332685E-1,1.7567821E-1,-1.62298E-2,1.514504E-1],"categories":[],"categories_nodes":[],"categories_segments":[],"categories_sizes":[],"default_left":[0,0,0,0,0,0,0,0,0,0,0,0,0,0,0],"id":40,"left_children":[1,3,-1,5,7,9,11,-1,13,-1,-1,-1,-1,-1,-1],"loss_changes":[2.9229206E1,2.3674261E1,0E0,4.680465E1,3.5325085E1,3.2336834E1,4.7387886E1,0E0,2.205518E1,0E0,0E0,0E0,0E0,0E0,0E0],"parents":[2147483647,0,0,1,1,3,3,4,4,5,5,6,6,8,8],"right_children":[2,4,-1,6,8,10,12,-1,14,-1,-1,-1,-1,-1,-1],"split_conditions":[9.677419E-1,3.33E1,-2.9349485E-1,3.23E1,3.37E1,1.2213334E0,-1.3866667E0,-4.1152722E-1,2.1233332E0,1.7953478E-2,-3.0928874E-1,-3.6332685E-1,1.7567821E-1,-1.62298E-2,1.514504E-1],"split_indices":[8,12,0,12,12,4,4,0,4,0,0,0,0,0,0],"split_type":[0,0,0,0,0,0,0,0,0,0,0,0,0,0,0],"sum_hessian":[3.3394368E3,3.3172737E3,2.2163198E1,1.6044188E3,1.7128547E3,1.3870106E3,2.1740825E2,1.4820568E1,1.6980342E3,1.3661194E3,2.0891253E1,1.1412719E1,2.0599553E2,1.6410886E3,5.69456E1],"tree_param":{"num_deleted":"0","num_feature":"14","num_nodes":"15","size_leaf_vector":"1"}},{"base_weights":[2.1672988E-2,-3.9979574E-1,2.849773E-2,1.8341208E-1,-1.8170126E-2,8.762345E-1,1.0166154E-1,-4.5566323E-1,4.5466613E-2,-1.394699E-1,3.1409588E-1,-4.076517E-1,4.54821E-2,-2.3358831E-1,1.7149728E-2,-4.797662E-1,1.6403701E-2],"categories":[],"categories_nodes":[],"categories_segments":[],"categories_sizes":[],"default_left":[0,0,0,0,0,0,0,0,0,0,0,0,0,0,0,0,0],"id":41,"left_children":[1,-1,3,5,7,9,11,13,15,-1,-1,-1,-1,-1,-1,-1,-1],"loss_changes":[3.4507645E1,0E0,2.3947062E1,4.3343094E1,7.090601E1,3.4474026E1,7.699349E1,7.047598E1,6.540791E1,0E0,0E0,0E0,0E0,0E0,0E0,0E0,0E0],"parents":[2147483647,0,0,2,2,3,3,4,4,5,5,6,6,7,7,8,8],"right_children":[2,-1,4,6,8,10,12,14,16,-1,-1,-1,-1,-1,-1,-1,-1],"split_conditions":[-1.7792667E1,-3.9979574E-1,1.078E0,7.5653336E1,1.2E1,7.29E-1,7.749033E1,-1.0666667E-1,1.167E0,-1.394699E-1,3.1409588E-1,-4.076517E-1,4.54821E-2,-2.3358831E-1,1.7149728E-2,-4.797662E-1,1.6403701E-2],"split_indices":[4,0,5,3,1,6,3,4,5,0,0,0,0,0,0,0,0],"split_type":[0,0,0,0,0,0,0,0,0,0,0,0,0,0,0,0,0],"sum_hessian":[3.3248394E3,1.3900261E1,3.3109392E3,7.6582996E2,2.5451091E3,7.980206E1,6.860279E2,3.224123E2,2.2226968E3,1.3952308E1,6.5849754E1,2.6887585E1,6.591403E2,1.7817854E2,1.4423375E2,1.8121145E1,2.2045757E3],"tree_param":{"num_deleted":"0","num_feature":"14","num_nodes":"17","size_leaf_vector":"1"}},{"base_weights":[4.2170312E-2,5.096581E-1,2.4579538E-2,6.3486814E-1,-3.4057486E-1,3.1546614E-1,-1.7901047E-3,2.545456E-1,9.3184894E-1,4.2645535E-1,-1.4485605E0,-1.5875368E-1,5.554956E-2,-2.4557912E-1,2.0826939E-1,4.2588085E-1,1.5590885E-1,-4.82606E-1,1.3278738E-1,5.0912924E-2,-6.542409E-1,-2.780006E-1,-1.52858775E-2,1.01210296E-1,3.6018733E-3],"categories":[],"categories_nodes":[],"categories_segments":[],"categories_sizes":[],"default_left":[0,0,0,0,0,0,0,0,0,0,0,0,0,0,0,0,0,0,0,0,0,0,0,0,0],"id":42,"left_children":[1,3,5,7,-1,9,11,13,15,17,19,21,23,-1,-1,-1,-1,-1,-1,-1,-1,-1,-1,-1,-1],"loss_changes":[2.751587E1,2.7925108E1,2.4755014E1,1.2645283E1,0E0,5.3136497E1,2.66491E1,3.2397408E1,1.3756348E1,4.0848724E1,2.6887108E1,7.088369E1,2.9493948E1,0E0,0E0,0E0,0E0,0E0,0E0,0E0,0E0,0E0,0E0,0E0,0E0],"parents":[2147483647,0,0,1,1,2,2,3,3,5,5,6,6,7,7,8,8,9,9,10,10,11,11,12,12],"right_children":[2,4,6,8,-1,10,12,14,16,18,20,22,24,-1,-1,-1,-1,-1,-1,-1,-1,-1,-1,-1,-1],"split_conditions":[2.49E1,1.6E1,4.76E-1,2.433E0,-3.4057486E-1,4.34E1,3.13E1,2.094E0,2.493E0,-7.997667E0,-7.398667E0,8.23E-1,6.55E-1,-2.4557912E-1,2.0826939E-1,4.2588085E-1,1.5590885E-1,-4.82606E-1,1.3278738E-1,5.0912924E-2,-6.542409E-1,-2.780006E-1,-1.52858775E-2,1.01210296E-1,3.6018733E-3],"split_indices":[12,7,6,6,0,12,12,5,6,4,4,5,5,0,0,0,0,0,0,0,0,0,0,0,0],"split_type":[0,0,0,0,0,0,0,0,0,0,0,0,0,0,0,0,0,0,0,0,0,0,0,0,0],"sum_hessian":[3.3465396E3,1.2034372E2,3.2261958E3,1.1305621E2,7.2875032E0,2.6724307E2,2.9589526E3,5.0386658E1,6.2669556E1,2.5213731E2,1.5105752E1,7.912337E2,2.167719E3,1.53417225E1,3.5044937E1,2.035487E1,4.2314686E1,6.980554E0,2.4515675E2,6.0332937E0,9.072458E0,8.072063E1,7.1051306E2,2.4861078E2,1.9191083E3],"tree_param":{"num_deleted":"0","num_feature":"14","num_nodes":"25","size_leaf_vector":"1"}},{"base_weights":[-2.779206E-2,-9.591612E-2,1.7211787E-1,-5.9906557E-2,-6.021516E-1,-3.7272486E-1,2.078993E-1,-9.1034904E-2,5.67023E-1,5.789691E-1,-7.73228E-1,1.3874688E0,1.6162895E-1,-1.649995E-2,-2.2265565E-1,-3.4313864E-1,1.9351308E-1,4.1716194E-1,-4.4651717E-2,-2.2683705E-1,2.0405588E-1,4.8087564E-1,-2.5875367E-2,-3.1442103E-1,5.1514227E-2],"categories":[],"categories_nodes":[],"categories_segments":[],"categories_sizes":[],"default_left":[0,0,0,0,0,0,0,0,0,0,0,0,0,0,0,0,0,0,0,0,0,0,0,0,0],"id":43,"left_children":[1,3,5,7,9,-1,11,13,15,17,19,21,23,-1,-1,-1,-1,-1,-1,-1,-1,-1,-1,-1,-1],"loss_changes":[4.3388397E1,4.3275673E1,4.5709885E1,4.3361244E1,3.2307095E1,0E0,4.3034843E1,4.5908134E1,3.157595E1,1.5308268E1,1.678775E1,1.8425735E1,3.2159615E1,0E0,0E0,0E0,0E0,0E0,0E0,0E0,0E0,0E0,0E0,0E0,0E0],"parents":[2147483647,0,0,1,1,2,2,3,3,4,4,6,6,7,7,8,8,9,9,10,10,11,11,12,12],"right_children":[2,4,6,8,10,-1,12,14,16,18,20,22,24,-1,-1,-1,-1,-1,-1,-1,-1,-1,-1,-1,-1],"split_conditions":[6.221E0,7.894737E-1,6.05E-1,7.4285716E-1,2.49E1,-3.7272486E-1,6.333E0,5.235E0,3.5828524E0,-8.083667E0,7.6266664E-1,3.13E1,2E-1,-1.649995E-2,-2.2265565E-1,-3.4313864E-1,1.9351308E-1,4.1716194E-1,-4.4651717E-2,-2.2683705E-1,2.0405588E-1,4.8087564E-1,-2.5875367E-2,-3.1442103E-1,5.1514227E-2],"split_indices":[6,8,5,8,12,0,6,6,11,4,4,12,8,0,0,0,0,0,0,0,0,0,0,0,0],"split_type":[0,0,0,0,0,0,0,0,0,0,0,0,0,0,0,0,0,0,0,0,0,0,0,0,0],"sum_hessian":[3.183736E3,2.3749392E3,8.0879675E2,2.2182676E3,1.5667157E2,1.7202253E1,7.915945E2,2.1141506E3,1.0411716E2,1.9520025E1,1.3715155E2,2.87853E1,7.628092E2,2.0350343E3,7.911624E1,7.598216E0,9.6518936E1,7.9523153E0,1.1567711E1,1.3111667E2,6.0348825E0,2.2355127E1,6.430172E0,1.6551699E1,7.462575E2],"tree_param":{"num_deleted":"0","num_feature":"14","num_nodes":"25","size_leaf_vector":"1"}},{"base_weights":[5.0860528E-2,-3.7129666E-3,1.9688368E-1,-2.0378241E-1,8.856306E-2,5.260609E-1,4.6462547E-2,1.9422798E-1,-3.8075006E-1,1.6433212E-1,-1.9437174E-1,3.0957934E-1,8.808911E-1,-1.2389835E0,1.43256E-1,1.1314229E-1,-2.1546425E-1,-1.6988738E-1,-1.9490644E-2,2.2736033E-2,1.6564843E-1,-1.2958501E-1,7.487847E-2,-8.606073E-2,1.4780016E-1,2.1173412E-2,2.96792E-1,-4.3376824E-1,1.684335E-1,-6.082924E-2,8.2295276E-2],"categories":[],"categories_nodes":[],"categories_segments":[],"categories_sizes":[],"default_left":[0,0,0,0,0,0,0,0,0,0,0,0,0,0,0,0,0,0,0,0,0,0,0,0,0,0,0,0,0,0,0],"id":44,"left_children":[1,3,5,7,9,11,13,15,17,19,21,23,25,27,29,-1,-1,-1,-1,-1,-1,-1,-1,-1,-1,-1,-1,-1,-1,-1,-1],"loss_changes":[2.6354149E1,4.447895E1,4.4524677E1,5.3636642E1,3.537914E1,2.1395554E1,7.71478E1,5.422126E1,4.1337997E1,4.6925682E1,4.827131E1,2.739528E1,1.9538948E1,3.227485E1,3.5306194E1,0E0,0E0,0E0,0E0,0E0,0E0,0E0,0E0,0E0,0E0,0E0,0E0,0E0,0E0,0E0,0E0],"parents":[2147483647,0,0,1,1,2,2,3,3,4,4,5,5,6,6,7,7,8,8,9,9,10,10,11,11,12,12,13,13,14,14],"right_children":[2,4,6,8,10,12,14,16,18,20,22,24,26,28,30,-1,-1,-1,-1,-1,-1,-1,-1,-1,-1,-1,-1,-1,-1,-1,-1],"split_conditions":[2.4E1,8.5529335E1,7.7566E1,1.115E0,1.8E1,7.689333E1,9.72E-1,7.71E-1,2.1E1,1.7E1,4.12E1,4.299E0,8E0,4.58E1,8.400367E1,1.1314229E-1,-2.1546425E-1,-1.6988738E-1,-1.9490644E-2,2.2736033E-2,1.6564843E-1,-1.2958501E-1,7.487847E-2,-8.606073E-2,1.4780016E-1,2.1173412E-2,2.96792E-1,-4.3376824E-1,1.684335E-1,-6.082924E-2,8.2295276E-2],"split_indices":[1,3,3,5,1,3,5,9,10,1,12,5,10,12,3,0,0,0,0,0,0,0,0,0,0,0,0,0,0,0,0],"split_type":[0,0,0,0,0,0,0,0,0,0,0,0,0,0,0,0,0,0,0,0,0,0,0,0,0,0,0,0,0,0,0],"sum_hessian":[3.3059946E3,2.4072888E3,8.987059E2,7.5945605E2,1.6478328E3,2.810867E2,6.1761914E2,2.3371655E2,5.257395E2,1.3000914E3,3.477413E2,1.7574023E2,1.0534646E2,4.24234E1,5.7519574E2,1.9061415E2,4.310241E1,2.8680313E2,2.3893639E2,1.1086184E3,1.9147313E2,2.1563672E2,1.3210458E2,4.8837543E1,1.26902695E2,2.3805132E1,8.154133E1,3.528878E1,7.134621E0,1.7683292E2,3.9836285E2],"tree_param":{"num_deleted":"0","num_feature":"14","num_nodes":"31","size_leaf_vector":"1"}},{"base_weights":[5.11078E-3,-3.4543756E-2,1.800157E-1,-2.3426133E-1,2.424799E-2,2.3470381E-1,-8.684656E-1,-3.2598326E-1,4.3341705E-1,6.027325E-1,-1.9466715E-2,-1.8769185E-1,3.9154428E-1,-3.3720207E-1,8.664406E-2,-5.1602524E-2,-2.5935322E-1,1.7575732E-1,-3.0028975E-1,2.1695177E-1,-4.3660843E-1,1.6247168E-2,-5.826897E-2,1.1116449E-1,-2.1324326E-1,2.4460615E-1,4.7541562E-2],"categories":[],"categories_nodes":[],"categories_segments":[],"categories_sizes":[],"default_left":[0,0,0,0,0,0,0,0,0,0,0,0,0,0,0,0,0,0,0,0,0,0,0,0,0,0,0],"id":45,"left_children":[1,3,5,7,9,11,13,15,17,19,21,23,25,-1,-1,-1,-1,-1,-1,-1,-1,-1,-1,-1,-1,-1,-1],"loss_changes":[2.2208044E1,3.0654964E1,3.4135925E1,3.6502388E1,5.1031937E1,3.7386543E1,1.4294949E1,4.4572777E1,2.5975853E1,6.777727E1,2.9952139E1,5.6817284E1,4.5853065E1,0E0,0E0,0E0,0E0,0E0,0E0,0E0,0E0,0E0,0E0,0E0,0E0,0E0,0E0],"parents":[2147483647,0,0,1,1,2,2,3,3,4,4,5,5,6,6,7,7,8,8,9,9,10,10,11,11,12,12],"right_children":[2,4,6,8,10,12,14,16,18,20,22,24,26,-1,-1,-1,-1,-1,-1,-1,-1,-1,-1,-1,-1,-1,-1],"split_conditions":[1.37106695E1,-6.3743334E0,3.89E1,1.024E3,-6.120333E0,3.15E1,2.1233332E0,4.29E1,1.444E3,1.3E1,2E0,2.96E1,3.53E1,-3.3720207E-1,8.664406E-2,-5.1602524E-2,-2.5935322E-1,1.7575732E-1,-3.0028975E-1,2.1695177E-1,-4.3660843E-1,1.6247168E-2,-5.826897E-2,1.1116449E-1,-2.1324326E-1,2.4460615E-1,4.7541562E-2],"split_indices":[11,4,12,2,4,12,4,12,2,7,0,12,12,0,0,0,0,0,0,0,0,0,0,0,0,0,0],"split_type":[0,0,0,0,0,0,0,0,0,0,0,0,0,0,0,0,0,0,0,0,0,0,0,0,0,0,0],"sum_hessian":[3.2000596E3,2.6092837E3,5.907757E2,5.927403E2,2.0165435E3,5.622265E2,2.854922E1,5.2159784E2,7.114244E1,1.4078062E2,1.875763E3,1.521815E2,4.1004498E2,2.141763E1,7.131591E0,4.336187E2,8.797912E1,6.268251E1,8.459929E0,1.2930989E2,1.1470734E1,1.3363826E3,5.3938025E2,7.667538E1,7.550613E1,1.17743385E2,2.923016E2],"tree_param":{"num_deleted":"0","num_feature":"14","num_nodes":"27","size_leaf_vector":"1"}},{"base_weights":[2.1048874E-2,2.1214539E-1,-3.0148543E-2,2.3677655E-1,-2.9186502E-1,5.370137E-2,-1.6849016E-1,1.9421975E-1,3.886605E-1,8.057627E-3,4.4635662E-1,-5.019515E-1,-2.9740637E-2,6.2344123E-2,-1.8220349E-1,2.0074738E-2,-1.4526023E-1,1.591264E-1,-1.5250297E-1,-3.3037916E-1,-2.6666787E-2,4.0359724E-2,-7.549904E-2],"categories":[],"categories_nodes":[],"categories_segments":[],"categories_sizes":[],"default_left":[0,0,0,0,0,0,0,0,0,0,0,0,0,0,0,0,0,0,0,0,0,0,0],"id":46,"left_children":[1,3,5,7,-1,9,11,13,-1,15,17,19,21,-1,-1,-1,-1,-1,-1,-1,-1,-1,-1],"loss_changes":[3.123472E1,2.1939207E1,2.9221268E1,3.4086323E1,0E0,2.811134E1,4.3966732E1,2.2192856E1,0E0,5.2118374E1,2.5161907E1,8.240051E1,3.0792913E1,0E0,0E0,0E0,0E0,0E0,0E0,0E0,0E0,0E0,0E0],"parents":[2147483647,0,0,1,1,2,2,3,3,5,5,6,6,7,7,9,9,10,10,11,11,12,12],"right_children":[2,4,6,8,-1,10,12,14,-1,16,18,20,22,-1,-1,-1,-1,-1,-1,-1,-1,-1,-1],"split_conditions":[3E1,9.4E-1,3.114E0,9.2957747E-1,-2.9186502E-1,4.8E1,2.89E2,8.4210527E-1,3.886605E-1,4.35E1,1.3E1,9E0,8E0,6.2344123E-2,-1.8220349E-1,2.0074738E-2,-1.4526023E-1,1.591264E-1,-1.5250297E-1,-3.3037916E-1,-2.6666787E-2,4.0359724E-2,-7.549904E-2],"split_indices":[12,8,6,8,0,12,2,8,0,12,7,7,7,0,0,0,0,0,0,0,0,0,0],"split_type":[0,0,0,0,0,0,0,0,0,0,0,0,0,0,0,0,0,0,0,0,0,0,0],"sum_hessian":[3.1908894E3,6.7358E2,2.5173093E3,6.6190375E2,1.1676246E1,1.5677163E3,9.495931E2,6.406829E2,2.122085E1,1.4053711E3,1.6234518E2,2.782494E2,6.713437E2,6.1396564E2,2.6717272E1,1.2537979E3,1.5157333E2,1.4192044E2,2.0424746E1,9.7670425E1,1.8057896E2,3.9168225E2,2.7966147E2],"tree_param":{"num_deleted":"0","num_feature":"14","num_nodes":"23","size_leaf_vector":"1"}},{"base_weights":[-1.0527992E-2,4.5409554E-1,-3.378274E-2,5.3946906E-1,-3.5503536E-1,-4.7434735E-1,-1.9929443E-2,1.3084465E-1,8.40678E-1,2.706864E-1,-8.248202E-1,1.0701445E0,-3.608974E-2,1.10521756E-1,-3.9420933E-1,3.2876888E-1,1.5982056E-1,2.77234E-1,-3.0796376E-1,6.1724985E-1,9.724576E-2,-1.3490337E-1,-4.476091E-3],"categories":[],"categories_nodes":[],"categories_segments":[],"categories_sizes":[],"default_left":[0,0,0,0,0,0,0,0,0,0,0,0,0,0,0,0,0,0,0,0,0,0,0],"id":47,"left_children":[1,3,5,7,-1,9,11,13,15,-1,17,19,21,-1,-1,-1,-1,-1,-1,-1,-1,-1,-1],"loss_changes":[3.3988804E1,2.3545013E1,1.8272156E1,1.7589619E1,0E0,4.84264E1,5.1214733E1,2.8887285E1,7.073494E0,0E0,4.6683712E1,3.6365017E1,2.59533E1,0E0,0E0,0E0,0E0,0E0,0E0,0E0,0E0,0E0,0E0],"parents":[2147483647,0,0,1,1,2,2,3,3,5,5,6,6,7,7,8,8,10,10,11,11,12,12],"right_children":[2,4,6,8,-1,10,12,14,16,-1,18,20,22,-1,-1,-1,-1,-1,-1,-1,-1,-1,-1],"split_conditions":[-1.0049E1,4.89E1,4.22E-1,4.96E0,-3.5503536E-1,2.5E1,4.59E-1,5.9166664E-1,1.614E0,2.706864E-1,2.23E-1,6E0,7E0,1.10521756E-1,-3.9420933E-1,3.2876888E-1,1.5982056E-1,2.77234E-1,-3.0796376E-1,6.1724985E-1,9.724576E-2,-1.3490337E-1,-4.476091E-3],"split_indices":[4,12,5,5,0,12,5,9,6,0,6,1,1,0,0,0,0,0,0,0,0,0,0],"split_type":[0,0,0,0,0,0,0,0,0,0,0,0,0,0,0,0,0,0,0,0,0,0,0],"sum_hessian":[3.1433218E3,1.4894353E2,2.9943782E3,1.4280428E2,6.139246E0,9.027267E1,2.9041055E3,6.1205875E1,8.1598404E1,1.6850765E1,7.3421906E1,4.147153E1,2.862634E3,5.2673016E1,8.53286E0,2.9701984E1,5.189642E1,1.0672498E1,6.2749405E1,1.4217053E1,2.7254477E1,1.12342224E2,2.7502917E3],"tree_param":{"num_deleted":"0","num_feature":"14","num_nodes":"23","size_leaf_vector":"1"}},{"base_weights":[3.4334175E-2,-4.8837077E-2,1.6514215E-1,-3.577475E-1,5.162769E-2,4.0329334E-1,-1.3370506E-1,2.2236186E-1,-6.553034E-1,-1.1248081E0,6.6992596E-2,4.2660448E-1,-3.474297E-1,9.4344296E-2,-6.1463577E-1,-2.1755669E-1,1.2679587E-1,-2.9331133E-1,-8.86868E-3,-7.997624E-2,-5.601235E-1,1.846813E-1,1.0632102E-2,8.788343E-2,2.287756E-1,-2.2059925E-1,5.082962E-2,-1.3359239E-2,-4.0397558E-1],"categories":[],"categories_nodes":[],"categories_segments":[],"categories_sizes":[],"default_left":[0,0,0,0,0,0,0,0,0,0,0,0,0,0,0,0,0,0,0,0,0,0,0,0,0,0,0,0,0],"id":48,"left_children":[1,3,5,7,9,11,13,15,17,19,21,23,-1,25,27,-1,-1,-1,-1,-1,-1,-1,-1,-1,-1,-1,-1,-1,-1],"loss_changes":[3.430783E1,5.985502E1,8.728438E1,8.1842834E1,2.6389545E1,2.765879E1,5.97556E1,4.256316E1,8.620502E1,1.4477087E1,2.4384138E1,2.7988655E1,0E0,3.2834606E1,8.873934E1,0E0,0E0,0E0,0E0,0E0,0E0,0E0,0E0,0E0,0E0,0E0,0E0,0E0,0E0],"parents":[2147483647,0,0,1,1,2,2,3,3,4,4,5,5,6,6,7,7,8,8,9,9,10,10,11,11,13,13,14,14],"right_children":[2,4,6,8,10,12,14,16,18,20,22,24,-1,26,28,-1,-1,-1,-1,-1,-1,-1,-1,-1,-1,-1,-1,-1,-1],"split_conditions":[1.2E1,1.854E0,1.959E0,7.5E-1,3.25E-1,3.7E1,1.6E1,6.78E-1,3.275E0,6E0,1.959E0,1.37106695E1,-3.474297E-1,7.73E-1,1.9E1,-2.1755669E-1,1.2679587E-1,-2.9331133E-1,-8.86868E-3,-7.997624E-2,-5.601235E-1,1.846813E-1,1.0632102E-2,8.788343E-2,2.287756E-1,-2.2059925E-1,5.082962E-2,-1.3359239E-2,-4.0397558E-1],"split_indices":[7,5,5,6,6,1,10,5,6,7,5,11,0,6,1,0,0,0,0,0,0,0,0,0,0,0,0,0,0],"split_type":[0,0,0,0,0,0,0,0,0,0,0,0,0,0,0,0,0,0,0,0,0,0,0,0,0,0,0,0,0],"sum_hessian":[3.1517078E3,1.9270585E3,1.2246493E3,4.72291E2,1.4547675E3,6.8134015E2,5.433091E2,1.6020706E2,3.1208392E2,1.7824223E1,1.4369432E3,6.728845E2,8.455644E0,3.6909445E2,1.7421465E2,3.0921535E1,1.2928554E2,1.818706E2,1.302133E2,1.034717E1,7.4770517E0,5.893808E1,1.3780052E3,5.498299E2,1.2305465E2,3.413289E1,3.3496158E2,1.0759873E2,6.661592E1],"tree_param":{"num_deleted":"0","num_feature":"14","num_nodes":"29","size_leaf_vector":"1"}},{"base_weights":[1.06585715E-2,5.692971E-1,-6.782034E-3,9.537594E-2,9.9766326E-1,-8.623982E-1,1.371092E-3,-3.9305854E-1,4.7757164E-1,6.373752E-1,4.2847645E-1,-5.9256937E-2,-3.843005E-1,8.478258E-1,-9.504829E-3,3.2025936E-1,2.0559093E-2,3.632125E-1,1.02297485E-1,3.5531968E-1,-1.226675E-1,7.2071865E-2,-9.383108E-3],"categories":[],"categories_nodes":[],"categories_segments":[],"categories_sizes":[],"default_left":[0,0,0,0,0,0,0,0,0,0,0,0,0,0,0,0,0,0,0,0,0,0,0],"id":49,"left_children":[1,3,5,7,9,11,13,-1,15,17,-1,-1,-1,19,21,-1,-1,-1,-1,-1,-1,-1,-1],"loss_changes":[3.0297216E1,1.9017015E1,2.1041346E1,2.813102E1,9.758797E0,1.019141E1,2.7521322E1,0E0,1.0766697E1,5.47274E0,0E0,0E0,0E0,2.452365E1,2.1135592E1,0E0,0E0,0E0,0E0,0E0,0E0,0E0,0E0],"parents":[2147483647,0,0,1,1,2,2,3,3,4,4,5,5,6,6,8,8,9,9,13,13,14,14],"right_children":[2,4,6,8,10,12,14,-1,16,18,-1,-1,-1,20,22,-1,-1,-1,-1,-1,-1,-1,-1],"split_conditions":[3.19E-1,2E0,4.22E-1,1.3E1,2.94E-1,3.15E1,4.59E-1,-3.9305854E-1,2.48E1,7.1273E1,4.2847645E-1,-5.9256937E-2,-3.843005E-1,9E0,4.76E-1,3.2025936E-1,2.0559093E-2,3.632125E-1,1.02297485E-1,3.5531968E-1,-1.226675E-1,7.2071865E-2,-9.383108E-3],"split_indices":[5,0,5,1,5,12,5,0,12,3,0,0,0,1,6,0,0,0,0,0,0,0,0],"split_type":[0,0,0,0,0,0,0,0,0,0,0,0,0,0,0,0,0,0,0,0,0,0,0],"sum_hessian":[3.1082449E3,9.3143135E1,3.0151018E3,4.480071E1,4.8342426E1,2.7470598E1,2.987631E3,8.226042E0,3.657467E1,3.1612654E1,1.6729773E1,1.3666355E1,1.3804242E1,3.6924248E1,2.9507068E3,1.2347098E1,2.422757E1,7.1014915E0,2.4511162E1,2.6957203E1,9.967046E0,2.4713287E2,2.703574E3],"tree_param":{"num_deleted":"0","num_feature":"14","num_nodes":"23","size_leaf_vector":"1"}},{"base_weights":[-2.0280248E-2,-1.6572472E-1,8.515426E-2,-1.5230045E-1,-6.3675857E-1,9.534368E-2,-3.925751E-1,-3.4657446E-1,-1.3101417E-1,1.6772537E-1,-9.810166E-2,3.1403515E-1,-4.2425174E-2,2.161857E-2,1.4011124E-1,1.6555326E-3,-1.9758566E-1],"categories":[],"categories_nodes":[],"categories_segments":[],"categories_sizes":[],"default_left":[0,0,0,0,0,0,0,0,0,0,0,0,0,0,0,0,0],"id":50,"left_children":[1,3,5,7,-1,9,-1,-1,11,13,15,-1,-1,-1,-1,-1,-1],"loss_changes":[4.6929386E1,3.7932602E1,2.8250797E1,3.101809E1,0E0,2.4711533E1,0E0,0E0,4.5880966E1,3.9715767E1,3.2184086E1,0E0,0E0,0E0,0E0,0E0,0E0],"parents":[2147483647,0,0,1,1,2,2,3,3,5,5,8,8,9,9,10,10],"right_children":[2,4,6,8,-1,10,-1,-1,12,14,16,-1,-1,-1,-1,-1,-1],"split_conditions":[1.7E1,1.511E0,1.9E1,7.153367E1,-6.3675857E-1,6.551724E-1,-3.925751E-1,-3.4657446E-1,7.180766E1,6.034483E-1,-1.8643334E0,3.1403515E-1,-4.2425174E-2,2.161857E-2,1.4011124E-1,1.6555326E-3,-1.9758566E-1],"split_indices":[1,4,7,3,0,8,0,0,3,8,4,0,0,0,0,0,0],"split_type":[0,0,0,0,0,0,0,0,0,0,0,0,0,0,0,0,0],"sum_hessian":[3.0583855E3,1.285078E3,1.7733075E3,1.2784098E3,6.6682863E0,1.7626948E3,1.0612708E1,2.223472E1,1.256175E3,1.2828297E3,4.7986505E2,2.5323084E1,1.2308519E3,1.0328359E3,2.4999385E2,4.136183E2,6.624674E1],"tree_param":{"num_deleted":"0","num_feature":"14","num_nodes":"17","size_leaf_vector":"1"}},{"base_weights":[5.7904165E-2,4.6497904E-2,5.8529407E-1,-4.25925E-2,1.05634734E-1,8.6383414E-1,-3.1788272E-1,-9.939181E-1,5.3820885E-3,2.92461E-1,2.9393006E-2,1.1012732E0,-4.0561512E-2,1.79251E-1,-3.690218E-1,1.6020676E-1,-3.4947675E-1,-2.8879967E-2,7.98894E-2,8.610651E-2,-5.2046525E-1,2.0309642E-1,-3.0160726E-3,8.768855E-2,3.4855318E-1],"categories":[],"categories_nodes":[],"categories_segments":[],"categories_sizes":[],"default_left":[0,0,0,0,0,0,0,0,0,0,0,0,0,0,0,0,0,0,0,0,0,0,0,0,0],"id":51,"left_children":[1,3,5,7,9,11,13,15,17,19,21,23,-1,-1,-1,-1,-1,-1,-1,-1,-1,-1,-1,-1,-1],"loss_changes":[1.8893482E1,1.6230497E1,1.7003902E1,5.611592E1,2.636221E1,1.2489239E1,1.818405E1,3.0365208E1,3.908242E1,3.6574974E1,3.9142033E1,6.1091957E0,0E0,0E0,0E0,0E0,0E0,0E0,0E0,0E0,0E0,0E0,0E0,0E0,0E0],"parents":[2147483647,0,0,1,1,2,2,3,3,4,4,5,5,6,6,7,7,8,8,9,9,10,10,11,11],"right_children":[2,4,6,8,10,12,14,16,18,20,22,24,-1,-1,-1,-1,-1,-1,-1,-1,-1,-1,-1,-1,-1],"split_conditions":[4.6E1,8E0,-1.3203334E0,1.754386E-1,2.5E-1,6.802E0,1.5714286E-2,4.43E-1,7.657E0,1.7E1,2.97E-1,2.22E-1,-4.0561512E-2,1.79251E-1,-3.690218E-1,1.6020676E-1,-3.4947675E-1,-2.8879967E-2,7.98894E-2,8.610651E-2,-5.2046525E-1,2.0309642E-1,-3.0160726E-3,8.768855E-2,3.4855318E-1],"split_indices":[1,7,4,8,8,6,9,6,6,1,6,9,0,0,0,0,0,0,0,0,0,0,0,0,0],"split_type":[0,0,0,0,0,0,0,0,0,0,0,0,0,0,0,0,0,0,0,0,0,0,0,0,0],"sum_hessian":[3.1442986E3,3.0787993E3,6.549937E1,1.2284314E3,1.8503679E3,5.009394E1,1.5405429E1,5.8028152E1,1.1704032E3,5.354472E2,1.3149207E3,4.0533978E1,9.559964E0,8.174268E0,7.2311616E0,9.4129305E0,4.8615223E1,8.4462933E2,3.257739E2,5.292415E2,6.2056994E0,6.839637E1,1.2465243E3,8.996193E0,3.1537783E1],"tree_param":{"num_deleted":"0","num_feature":"14","num_nodes":"25","size_leaf_vector":"1"}},{"base_weights":[1.8126575E-2,-5.291214E-2,1.24003805E-1,-1.9537274E-2,-5.2874994E-1,4.3569154E-1,4.3661393E-2,-4.179139E-1,-1.0421106E-2,-1.9071642E-1,-4.185635E-1,1.0840532E0,1.6009702E-1,-4.3622404E-1,1.7520788E-1,1.4267151E-2,-4.4196516E-2,-3.1666538E-1,7.869412E-2,1.0118532E-1,3.678387E-1,-2.4226096E-1,9.7789206E-2,-2.6867146E-2,-3.381631E-1,7.049632E-2,-8.973618E-2],"categories":[],"categories_nodes":[],"categories_segments":[],"categories_sizes":[],"default_left":[0,0,0,0,0,0,0,0,0,0,0,0,0,0,0,0,0,0,0,0,0,0,0,0,0,0,0],"id":52,"left_children":[1,3,5,7,9,11,13,-1,15,17,-1,19,21,23,25,-1,-1,-1,-1,-1,-1,-1,-1,-1,-1,-1,-1],"loss_changes":[2.326413E1,2.9389523E1,3.108123E1,2.4363937E1,4.2272118E1,4.5285725E1,6.2479355E1,0E0,1.7049381E1,4.5078278E1,0E0,1.5125626E1,3.9833298E1,5.91844E1,3.5303513E1,0E0,0E0,0E0,0E0,0E0,0E0,0E0,0E0,0E0,0E0,0E0,0E0],"parents":[2147483647,0,0,1,1,2,2,3,3,4,4,5,5,6,6,8,8,9,9,11,11,12,12,13,13,14,14],"right_children":[2,4,6,8,10,12,14,-1,16,18,-1,20,22,24,26,-1,-1,-1,-1,-1,-1,-1,-1,-1,-1,-1,-1],"split_conditions":[-8.73E-1,-1.1726667E0,7.22E-1,2.23E-1,2E0,-5.63E-1,1.488E0,-4.179139E-1,5.376E0,2.463E0,-4.185635E-1,6.05E-1,1E1,1.492E0,1.3E1,1.4267151E-2,-4.4196516E-2,-3.1666538E-1,7.869412E-2,1.0118532E-1,3.678387E-1,-2.4226096E-1,9.7789206E-2,-2.6867146E-2,-3.381631E-1,7.049632E-2,-8.973618E-2],"split_indices":[4,4,5,6,0,4,5,0,6,5,0,5,7,6,7,0,0,0,0,0,0,0,0,0,0,0,0],"split_type":[0,0,0,0,0,0,0,0,0,0,0,0,0,0,0,0,0,0,0,0,0,0,0,0,0,0,0],"sum_hessian":[3.0911934E3,1.850257E3,1.2409364E3,1.7299601E3,1.2029688E2,2.5341031E2,9.875261E2,9.146563E0,1.7208136E3,9.164344E1,2.8653444E1,7.471137E1,1.7869893E2,2.1196295E2,7.755632E2,1.2194082E3,5.0140533E2,2.9576378E1,6.206706E1,2.260473E1,5.2106644E1,2.8365767E1,1.5033316E2,1.5171619E2,6.024677E1,6.612789E2,1.1428433E2],"tree_param":{"num_deleted":"0","num_feature":"14","num_nodes":"27","size_leaf_vector":"1"}},{"base_weights":[3.19587E-2,2.7433372E-4,3.8678357E-1,1.8936012E-2,-3.507871E-1,2.2088088E-1,1.0735795E0,-1.4929371E-2,2.1993005E-1,-5.167981E-1,2.4657074E-1,3.250639E-1,-2.2862835E-1,1.4328537E0,-8.649901E-2,-1.7279463E-2,5.9774216E-2,1.631509E-1,3.2870162E-2,-4.031486E-1,-7.3113486E-2,1.10097356E-1,-1.9365379E-1,1.358493E-1,4.2935637E-1],"categories":[],"categories_nodes":[],"categories_segments":[],"categories_sizes":[],"default_left":[0,0,0,0,0,0,0,0,0,0,0,0,0,0,0,0,0,0,0,0,0,0,0,0,0],"id":53,"left_children":[1,3,5,7,9,11,13,15,17,19,-1,21,-1,23,-1,-1,-1,-1,-1,-1,-1,-1,-1,-1,-1],"loss_changes":[3.4698833E1,1.8576069E1,2.859137E1,1.8329102E1,3.0743635E1,2.3281277E1,2.5048317E1,2.7394613E1,1.4626686E1,3.0288544E1,0E0,1.746715E1,0E0,5.496765E0,0E0,0E0,0E0,0E0,0E0,0E0,0E0,0E0,0E0,0E0,0E0],"parents":[2147483647,0,0,1,1,2,2,3,3,4,4,5,5,6,6,7,7,8,8,9,9,11,11,13,13],"right_children":[2,4,6,8,10,12,14,16,18,20,-1,22,-1,24,-1,-1,-1,-1,-1,-1,-1,-1,-1,-1,-1],"split_conditions":[1.7621E1,4.5156E1,1.05397E2,2.9E1,1.0691233E2,1.9E1,3.168E0,7.06E0,1.078E0,3.445E0,2.4657074E-1,9.794334E1,-2.2862835E-1,9.32E-1,-8.649901E-2,-1.7279463E-2,5.9774216E-2,1.631509E-1,3.2870162E-2,-4.031486E-1,-7.3113486E-2,1.10097356E-1,-1.9365379E-1,1.358493E-1,4.2935637E-1],"split_indices":[6,5,3,1,3,7,5,5,5,6,0,3,0,5,0,0,0,0,0,0,0,0,0,0,0],"split_type":[0,0,0,0,0,0,0,0,0,0,0,0,0,0,0,0,0,0,0,0,0,0,0,0,0],"sum_hessian":[3.0854346E3,2.8334226E3,2.5201193E2,2.6913047E3,1.4211797E2,2.0404448E2,4.7967453E1,2.3040264E3,3.8727847E2,1.2625852E2,1.5859447E1,1.8668097E2,1.7363504E1,3.8137062E1,9.830389E0,1.9071876E3,3.9683862E2,7.5864876E1,3.114136E2,2.3814377E1,1.02444145E2,1.7294089E2,1.3740082E1,6.6801133E0,3.1456951E1],"tree_param":{"num_deleted":"0","num_feature":"14","num_nodes":"25","size_leaf_vector":"1"}},{"base_weights":[1.6538907E-2,-8.098818E-3,4.183008E-1,2.0985233E-2,-3.1092808E-1,6.788581E-1,1.5237558E-1,2.609316E-2,-4.8783427E-1,-6.322891E-2,-1.6642572E0,-1.9461675E-2,7.6288223E-1,3.480615E-1,-5.06044E-1,-1.17729595E-2,3.6998797E-2,1.7903201E-2,-4.5672086E-1,-3.6429614E-1,-7.145371E-1,1.3043682E-1,2.9953656E-1,2.1128094E-1,-1.591952E-2],"categories":[],"categories_nodes":[],"categories_segments":[],"categories_sizes":[],"default_left":[0,0,0,0,0,0,0,0,0,0,0,0,0,0,0,0,0,0,0,0,0,0,0,0,0],"id":54,