{"learner":{"attributes":{"best_iteration":"20","best_score":"0.14233621790021164","scikit_learn":"{\"_estimator_type\": \"classifier\"}"},"feature_names":["compound","tire_age","tire_age_squared","rolling_avg_time","degradation_rate","gap_ahead","gap_behind","position","race_completion","undercut_threat","circuit_id","pit_loss_time"],"feature_types":["int","float","float","float","float","float","float","float","float","float","int","float"],"gradient_booster":{"model":{"cats":{"enc":[],"feature_segments":[],"sorted_idx":[]},"gbtree_model_param":{"num_parallel_tree":"1","num_trees":"51"},"iteration_indptr":[0,1,2,3,4,5,6,7,8,9,10,11,12,13,14,15,16,17,18,19,20,21,22,23,24,25,26,27,28,29,30,31,32,33,34,35,36,37,38,39,40,41,42,43,44,45,46,47,48,49,50,51],"tree_info":[0,0,0,0,0,0,0,0,0,0,0,0,0,0,0,0,0,0,0,0,0,0,0,0,0,0,0,0,0,0,0,0,0,0,0,0,0,0,0,0,0,0,0,0,0,0,0,0,0,0,0],"trees":[{"base_weights":[2.1539582E-2,-6.475297E-1,4.0121177E-1,3.0842504E-2,-1.5040244E0,7.1940255E-1,-9.0879846E-1,-5.531257E-1,6.175317E-1,-1.6977117E0,-6.9171536E-1,6.401671E-2,9.252344E-1,1.6065173E-1,-1.2548426E0,-1.7498509E0,-2.5226972E-1,-3.4111977E-1,9.2413193E-1,-1.00534536E-1,-1.4705621E0,9.8384345E-1,-1.3251438E0,-1.1998055E0,2.9688108E-1,3.4961298E-1,1.0728755E0,1.1373705E0,-1.1990674E0,-1.8509222E0,-9.350489E-1,-9.991659E-2,-1.7780882E-1,1.2748143E-1,-1.4710371E0,-1.1914023E0,5.703969E-1,-9.5791325E-2,1.0454679E0,-1.6872793E0,-3.655497E-1,1.6657764E0,-9.166609E-2,7.0619965E-1,-9.988868E-2,4.9841952E-1,-1.6576271E0,5.5469644E-1,-7.5575083E-1,-1.1998055E0,8.3510846E-1,1.1664474E0,5.3278756E-1,-9.51522E-2,1.690565E0,-9.886571E-2,1.4795752E-1,-1.00274645E-1,-6.9554406E-1,1.1200744E0,-1.1126983E0,-9.074937E-2,7.821271E-2,-7.294893E-2,2.1062015E-2,-8.554389E-2,5.739354E-2,2.3734618E-2,-9.898304E-2,-9.145289E-2,4.784846E-2,7.5799495E-2,3.680191E-2,-9.520104E-2,-4.855423E-2,3.9199784E-2,-6.282333E-2,-6.416506E-2,9.0915166E-2,-9.021863E-2,7.739054E-2,-8.930881E-2,7.7601634E-2,-9.9506475E-2,-1.4709591E-2,2.106708E-2,7.506697E-2,-9.9382386E-2,3.4189638E-2,1.5248777E-3,-8.166771E-2,7.836719E-2,2.1791441E-2,7.974548E-3,6.0165234E-2,9.337369E-3,6.730364E-2,2.753957E-2,9.258314E-2,-9.099531E-2,5.4510128E-2,3.52419E-2,-9.375685E-2,8.2387455E-2,-8.249896E-2,-6.2520884E-2,6.01934E-2],"categories":[],"categories_nodes":[],"categories_segments":[],"categories_sizes":[],"default_left":[0,0,0,0,0,0,0,0,0,0,0,0,0,0,0,0,0,0,0,0,0,0,0,0,0,0,0,0,0,0,0,0,0,0,0,0,0,0,0,0,0,0,0,0,0,0,0,0,0,0,0,0,0,0,0,0,0,0,0,0,0,0,0,0,0,0,0,0,0,0,0,0,0,0,0,0,0,0,0,0,0,0,0,0,0,0,0,0,0,0,0,0,0,0,0,0,0,0,0,0,0,0,0,0,0,0,0],"id":0,"left_children":[1,3,5,7,9,11,13,15,17,19,21,23,25,27,29,31,33,35,37,-1,39,41,43,45,47,49,51,53,55,57,59,-1,61,63,65,67,69,-1,71,73,75,77,-1,79,-1,81,83,85,87,89,91,93,95,-1,97,-1,99,-1,101,103,105,-1,-1,-1,-1,-1,-1,-1,-1,-1,-1,-1,-1,-1,-1,-1,-1,-1,-1,-1,-1,-1,-1,-1,-1,-1,-1,-1,-1,-1,-1,-1,-1,-1,-1,-1,-1,-1,-1,-1,-1,-1,-1,-1,-1,-1,-1],"loss_changes":[1.5918207E3,1.3181504E3,1.667039E3,4.343961E2,1.5658154E2,4.3391565E2,2.894897E2,2.2834962E2,1.862087E2,5.4553467E1,2.0798695E2,2.269511E2,2.0767603E2,2.5633456E2,1.10871765E2,4.944565E1,2.3575107E2,1.20028656E2,1.6722198E2,0E0,1.12527405E2,1.0678731E2,1.9507669E2,9.411798E1,1.7707861E2,3.7803436E2,9.7818115E1,1.9200227E2,8.493851E1,3.525775E1,1.4234454E2,0E0,5.5598957E1,1.8189049E2,7.7961334E1,1.0599771E2,7.131286E1,0E0,6.5925415E1,5.9423584E1,8.163139E1,2.2123924E1,0E0,7.8853096E1,0E0,6.595391E1,4.236609E1,6.544928E1,2.2922162E2,6.4053024E1,1.1106647E2,6.13938E1,8.1216866E1,0E0,1.651416E1,0E0,5.8533733E1,0E0,4.38548E1,4.8393456E1,1.15154236E2,0E0,0E0,0E0,0E0,0E0,0E0,0E0,0E0,0E0,0E0,0E0,0E0,0E0,0E0,0E0,0E0,0E0,0E0,0E0,0E0,0E0,0E0,0E0,0E0,0E0,0E0,0E0,0E0,0E0,0E0,0E0,0E0,0E0,0E0,0E0,0E0,0E0,0E0,0E0,0E0,0E0,0E0,0E0,0E0,0E0,0E0],"parents":[2147483647,0,0,1,1,2,2,3,3,4,4,5,5,6,6,7,7,8,8,9,9,10,10,11,11,12,12,13,13,14,14,15,15,16,16,17,17,18,18,20,20,21,21,22,22,23,23,24,24,25,25,26,26,27,27,28,28,29,29,30,30,32,32,33,33,34,34,35,35,36,36,38,38,39,39,40,40,41,41,43,43,45,45,46,46,47,47,48,48,49,49,50,50,51,51,52,52,54,54,56,56,58,58,59,59,60,60],"right_children":[2,4,6,8,10,12,14,16,18,20,22,24,26,28,30,32,34,36,38,-1,40,42,44,46,48,50,52,54,56,58,60,-1,62,64,66,68,70,-1,72,74,76,78,-1,80,-1,82,84,86,88,90,92,94,96,-1,98,-1,100,-1,102,104,106,-1,-1,-1,-1,-1,-1,-1,-1,-1,-1,-1,-1,-1,-1,-1,-1,-1,-1,-1,-1,-1,-1,-1,-1,-1,-1,-1,-1,-1,-1,-1,-1,-1,-1,-1,-1,-1,-1,-1,-1,-1,-1,-1,-1,-1,-1],"split_conditions":[1.4E1,3E-1,7.746479E-1,9.5786E1,8.039216E-1,1.894E0,7.714667E1,7E0,1.3207547E-1,1E1,7.566866E1,5E0,6E0,8.4E-1,2.74E-2,2E1,2E0,1.05997E2,6E0,-1.00534536E-1,7.921E0,5.413E0,3E0,2E0,9.62E-1,8.363367E1,1.3E1,9E0,1.1001E1,1.05579E2,4.7333334E-2,-9.991659E-2,1.3E1,9.859155E-2,9.5075E1,5.7142857E-2,1E1,-9.5791325E-2,1E0,1.2E1,6E0,7.481567E1,-9.166609E-2,1.7E1,-9.988868E-2,1.456E0,1.0782E2,1.0205666E2,3.406E0,7.755666E1,1E0,1.5E1,2.7E1,-9.51522E-2,8.0701756E-1,-9.886571E-2,9.4736844E-1,-1.00274645E-1,1.05997E2,8.9833664E1,4.9E1,-9.074937E-2,7.821271E-2,-7.294893E-2,2.1062015E-2,-8.554389E-2,5.739354E-2,2.3734618E-2,-9.898304E-2,-9.145289E-2,4.784846E-2,7.5799495E-2,3.680191E-2,-9.520104E-2,-4.855423E-2,3.9199784E-2,-6.282333E-2,-6.416506E-2,9.0915166E-2,-9.021863E-2,7.739054E-2,-8.930881E-2,7.7601634E-2,-9.9506475E-2,-1.4709591E-2,2.106708E-2,7.506697E-2,-9.9382386E-2,3.4189638E-2,1.5248777E-3,-8.166771E-2,7.836719E-2,2.1791441E-2,7.974548E-3,6.0165234E-2,9.337369E-3,6.730364E-2,2.753957E-2,9.258314E-2,-9.099531E-2,5.4510128E-2,3.52419E-2,-9.375685E-2,8.2387455E-2,-8.249896E-2,-6.2520884E-2,6.01934E-2],"split_indices":[1,8,8,3,8,5,3,7,8,7,3,10,10,8,9,10,0,3,1,0,5,5,10,0,9,3,7,10,5,3,9,0,1,8,3,8,7,0,0,1,10,3,0,7,0,5,3,3,9,3,10,1,1,0,8,0,8,0,3,3,1,0,0,0,0,0,0,0,0,0,0,0,0,0,0,0,0,0,0,0,0,0,0,0,0,0,0,0,0,0,0,0,0,0,0,0,0,0,0,0,0,0,0,0,0,0,0],"split_type":[0,0,0,0,0,0,0,0,0,0,0,0,0,0,0,0,0,0,0,0,0,0,0,0,0,0,0,0,0,0,0,0,0,0,0,0,0,0,0,0,0,0,0,0,0,0,0,0,0,0,0,0,0,0,0,0,0,0,0,0,0,0,0,0,0,0,0,0,0,0,0,0,0,0,0,0,0,0,0,0,0,0,0,0,0,0,0,0,0,0,0,0,0,0,0,0,0,0,0,0,0,0,0,0,0,0,0],"sum_hessian":[6.2643223E3,2.2675952E3,3.996727E3,1.2659136E3,1.0016816E3,3.2160303E3,7.8069666E2,6.3445667E2,6.3145685E2,8.079448E2,1.9373677E2,7.6894745E2,2.4470828E3,1.9098695E2,5.897097E2,1.26491356E2,5.079653E2,1.5298955E2,4.7846732E2,3.3647702E2,4.714678E2,5.299638E1,1.4074039E2,1.18991875E2,6.499556E2,5.0021582E2,1.9468671E3,1.112424E2,7.974455E1,2.0423605E2,3.8547366E2,1.0899255E2,1.7498804E1,3.879735E2,1.19991806E2,7.8994606E1,7.399494E1,1.8998703E1,4.5946863E2,3.937231E2,7.774469E1,4.2997063E1,9.999317E0,3.499761E1,1.05742775E2,2.5248276E1,9.37436E1,5.224643E2,1.2749129E2,1.18991875E2,3.8122397E2,1.6583867E3,2.884803E2,1.6748856E1,9.4493546E1,5.0246567E1,2.9497986E1,1.7948773E2,2.474831E1,3.0247934E1,3.5522574E2,8.999385E0,8.499419E0,5.9995903E1,3.279776E2,1.1024247E2,9.749334E0,2.5498259E1,5.3496346E1,9.749334E0,6.424561E1,1.8073766E2,2.7873096E2,3.0097943E2,9.274367E1,3.3997677E1,4.3747013E1,1.7498804E0,4.124718E1,8.499419E0,2.649819E1,7.7494707E0,1.7498804E1,7.499488E1,1.874872E1,4.5921863E2,6.3245678E1,6.849532E1,5.899597E1,3.1247866E1,8.7744E1,1.3349088E2,2.4773308E2,5.8745987E1,1.5996407E3,2.0323611E2,8.524418E1,1.2249164E1,8.2244385E1,9.249368E0,2.0248617E1,1.1499214E1,1.3249095E1,2.5748241E1,4.4996924E0,3.3572705E2,1.9498669E1],"tree_param":{"num_deleted":"0","num_feature":"12","num_nodes":"107","size_leaf_vector":"1"}},{"base_weights":[7.7354475E-3,-6.4848953E-1,3.741541E-1,-6.232482E-2,-1.343818E0,6.862482E-1,-8.377495E-1,-6.671268E-1,5.455339E-1,-1.8368043E0,-1.0155376E0,4.4143292E-1,1.0978749E0,2.422763E-1,-1.0917274E0,-1.6766487E0,-3.9745024E-1,7.213844E-1,-9.7371453E-1,-9.5769234E-2,8.283391E-2,-1.5577235E0,-6.287383E-1,1.5454426E0,3.571599E-1,3.1670243E-1,1.2220477E0,1.1586154E0,-9.727314E-1,-1.2743937E0,-5.782188E-2,-9.621485E-2,1.444542E-1,-1.4295772E-1,-9.683636E-2,-2.2125994E-1,9.5502394E-1,-1.3968953E0,8.6573884E-2,-1.666295E0,7.377235E-1,5.049891E-1,-9.380235E-1,1.2771031E0,1.710026E0,-6.835203E-1,5.723017E-1,-7.517208E-1,1.2313105E0,1.5449743E0,9.64365E-1,1.4469584E0,-7.301059E-2,-9.465843E-2,4.2989618E-1,-4.236661E-1,-1.463395E0,8.2387364E-1,-9.364618E-2,9.146044E-2,-8.5569315E-2,-7.1386814E-2,4.3579503E-3,-5.1429387E-2,5.8213096E-2,-9.575499E-2,5.4255694E-2,8.163883E-2,-9.818162E-2,-5.5587865E-2,-9.615227E-2,8.488389E-2,-7.338252E-2,-9.017137E-2,4.918201E-2,-8.2507156E-2,-2.3400998E-2,-8.673605E-2,8.057075E-2,9.018292E-2,4.688814E-2,4.9775835E-2,-6.982213E-2,2.2127943E-3,4.406493E-2,-9.886849E-2,8.351701E-3,6.829288E-2,-7.94978E-2,-6.856253E-2,7.804868E-2,5.119688E-2,-9.4998285E-2,7.771214E-2,-6.65462E-2,9.097535E-2,-8.847004E-2,-8.503579E-2,6.152558E-2,-9.4337866E-2,1.8527536E-2,-7.597913E-2,3.837094E-2,5.7549458E-2,-8.5228436E-2],"categories":[],"categories_nodes":[],"categories_segments":[],"categories_sizes":[],"default_left":[0,0,0,0,0,0,0,0,0,0,0,0,0,0,0,0,0,0,0,0,0,0,0,0,0,0,0,0,0,0,0,0,0,0,0,0,0,0,0,0,0,0,0,0,0,0,0,0,0,0,0,0,0,0,0,0,0,0,0,0,0,0,0,0,0,0,0,0,0,0,0,0,0,0,0,0,0,0,0,0,0,0,0,0,0,0,0,0,0,0,0,0,0,0,0,0,0,0,0,0,0,0,0,0,0],"id":1,"left_children":[1,3,5,7,9,11,13,15,17,19,21,23,25,27,29,31,33,35,37,-1,-1,39,41,43,45,47,49,51,53,55,57,-1,59,61,-1,63,65,67,-1,69,71,73,75,77,79,81,83,85,87,89,91,93,95,-1,97,99,101,103,-1,-1,-1,-1,-1,-1,-1,-1,-1,-1,-1,-1,-1,-1,-1,-1,-1,-1,-1,-1,-1,-1,-1,-1,-1,-1,-1,-1,-1,-1,-1,-1,-1,-1,-1,-1,-1,-1,-1,-1,-1,-1,-1,-1,-1,-1,-1],"loss_changes":[1.497686E3,9.0952405E2,1.512294E3,4.4592783E2,1.6333362E2,3.1986072E2,2.2490466E2,1.6484885E2,1.6233745E2,1.1484473E2,1.2799219E2,1.8506122E2,1.14546265E2,1.756309E2,1.25180786E2,5.7941345E1,1.8818924E2,1.1976172E2,7.4757355E1,0E0,0E0,6.4875244E1,1.2691576E2,4.0515137E0,4.156774E2,1.6104912E2,8.355432E1,3.1998688E1,8.851351E1,8.999811E1,1.625849E2,0E0,5.389457E1,1.2250219E2,0E0,1.22707634E2,1.6456732E2,9.797821E1,0E0,3.2624146E1,2.837633E1,8.788987E1,9.416847E1,6.0816772E1,4.4231567E0,3.823042E2,2.5084567E2,8.61331E1,3.582823E1,2.3226318E1,9.9393616E1,2.377002E1,6.097073E1,0E0,4.939448E1,1.2138076E2,5.8915894E1,5.855415E1,0E0,0E0,0E0,0E0,0E0,0E0,0E0,0E0,0E0,0E0,0E0,0E0,0E0,0E0,0E0,0E0,0E0,0E0,0E0,0E0,0E0,0E0,0E0,0E0,0E0,0E0,0E0,0E0,0E0,0E0,0E0,0E0,0E0,0E0,0E0,0E0,0E0,0E0,0E0,0E0,0E0,0E0,0E0,0E0,0E0,0E0,0E0],"parents":[2147483647,0,0,1,1,2,2,3,3,4,4,5,5,6,6,7,7,8,8,9,9,10,10,11,11,12,12,13,13,14,14,15,15,16,16,17,17,18,18,21,21,22,22,23,23,24,24,25,25,26,26,27,27,28,28,29,29,30,30,32,32,33,33,35,35,36,36,37,37,39,39,40,40,41,41,42,42,43,43,44,44,45,45,46,46,47,47,48,48,49,49,50,50,51,51,52,52,54,54,55,55,56,56,57,57],"right_children":[2,4,6,8,10,12,14,16,18,20,22,24,26,28,30,32,34,36,38,-1,-1,40,42,44,46,48,50,52,54,56,58,-1,60,62,-1,64,66,68,-1,70,72,74,76,78,80,82,84,86,88,90,92,94,96,-1,98,100,102,104,-1,-1,-1,-1,-1,-1,-1,-1,-1,-1,-1,-1,-1,-1,-1,-1,-1,-1,-1,-1,-1,-1,-1,-1,-1,-1,-1,-1,-1,-1,-1,-1,-1,-1,-1,-1,-1,-1,-1,-1,-1,-1,-1,-1,-1,-1,-1],"split_conditions":[1.4E1,3E-1,7.638889E-1,9.5786E1,1E1,1.5E1,1E0,1.0344828E-1,2E0,1.8243333E0,9E0,1E0,1.6E1,8.7142855E-1,1.761E1,1.9E1,3.024E0,1.1290322E-1,1.9033334E-1,-9.5769234E-2,8.283391E-2,8.965517E-1,-7.836E0,1.7E1,5E0,-2.0763333E0,1.8E1,7.714667E1,9.8658E1,7.63E-1,1.1E1,-9.621485E-2,5.35E-1,6E0,-9.683636E-2,1.7E1,-3.5136666E0,-1.0087334E1,8.6573884E-2,1.3E1,8.132567E1,8.717567E1,1.1E1,9.978433E1,-6.2506666E0,2E0,4.7058824E-1,1.1E1,2E0,2.64E-1,-5.826667E-1,8.4E-1,3.73E-1,-9.465843E-2,3.277E0,1E1,4.9E1,9.607843E-1,-9.364618E-2,9.146044E-2,-8.5569315E-2,-7.1386814E-2,4.3579503E-3,-5.1429387E-2,5.8213096E-2,-9.575499E-2,5.4255694E-2,8.163883E-2,-9.818162E-2,-5.5587865E-2,-9.615227E-2,8.488389E-2,-7.338252E-2,-9.017137E-2,4.918201E-2,-8.2507156E-2,-2.3400998E-2,-8.673605E-2,8.057075E-2,9.018292E-2,4.688814E-2,4.9775835E-2,-6.982213E-2,2.2127943E-3,4.406493E-2,-9.886849E-2,8.351701E-3,6.829288E-2,-7.94978E-2,-6.856253E-2,7.804868E-2,5.119688E-2,-9.4998285E-2,7.771214E-2,-6.65462E-2,9.097535E-2,-8.847004E-2,-8.503579E-2,6.152558E-2,-9.4337866E-2,1.8527536E-2,-7.597913E-2,3.837094E-2,5.7549458E-2,-8.5228436E-2],"split_indices":[1,8,8,3,7,10,0,8,0,4,1,10,1,8,6,7,6,8,4,0,0,8,4,1,10,4,10,3,3,6,7,0,6,10,0,7,4,4,0,7,3,3,10,3,4,0,8,7,0,6,4,8,6,0,6,10,1,8,0,0,0,0,0,0,0,0,0,0,0,0,0,0,0,0,0,0,0,0,0,0,0,0,0,0,0,0,0,0,0,0,0,0,0,0,0,0,0,0,0,0,0,0,0,0,0],"split_type":[0,0,0,0,0,0,0,0,0,0,0,0,0,0,0,0,0,0,0,0,0,0,0,0,0,0,0,0,0,0,0,0,0,0,0,0,0,0,0,0,0,0,0,0,0,0,0,0,0,0,0,0,0,0,0,0,0,0,0,0,0,0,0,0,0,0,0,0,0,0,0,0,0,0,0,0,0,0,0,0,0,0,0,0,0,0,0,0,0,0,0,0,0,0,0,0,0,0,0,0,0,0,0,0,0],"sum_hessian":[6.2265913E3,2.2307449E3,3.9958462E3,1.2109763E3,1.0197685E3,3.177896E3,8.179503E2,6.069655E2,6.040108E2,4.0578952E2,6.1397894E2,1.9940221E3,1.1838738E3,1.5573642E2,6.622139E2,1.2685866E2,4.8010687E2,5.418211E2,6.218973E1,3.973045E2,8.485022E0,2.543805E2,3.5959845E2,1.4018637E2,1.8538358E3,1.6286145E2,1.0210124E3,8.880646E1,6.692997E1,5.625858E2,9.962807E1,1.1162264E2,1.5236009E1,4.1292914E2,6.717774E1,1.0762982E2,4.3419125E2,5.4195415E1,7.994314E0,2.4315375E2,1.1226745E1,7.6938194E1,2.8266028E2,5.662449E1,8.3561874E1,3.172178E2,1.5366179E3,7.519664E1,8.766482E1,4.5092273E2,5.7008966E2,7.181791E1,1.6988544E1,4.0200035E1,2.6729933E1,1.0285578E2,4.5973007E2,6.742305E1,3.2205013E1,7.9936376E0,7.242371E0,6.19345E1,3.5099463E2,6.81672E1,3.946263E1,1.8231674E1,4.159596E2,8.243922E0,4.5951492E1,7.863831E1,1.6451543E2,7.982384E0,3.2443607E0,1.2738039E1,6.420015E1,1.1138534E2,1.7127493E2,5.238826E0,5.1385662E1,7.333491E1,1.0226968E1,9.4428474E1,2.2278934E2,5.676693E2,9.689486E2,3.172381E1,4.3472828E1,8.416675E1,3.4980705E0,1.9982241E0,4.489245E2,5.591039E2,1.0985759E1,6.957149E1,2.2464218E0,7.995771E0,8.992774E0,6.9937577E0,1.9736176E1,3.570503E1,6.715075E1,4.487463E2,1.0983758E1,6.0181847E1,7.2412033E0],"tree_param":{"num_deleted":"0","num_feature":"12","num_nodes":"105","size_leaf_vector":"1"}},{"base_weights":[-2.1777856E-3,1.33688E-1,-1.0250655E0,4.212748E-1,-2.6472488E-1,-1.2551415E0,9.918983E-2,-9.9031216E-1,4.8759907E-1,-8.734765E-1,2.5530249E-2,-3.492059E-1,-1.4388729E0,-9.077098E-2,5.9429634E-1,5.408663E-1,-1.3294865E0,-1.28859E0,5.4102325E-1,-1.0116298E0,7.462361E-1,-9.512755E-1,2.480631E-1,-1.230843E0,5.1890516E-1,-4.7000057E-1,-1.6429387E0,1.0050848E0,-8.6980805E-2,-8.3526134E-2,8.361689E-2,-9.2905454E-2,3.3617562E-1,-9.886025E-2,-2.270174E-1,-9.16211E-2,5.642406E-1,-5.74311E-1,-1.4529027E0,1.1737427E0,-8.6784735E-2,3.950793E-1,-1.3576064E0,4.677718E-1,-7.2613853E-1,2.3955269E-1,-9.0990365E-2,-8.524488E-2,1.019026E0,9.281242E-1,-9.264001E-2,-8.9457804E-1,-1.7810133E0,1.2317653E0,-8.012909E-2,5.3806163E-2,-8.7022245E-2,4.0228665E-2,-9.286796E-2,1.5273596E-2,3.729805E-2,-7.234117E-2,8.990887E-5,1.5501876E-2,-7.636472E-2,7.212838E-2,-7.805694E-2,-8.604859E-2,3.5436284E-2,5.7997317E-5,-8.648824E-2,-1.2738715E-2,3.227845E-2,-8.17552E-2,4.032144E-3,-8.3560444E-2,9.0124555E-2,8.593133E-2,-4.82242E-3,-7.418085E-2,5.9292924E-2,-9.129276E-2,3.3082325E-2,-5.0294995E-2,-9.3224354E-2,6.871345E-2,-7.1616106E-2],"categories":[],"categories_nodes":[],"categories_segments":[],"categories_sizes":[],"default_left":[0,0,0,0,0,0,0,0,0,0,0,0,0,0,0,0,0,0,0,0,0,0,0,0,0,0,0,0,0,0,0,0,0,0,0,0,0,0,0,0,0,0,0,0,0,0,0,0,0,0,0,0,0,0,0,0,0,0,0,0,0,0,0,0,0,0,0,0,0,0,0,0,0,0,0,0,0,0,0,0,0,0,0,0,0,0,0],"id":2,"left_children":[1,3,5,7,9,11,13,15,17,19,21,23,25,-1,27,29,31,33,35,37,39,41,43,45,47,49,51,53,-1,-1,-1,-1,55,-1,57,-1,59,61,63,65,-1,67,69,71,73,75,-1,-1,77,79,-1,81,83,85,-1,-1,-1,-1,-1,-1,-1,-1,-1,-1,-1,-1,-1,-1,-1,-1,-1,-1,-1,-1,-1,-1,-1,-1,-1,-1,-1,-1,-1,-1,-1,-1,-1],"loss_changes":[8.55027E2,6.223862E2,1.867182E2,2.9582288E2,4.0242603E2,9.9183655E1,1.1812528E2,7.441202E1,2.8667047E2,1.652962E2,3.3566064E2,7.893666E1,9.760962E1,0E0,9.652887E1,6.895734E1,1.0316431E2,6.409575E1,1.6229303E2,1.29995E2,6.3965282E1,1.572829E2,2.695112E2,4.4647774E1,5.984823E1,1.7179785E2,4.0836426E1,5.203894E1,0E0,0E0,0E0,0E0,4.628332E1,0E0,6.1821148E1,0E0,1.3608441E2,1.7199155E2,4.464386E1,3.9295906E1,0E0,4.5819794E1,1.1141385E2,1.3206848E2,1.7013089E2,4.925476E1,0E0,0E0,3.394295E1,2.9363953E1,0E0,9.681644E1,2.048877E1,3.1765968E1,0E0,0E0,0E0,0E0,0E0,0E0,0E0,0E0,0E0,0E0,0E0,0E0,0E0,0E0,0E0,0E0,0E0,0E0,0E0,0E0,0E0,0E0,0E0,0E0,0E0,0E0,0E0,0E0,0E0,0E0,0E0,0E0,0E0],"parents":[2147483647,0,0,1,1,2,2,3,3,4,4,5,5,6,6,7,7,8,8,9,9,10,10,11,11,12,12,14,14,15,15,16,16,17,17,18,18,19,19,20,20,21,21,22,22,23,23,24,24,25,25,26,26,27,27,32,32,34,34,36,36,37,37,38,38,39,39,41,41,42,42,43,43,44,44,45,45,48,48,49,49,51,51,52,52,53,53],"right_children":[2,4,6,8,10,12,14,16,18,20,22,24,26,-1,28,30,32,34,36,38,40,42,44,46,48,50,52,54,-1,-1,-1,-1,56,-1,58,-1,60,62,64,66,-1,68,70,72,74,76,-1,-1,78,80,-1,82,84,86,-1,-1,-1,-1,-1,-1,-1,-1,-1,-1,-1,-1,-1,-1,-1,-1,-1,-1,-1,-1,-1,-1,-1,-1,-1,-1,-1,-1,-1,-1,-1,-1,-1],"split_conditions":[8.245614E-1,2E0,1.9739E1,8.928572E-2,4.6153846E-1,-7.714667E0,8.965517E-1,4.5454547E-2,1.169359E0,3.7266666E-1,1.552E0,5.68E0,8.23E-1,-9.077098E-2,9.607843E-1,3.277E0,1.7E1,4.6551725E-1,7.0394E1,4.5172806E0,1.089E0,6.33E-1,7.183099E-1,7.63E-1,-9.1883335E0,3.2883482E0,3E0,1.8E1,-8.6980805E-2,-8.3526134E-2,8.361689E-2,-9.2905454E-2,-3.296E0,-9.886025E-2,6E0,-9.16211E-2,-3.7983334E0,-5.555333E0,2.64E-1,1.8E1,-8.6784735E-2,-6.2786665E0,7.9142E1,5E0,5.035E0,7.41E-1,-9.0990365E-2,-8.524488E-2,2.477E0,1E1,-9.264001E-2,1.3E1,8.4E-1,1.8E1,-8.012909E-2,5.3806163E-2,-8.7022245E-2,4.0228665E-2,-9.286796E-2,1.5273596E-2,3.729805E-2,-7.234117E-2,8.990887E-5,1.5501876E-2,-7.636472E-2,7.212838E-2,-7.805694E-2,-8.604859E-2,3.5436284E-2,5.7997317E-5,-8.648824E-2,-1.2738715E-2,3.227845E-2,-8.17552E-2,4.032144E-3,-8.3560444E-2,9.0124555E-2,8.593133E-2,-4.82242E-3,-7.418085E-2,5.9292924E-2,-9.129276E-2,3.3082325E-2,-5.0294995E-2,-9.3224354E-2,6.871345E-2,-7.1616106E-2],"split_indices":[8,0,6,8,8,4,8,8,11,4,5,5,6,0,8,5,7,8,3,11,5,6,8,6,4,11,10,7,0,0,0,0,4,0,7,0,4,4,6,7,0,4,3,10,6,6,0,0,6,7,0,7,8,10,0,0,0,0,0,0,0,0,0,0,0,0,0,0,0,0,0,0,0,0,0,0,0,0,0,0,0,0,0,0,0,0,0],"split_type":[0,0,0,0,0,0,0,0,0,0,0,0,0,0,0,0,0,0,0,0,0,0,0,0,0,0,0,0,0,0,0,0,0,0,0,0,0,0,0,0,0,0,0,0,0,0,0,0,0,0,0,0,0,0,0,0,0,0,0,0,0,0,0,0,0,0,0,0,0,0,0,0,0,0,0,0,0,0,0,0,0,0,0,0,0,0,0],"sum_hessian":[6.150374E3,5.4299995E3,7.203743E2,3.153586E3,2.2764138E3,5.978993E2,1.2247502E2,1.4089832E2,3.0126877E3,7.3431885E2,1.542095E3,1.01302315E2,4.9659695E2,2.4616123E1,9.7858894E1,2.5443005E1,1.15455315E2,8.729454E1,2.925393E3,6.7695355E2,5.736531E1,2.855224E2,1.2565725E3,5.0052307E1,5.1250008E1,8.697181E1,4.0962515E2,8.369689E1,1.4162007E1,8.4505415E0,1.6992462E1,8.7553406E1,2.7901905E1,5.242516E1,3.4869385E1,2.7584446E1,2.8978086E3,3.41156E2,3.3579755E2,4.9385807E1,7.979501E0,6.620002E1,2.1932239E2,1.0257567E3,2.3081589E2,1.44843235E1,3.556798E1,8.967367E0,4.228264E1,4.340976E1,4.356205E1,6.496973E1,3.4465543E2,7.748856E1,6.208327E0,2.0926947E1,6.9749603E0,2.166651E1,1.3202875E1,1.196575E3,1.7012336E3,1.350749E2,2.060811E2,1.3467819E1,3.223297E2,4.539613E1,3.9896784E0,7.9664526E0,5.8233566E1,4.7369865E1,1.7195251E2,2.0247795E2,8.232787E2,1.0805187E2,1.2276402E2,6.485832E0,7.9984913E0,2.5652962E1,1.6629677E1,3.7319322E0,3.9677826E1,4.05378E1,2.4431925E1,3.4776974E1,3.0987848E2,7.401367E1,3.4748867E0],"tree_param":{"num_deleted":"0","num_feature":"12","num_nodes":"87","size_leaf_vector":"1"}},{"base_weights":[2.3656124E-3,-7.587978E-1,2.9844216E-1,-2.0818555E-1,-1.2669262E0,5.64499E-1,-7.2167337E-1,4.9045962E-1,-5.523507E-1,-3.1487092E-2,-1.3639271E0,9.011752E-1,1.8830892E-1,-1.0009183E0,1.3258901E-1,-4.1084924E-1,8.839462E-1,-1.835717E-1,-1.4875139E0,-8.9559264E-2,1.3847902E0,-9.150406E-2,-1.0775654E0,-7.1940225E-1,9.703393E-1,-3.498854E-1,5.9114385E-1,-1.4710877E0,-7.039897E-1,1.51915E0,-1.0713687E0,6.1060137E-1,-9.126267E-2,1.1192492E0,-9.567857E-2,-1.3123069E0,2.6776124E-2,-9.2412606E-2,-7.0232695E-1,-6.49529E-2,1.5726032E0,7.328315E-1,-1.165648E0,-1.3662537E0,9.284074E-1,4.7953048E-1,1.170413E0,-9.301517E-1,8.111277E-2,-9.375023E-2,6.995251E-1,-9.0086065E-2,-9.496845E-1,7.192469E-1,-9.29005E-1,-8.198977E-2,1.6749603E0,-9.015748E-2,9.954417E-2,-8.228395E-2,5.7287972E-2,-8.0650285E-2,5.9988648E-2,4.7081053E-2,-8.9013375E-2,7.5806426E-3,-9.624644E-2,2.4690852E-2,-9.534984E-2,6.221192E-2,9.273178E-2,6.9071434E-2,-7.664516E-2,-6.3094586E-2,3.588597E-2,-9.629793E-2,7.709594E-2,8.834436E-2,-8.189591E-2,4.464764E-2,-3.047823E-2,5.9094455E-2,-8.379138E-2,-7.27228E-2,-1.0500448E-3,-4.0733624E-2,2.8683392E-2,1.6917134E-2,5.3390343E-2,6.443923E-4,-8.795378E-2,8.2593836E-2,-2.9683743E-2,-5.808533E-2,2.892432E-2,8.640886E-2,-5.7067793E-2,-8.455905E-2,3.769138E-2],"categories":[],"categories_nodes":[],"categories_segments":[],"categories_sizes":[],"default_left":[0,0,0,0,0,0,0,0,0,0,0,0,0,0,0,0,0,0,0,0,0,0,0,0,0,0,0,0,0,0,0,0,0,0,0,0,0,0,0,0,0,0,0,0,0,0,0,0,0,0,0,0,0,0,0,0,0,0,0,0,0,0,0,0,0,0,0,0,0,0,0,0,0,0,0,0,0,0,0,0,0,0,0,0,0,0,0,0,0,0,0,0,0,0,0,0,0,0,0],"id":3,"left_children":[1,3,5,7,9,11,13,15,17,19,21,23,25,27,29,31,33,35,37,-1,39,-1,41,43,45,47,49,51,53,55,57,59,-1,61,-1,63,65,-1,67,-1,69,71,73,75,77,79,81,83,85,-1,87,-1,89,91,93,-1,95,-1,97,-1,-1,-1,-1,-1,-1,-1,-1,-1,-1,-1,-1,-1,-1,-1,-1,-1,-1,-1,-1,-1,-1,-1,-1,-1,-1,-1,-1,-1,-1,-1,-1,-1,-1,-1,-1,-1,-1,-1,-1],"loss_changes":[1.3883834E3,4.8243628E2,1.2042095E3,1.9965598E2,1.0745923E2,4.4545618E2,2.191058E2,9.760967E1,1.9147966E2,1.677865E2,1.0905383E2,2.0878235E2,3.6074524E2,9.556079E1,3.80609E2,1.2249071E2,1.2799504E2,9.4983574E1,4.3203156E1,0E0,2.0851707E1,0E0,8.340173E1,8.287596E1,1.7432031E2,1.782703E2,2.5562225E2,4.430255E1,1.3709723E2,5.4881577E1,1.0479991E2,6.1693684E1,0E0,4.0874405E1,0E0,6.79553E1,8.266006E1,0E0,7.453376E1,0E0,9.6395874E-1,3.831446E1,9.045337E1,9.3120636E1,5.0616997E1,2.3352036E2,4.3283203E1,1.4475894E2,1.8126366E2,0E0,1.2096808E2,0E0,8.2364944E1,7.2883E1,1.2986533E2,0E0,1.717572E1,0E0,5.7404865E1,0E0,0E0,0E0,0E0,0E0,0E0,0E0,0E0,0E0,0E0,0E0,0E0,0E0,0E0,0E0,0E0,0E0,0E0,0E0,0E0,0E0,0E0,0E0,0E0,0E0,0E0,0E0,0E0,0E0,0E0,0E0,0E0,0E0,0E0,0E0,0E0,0E0,0E0,0E0,0E0],"parents":[2147483647,0,0,1,1,2,2,3,3,4,4,5,5,6,6,7,7,8,8,9,9,10,10,11,11,12,12,13,13,14,14,15,15,16,16,17,17,18,18,20,20,22,22,23,23,24,24,25,25,26,26,27,27,28,28,29,29,30,30,31,31,33,33,35,35,36,36,38,38,40,40,41,41,42,42,43,43,44,44,45,45,46,46,47,47,48,48,50,50,52,52,53,53,54,54,56,56,58,58],"right_children":[2,4,6,8,10,12,14,16,18,20,22,24,26,28,30,32,34,36,38,-1,40,-1,42,44,46,48,50,52,54,56,58,60,-1,62,-1,64,66,-1,68,-1,70,72,74,76,78,80,82,84,86,-1,88,-1,90,92,94,-1,96,-1,98,-1,-1,-1,-1,-1,-1,-1,-1,-1,-1,-1,-1,-1,-1,-1,-1,-1,-1,-1,-1,-1,-1,-1,-1,-1,-1,-1,-1,-1,-1,-1,-1,-1,-1,-1,-1,-1,-1,-1,-1],"split_conditions":[1.2E1,2.2727273E-1,7.5757575E-1,1E0,-8.847333E0,4.5172806E0,6.4874563E0,1.1290322E-1,4.733772E0,1.4175E1,-6.187333E0,1.169359E0,2.658E0,2.74E-2,9.031555E0,5E0,2.538E0,8.928572E-2,1E1,-8.9559264E-2,5.8064514E-1,-9.150406E-2,-6.134E0,-1.7746667E0,1.6E1,1.9E1,4E0,9.411765E-1,7.8363635E-2,7.924528E-1,1.1001E1,4.2168946E0,-9.126267E-2,-4.544E0,-9.567857E-2,4.34E-1,2.714E0,-9.2412606E-2,1.5151516E-1,-6.49529E-2,1.441E0,1.832E0,5.68E-1,6.609E0,-1.6653334E0,2E0,7.4509805E-1,-1.4886667E0,6E0,-9.375023E-2,-3.1406667E0,-9.0086065E-2,9.607843E-1,9.9E-1,1.9217E1,-8.198977E-2,9.687E0,-9.015748E-2,8.873239E-1,-8.228395E-2,5.7287972E-2,-8.0650285E-2,5.9988648E-2,4.7081053E-2,-8.9013375E-2,7.5806426E-3,-9.624644E-2,2.4690852E-2,-9.534984E-2,6.221192E-2,9.273178E-2,6.9071434E-2,-7.664516E-2,-6.3094586E-2,3.588597E-2,-9.629793E-2,7.709594E-2,8.834436E-2,-8.189591E-2,4.464764E-2,-3.047823E-2,5.9094455E-2,-8.379138E-2,-7.27228E-2,-1.0500448E-3,-4.0733624E-2,2.8683392E-2,1.6917134E-2,5.3390343E-2,6.443923E-4,-8.795378E-2,8.2593836E-2,-2.9683743E-2,-5.808533E-2,2.892432E-2,8.640886E-2,-5.7067793E-2,-8.455905E-2,3.769138E-2],"split_indices":[1,8,8,0,4,11,11,8,11,5,4,11,5,9,11,1,5,8,1,0,8,0,4,4,1,1,10,8,9,8,5,11,0,4,0,5,9,0,8,0,9,5,4,9,4,0,8,4,10,0,4,0,8,5,5,0,5,0,8,0,0,0,0,0,0,0,0,0,0,0,0,0,0,0,0,0,0,0,0,0,0,0,0,0,0,0,0,0,0,0,0,0,0,0,0,0,0,0,0],"split_type":[0,0,0,0,0,0,0,0,0,0,0,0,0,0,0,0,0,0,0,0,0,0,0,0,0,0,0,0,0,0,0,0,0,0,0,0,0,0,0,0,0,0,0,0,0,0,0,0,0,0,0,0,0,0,0,0,0,0,0,0,0,0,0,0,0,0,0,0,0,0,0,0,0,0,0,0,0,0,0,0,0,0,0,0,0,0,0,0,0,0,0,0,0,0,0,0,0,0,0],"sum_hessian":[6.1586587E3,1.7242742E3,4.4343843E3,8.282188E2,8.960554E2,3.5174446E3,9.169399E2,2.7320187E2,5.550169E2,6.5328835E1,8.3072656E2,1.8554712E3,1.6619734E3,6.90918E2,2.2602188E2,8.301226E1,1.901896E2,3.9890582E2,1.561111E2,2.9014341E1,3.631449E1,3.140726E2,5.16654E2,7.556292E1,1.7799082E3,7.115123E2,9.504611E2,2.6591013E2,4.2500787E2,1.0492323E2,1.2109865E2,4.8531914E1,3.448035E1,1.7598701E2,1.4202594E1,6.1838593E1,3.3706723E2,1.06039505E2,5.0071598E1,1.9880786E0,3.4326412E1,2.3631275E1,4.930227E2,5.4384876E1,2.1178045E1,5.1643E2,1.2634783E3,3.0275104E2,4.087613E2,3.932585E1,9.1113525E2,1.6122083E2,1.0468931E2,5.7721188E1,3.6728668E2,4.484229E0,1.00439E2,7.419151E1,4.6907135E1,8.90642E0,3.9625492E1,4.493299E0,1.7149371E2,1.0457579E1,5.1381012E1,3.1767044E2,1.9396807E1,2.5420794E1,2.4650803E1,1.8360882E1,1.5965531E1,1.8675467E1,4.9558086E0,4.6936713E2,2.3655592E1,4.5890556E1,8.494321E0,1.619746E1,4.9805846E0,3.7446323E2,1.4196675E2,1.2589867E3,4.491507E0,1.916356E2,1.11115425E2,1.4478822E2,2.6397308E2,4.6096997E2,4.501653E2,4.826911E1,5.6420193E1,3.359729E1,2.4123896E1,3.1837122E2,4.891549E1,9.895551E1,1.4834894E0,1.2128245E1,3.477889E1],"tree_param":{"num_deleted":"0","num_feature":"12","num_nodes":"99","size_leaf_vector":"1"}},{"base_weights":[-4.7753495E-3,-6.1128765E-1,3.3514702E-1,-1.1348917E-1,-1.175263E0,5.5280685E-1,-1.164598E0,6.0489666E-1,-4.277031E-1,-1.6419734E0,-7.982756E-1,-3.1570715E-1,6.8189067E-1,-3.500255E-1,-1.3773644E0,-9.0848796E-2,8.1091017E-1,-1.0522716E0,-7.596114E-2,-1.7051284E0,7.5815015E-2,3.746186E-1,-1.073772E0,9.162278E-1,-9.178676E-1,2.7506152E-1,8.3887404E-1,-1.3070161E0,1.3256397E0,-3.7219587E-1,-1.5719161E0,3.5298906E-2,1.0655416E0,-1.6949424E0,-1.035411E-1,3.463543E-1,-9.3376446E-1,5.0490654E-1,-8.8516705E-2,-9.8320633E-1,1.1898978E0,-1.4560454E0,-4.4315243E-1,-8.909955E-2,1.0911148E0,9.5780706E-1,-1.3048402E0,-7.701898E-1,4.193195E-1,9.10196E-1,1.246226E-1,-8.55062E-2,-3.4217015E-1,1.5134125E0,-6.0118597E-2,-1.0508089E0,1.1662863E0,-3.5433146E-1,-1.6568727E0,-8.4543414E-2,2.7740201E-2,1.53562175E-2,6.32501E-2,-4.3908935E-2,-9.2796E-2,1.7367657E-2,-9.0551026E-2,-5.2740186E-2,2.71611E-2,-6.880618E-2,7.273535E-2,8.40958E-2,-7.2561055E-2,8.8057145E-2,-8.6861454E-2,-7.955016E-2,7.165539E-2,-5.7810295E-2,-8.783712E-2,-8.872502E-2,1.7820472E-3,5.810384E-2,-7.103001E-2,-8.523119E-2,7.331485E-2,-8.186405E-2,-1.7244829E-2,6.377882E-4,-9.5896564E-2,-8.601799E-2,2.3353213E-2,-1.2581988E-2,4.7676172E-2,-4.0159125E-2,4.200342E-2,5.829483E-2,-8.030387E-2,4.4716217E-2,8.646261E-2,5.6821484E-2,-8.573116E-2,-6.255387E-2,7.836143E-2,-7.967826E-2,4.2288188E-2,-8.7631665E-2,-3.925315E-2],"categories":[],"categories_nodes":[],"categories_segments":[],"categories_sizes":[],"default_left":[0,0,0,0,0,0,0,0,0,0,0,0,0,0,0,0,0,0,0,0,0,0,0,0,0,0,0,0,0,0,0,0,0,0,0,0,0,0,0,0,0,0,0,0,0,0,0,0,0,0,0,0,0,0,0,0,0,0,0,0,0,0,0,0,0,0,0,0,0,0,0,0,0,0,0,0,0,0,0,0,0,0,0,0,0,0,0,0,0,0,0,0,0,0,0,0,0,0,0,0,0,0,0,0,0,0,0],"id":4,"left_children":[1,3,5,7,9,11,13,15,17,19,21,23,25,27,29,-1,31,33,35,37,-1,39,41,43,45,47,49,51,53,55,57,59,61,63,65,67,69,71,-1,73,75,77,79,-1,81,83,85,87,89,91,93,-1,95,97,-1,99,101,103,105,-1,-1,-1,-1,-1,-1,-1,-1,-1,-1,-1,-1,-1,-1,-1,-1,-1,-1,-1,-1,-1,-1,-1,-1,-1,-1,-1,-1,-1,-1,-1,-1,-1,-1,-1,-1,-1,-1,-1,-1,-1,-1,-1,-1,-1,-1,-1,-1],"loss_changes":[1.255006E3,6.136693E2,1.274065E3,2.6264435E2,1.7901819E2,3.822091E2,8.526062E1,1.7816077E2,1.7770758E2,9.37428E1,1.8423154E2,3.2840543E2,1.892395E2,1.6818684E2,7.605878E1,0E0,6.455432E1,1.7754968E2,1.882625E2,6.5529785E1,0E0,1.2178056E2,1.1047638E2,7.0590836E1,2.1689078E2,1.2510048E2,1.0891199E2,2.5307098E1,1.996656E1,6.894837E1,3.33479E1,7.4353806E1,3.6853394E1,2.120932E1,9.20758E1,9.666821E1,1.8311919E2,3.3827744E1,0E0,8.877597E1,4.862931E1,2.380426E1,1.1187332E2,0E0,2.6111755E1,7.2068985E1,7.816528E1,9.052399E1,7.515498E1,9.818677E1,1.3042416E2,0E0,4.1647114E1,3.267723E0,0E0,6.806619E1,2.1663502E1,3.5061485E1,2.4203003E1,0E0,0E0,0E0,0E0,0E0,0E0,0E0,0E0,0E0,0E0,0E0,0E0,0E0,0E0,0E0,0E0,0E0,0E0,0E0,0E0,0E0,0E0,0E0,0E0,0E0,0E0,0E0,0E0,0E0,0E0,0E0,0E0,0E0,0E0,0E0,0E0,0E0,0E0,0E0,0E0,0E0,0E0,0E0,0E0,0E0,0E0,0E0,0E0],"parents":[2147483647,0,0,1,1,2,2,3,3,4,4,5,5,6,6,7,7,8,8,9,9,10,10,11,11,12,12,13,13,14,14,16,16,17,17,18,18,19,19,21,21,22,22,23,23,24,24,25,25,26,26,27,27,28,28,29,29,30,30,31,31,32,32,33,33,34,34,35,35,36,36,37,37,39,39,40,40,41,41,42,42,44,44,45,45,46,46,47,47,48,48,49,49,50,50,52,52,53,53,55,55,56,56,57,57,58,58],"right_children":[2,4,6,8,10,12,14,16,18,20,22,24,26,28,30,-1,32,34,36,38,-1,40,42,44,46,48,50,52,54,56,58,60,62,64,66,68,70,72,-1,74,76,78,80,-1,82,84,86,88,90,92,94,-1,96,98,-1,100,102,104,106,-1,-1,-1,-1,-1,-1,-1,-1,-1,-1,-1,-1,-1,-1,-1,-1,-1,-1,-1,-1,-1,-1,-1,-1,-1,-1,-1,-1,-1,-1,-1,-1,-1,-1,-1,-1,-1,-1,-1,-1,-1,-1,-1,-1,-1,-1,-1,-1],"split_conditions":[1.4E1,3E-1,8.4210527E-1,1E0,1.1E1,5E0,1.019E0,-3.6813333E0,1E1,1.8243333E0,3E0,2E0,2.101E0,9.12E-1,-7.6583333E0,-9.0848796E-2,1.1290322E-1,1.8965517E-1,2E0,2.58E-1,7.5815015E-2,7.526E0,1.1E1,1.478E0,1E0,6E0,7.4509805E-1,7.51E-1,4.673706E0,-7.774667E0,1.5E1,3.667381E0,9E0,4E0,4.954472E0,8.928572E-2,3.7266666E-1,-7.836E0,-8.8516705E-2,3.27E-1,7E0,2E0,1.1E1,-8.909955E-2,7.6E-1,1.7E1,1.5E1,5.2523847E0,1.169359E0,1.5E1,8.142857E-1,-8.55062E-2,7.63E-1,2E0,-6.0118597E-2,1.7E1,9.298246E-1,-3.296E0,2.598E1,-8.4543414E-2,2.7740201E-2,1.53562175E-2,6.32501E-2,-4.3908935E-2,-9.2796E-2,1.7367657E-2,-9.0551026E-2,-5.2740186E-2,2.71611E-2,-6.880618E-2,7.273535E-2,8.40958E-2,-7.2561055E-2,8.8057145E-2,-8.6861454E-2,-7.955016E-2,7.165539E-2,-5.7810295E-2,-8.783712E-2,-8.872502E-2,1.7820472E-3,5.810384E-2,-7.103001E-2,-8.523119E-2,7.331485E-2,-8.186405E-2,-1.7244829E-2,6.377882E-4,-9.5896564E-2,-8.601799E-2,2.3353213E-2,-1.2581988E-2,4.7676172E-2,-4.0159125E-2,4.200342E-2,5.829483E-2,-8.030387E-2,4.4716217E-2,8.646261E-2,5.6821484E-2,-8.573116E-2,-6.255387E-2,7.836143E-2,-7.967826E-2,4.2288188E-2,-8.7631665E-2,-3.925315E-2],"split_indices":[1,8,8,0,7,10,5,4,7,4,10,0,5,5,4,0,8,8,0,5,0,5,1,5,10,7,8,5,11,4,1,11,7,10,11,8,4,4,0,5,1,0,10,0,8,1,7,11,11,1,8,0,5,0,0,1,8,4,5,0,0,0,0,0,0,0,0,0,0,0,0,0,0,0,0,0,0,0,0,0,0,0,0,0,0,0,0,0,0,0,0,0,0,0,0,0,0,0,0,0,0,0,0,0,0,0,0],"split_type":[0,0,0,0,0,0,0,0,0,0,0,0,0,0,0,0,0,0,0,0,0,0,0,0,0,0,0,0,0,0,0,0,0,0,0,0,0,0,0,0,0,0,0,0,0,0,0,0,0,0,0,0,0,0,0,0,0,0,0,0,0,0,0,0,0,0,0,0,0,0,0,0,0,0,0,0,0,0,0,0,0,0,0,0,0,0,0,0,0,0,0,0,0,0,0,0,0,0,0,0,0,0,0,0,0,0,0],"sum_hessian":[6.0853306E3,2.1853264E3,3.9000042E3,1.1614033E3,1.02392303E3,3.4062783E3,4.9372583E2,3.5312656E2,8.0827673E2,4.560177E2,5.6790533E2,4.4056717E2,2.9657112E3,1.028006E2,3.9092523E2,2.7070381E1,3.2605618E2,2.904858E2,5.1779095E2,4.4752872E2,8.48899E0,1.0795207E2,4.5995325E2,1.4447343E2,2.9609375E2,8.265147E2,2.1391963E3,6.557182E1,3.7228775E1,6.3866486E1,3.2705875E2,8.08684E1,2.4518779E2,1.7270723E2,1.1777856E2,3.4736954E2,1.7042142E2,1.2632374E1,4.3489633E2,4.0422894E1,6.752918E1,2.8554855E2,1.7440471E2,8.234789E0,1.3623865E2,5.038759E1,2.4570615E2,9.970954E1,7.268052E2,1.94473E3,1.9446637E2,4.570434E1,1.9867481E1,3.5028324E1,2.2004504E0,4.4538063E1,1.9328423E1,2.1669273E1,3.053895E2,1.8186172E1,6.2682228E1,5.158471E1,1.9360307E2,2.9497723E1,1.4320952E2,9.380424E1,2.3974323E1,4.2257088E1,3.0511246E2,1.4414818E2,2.6273249E1,7.974355E0,4.6580186E0,8.42468E0,3.1998213E1,4.9852605E0,6.254392E1,1.4540417E2,1.4014438E2,4.54153E1,1.2898941E2,1.330179E2,3.2207367E0,7.702951E0,4.268464E1,1.8197893E2,6.3727222E1,5.9862503E1,3.984704E1,1.5099277E1,7.117059E2,6.974316E1,1.8749868E3,8.461423E1,1.0985214E2,9.094119E0,1.0773361E1,1.0384932E1,2.4643394E1,1.0204087E1,3.4333977E1,2.448083E0,1.688034E1,1.04994955E1,1.1169779E1,2.742547E2,3.1134792E1],"tree_param":{"num_deleted":"0","num_feature":"12","num_nodes":"107","size_leaf_vector":"1"}},{"base_weights":[1.14382E-2,-5.177305E-1,3.1434965E-1,-1.33393E-1,-1.3496165E0,5.992968E-1,-7.398821E-1,2.1117197E-1,-8.3324695E-1,-1.4556634E0,1.1494496E0,4.0349625E-3,7.8512603E-1,2.5972977E-1,-9.6665615E-1,-3.9642665E-1,6.053852E-1,-1.4419883E0,-4.1674376E-1,1.11990415E-1,-1.5293361E0,8.074119E-2,-7.3371194E-2,-7.678839E-1,2.4922402E-1,8.8247806E-1,2.6623294E-1,6.965172E-1,-8.2495205E-2,-1.3891717E0,-5.657024E-1,-1.0299515E0,3.8989493E-1,-9.022616E-2,7.082761E-1,-1.5739864E0,7.270013E-2,-1.2239667E0,6.752408E-2,-7.989674E-2,1.3451617E0,-1.115725E0,-1.6558084E0,-1.1441439E0,5.4837656E-1,5.1921016E-1,-5.987676E-1,4.7831804E-1,9.859184E-1,-9.493237E-2,3.7336096E-1,1.2086118E0,-3.369481E-2,-1.546546E0,6.479028E-2,-8.5461754E-1,1.0226345E0,-7.1015574E-2,-8.345309E-3,-4.465616E-2,3.2292303E-2,-1.3719915E-2,4.3053534E-2,6.420084E-2,-8.5822664E-2,-7.2229154E-2,5.563754E-2,-8.682382E-2,1.630144E-2,-4.7439456E-2,7.7886425E-2,-8.4522165E-2,-4.3783784E-3,-4.9223386E-2,-8.5843116E-2,-6.592467E-2,5.598563E-2,7.387723E-2,-8.5854195E-2,3.0292023E-2,-9.633143E-2,-5.430699E-2,5.7910454E-2,7.545593E-2,-1.9221103E-3,4.0097464E-2,6.3831165E-2,2.3187228E-2,-9.576041E-2,-7.640348E-2,6.81627E-2,-4.328845E-2,7.443169E-2,-8.6610004E-2,-6.360122E-2,3.7105054E-2,-8.0832586E-2,3.0753884E-2,-5.306661E-2,7.161595E-2,-7.558066E-2],"categories":[],"categories_nodes":[],"categories_segments":[],"categories_sizes":[],"default_left":[0,0,0,0,0,0,0,0,0,0,0,0,0,0,0,0,0,0,0,0,0,0,0,0,0,0,0,0,0,0,0,0,0,0,0,0,0,0,0,0,0,0,0,0,0,0,0,0,0,0,0,0,0,0,0,0,0,0,0,0,0,0,0,0,0,0,0,0,0,0,0,0,0,0,0,0,0,0,0,0,0,0,0,0,0,0,0,0,0,0,0,0,0,0,0,0,0,0,0,0,0],"id":5,"left_children":[1,3,5,7,9,11,13,15,17,19,21,23,25,27,29,31,33,35,37,39,41,-1,-1,43,45,47,49,51,-1,53,55,57,59,-1,61,63,-1,65,67,-1,69,71,73,75,77,79,81,83,85,-1,87,89,91,93,95,97,99,-1,-1,-1,-1,-1,-1,-1,-1,-1,-1,-1,-1,-1,-1,-1,-1,-1,-1,-1,-1,-1,-1,-1,-1,-1,-1,-1,-1,-1,-1,-1,-1,-1,-1,-1,-1,-1,-1,-1,-1,-1,-1,-1,-1],"loss_changes":[9.8519183E2,7.1520465E2,1.1746318E3,3.6949945E2,1.8903052E2,3.4043237E2,1.8888565E2,2.4624643E2,1.2755826E2,7.854761E1,3.809716E1,1.3896078E2,1.1824414E2,1.3015288E2,1.1415485E2,2.0203206E2,1.5583284E2,8.063037E1,1.179554E2,6.83446E1,3.206189E1,0E0,0E0,8.828444E1,1.2788055E2,8.2073364E1,8.6971375E1,4.7371593E1,0E0,7.5533936E1,1.613995E2,7.537343E1,6.0121826E1,0E0,9.0100555E1,8.220776E1,0E0,5.992151E1,8.8898544E1,0E0,1.0636314E1,9.1360825E1,1.8572998E1,5.5933456E1,8.6785065E1,9.083174E1,1.16881386E2,2.1542084E2,8.3002686E1,0E0,7.437092E1,3.3580635E1,6.861136E1,1.2959595E1,3.8961582E1,9.073692E1,5.853334E1,0E0,0E0,0E0,0E0,0E0,0E0,0E0,0E0,0E0,0E0,0E0,0E0,0E0,0E0,0E0,0E0,0E0,0E0,0E0,0E0,0E0,0E0,0E0,0E0,0E0,0E0,0E0,0E0,0E0,0E0,0E0,0E0,0E0,0E0,0E0,0E0,0E0,0E0,0E0,0E0,0E0,0E0,0E0,0E0],"parents":[2147483647,0,0,1,1,2,2,3,3,4,4,5,5,6,6,7,7,8,8,9,9,10,10,11,11,12,12,13,13,14,14,15,15,16,16,17,17,18,18,19,19,20,20,23,23,24,24,25,25,26,26,27,27,29,29,30,30,31,31,32,32,34,34,35,35,37,37,38,38,40,40,41,41,42,42,43,43,44,44,45,45,46,46,47,47,48,48,50,50,51,51,52,52,53,53,54,54,55,55,56,56],"right_children":[2,4,6,8,10,12,14,16,18,20,22,24,26,28,30,32,34,36,38,40,42,-1,-1,44,46,48,50,52,-1,54,56,58,60,-1,62,64,-1,66,68,-1,70,72,74,76,78,80,82,84,86,-1,88,90,92,94,96,98,100,-1,-1,-1,-1,-1,-1,-1,-1,-1,-1,-1,-1,-1,-1,-1,-1,-1,-1,-1,-1,-1,-1,-1,-1,-1,-1,-1,-1,-1,-1,-1,-1,-1,-1,-1,-1,-1,-1,-1,-1,-1,-1,-1,-1],"split_conditions":[1.4E1,2E0,7.4509805E-1,3E-1,3.7266666E-1,1.894E0,1E0,1E1,1.1E1,-1.0087334E1,6.12E-1,6E0,1.3E1,9.354839E-1,2.7E1,1.754386E-1,-5.592E0,1.8243333E0,9E0,6.7142856E-1,8.32E-1,8.074119E-2,-7.3371194E-2,3.3E1,6.95E-1,6E0,1.5E1,8.4E-1,-8.2495205E-2,2.598E1,1.9E1,8E0,1.478E0,-9.022616E-2,8.928572E-2,2.58E-1,7.270013E-2,8.965517E-1,1.037E0,-7.989674E-2,1.0454E1,1.6E1,4E0,7.1435E0,7.51E-1,6.896552E-1,2E1,1E0,2.4E1,-9.493237E-2,3.0945E0,1.568E0,9.298246E-1,2.2E1,9E0,7.7272725E-1,1.2E1,-7.1015574E-2,-8.345309E-3,-4.465616E-2,3.2292303E-2,-1.3719915E-2,4.3053534E-2,6.420084E-2,-8.5822664E-2,-7.2229154E-2,5.563754E-2,-8.682382E-2,1.630144E-2,-4.7439456E-2,7.7886425E-2,-8.4522165E-2,-4.3783784E-3,-4.9223386E-2,-8.5843116E-2,-6.592467E-2,5.598563E-2,7.387723E-2,-8.5854195E-2,3.0292023E-2,-9.633143E-2,-5.430699E-2,5.7910454E-2,7.545593E-2,-1.9221103E-3,4.0097464E-2,6.3831165E-2,2.3187228E-2,-9.576041E-2,-7.640348E-2,6.81627E-2,-4.328845E-2,7.443169E-2,-8.6610004E-2,-6.360122E-2,3.7105054E-2,-8.0832586E-2,3.0753884E-2,-5.306661E-2,7.161595E-2,-7.558066E-2],"split_indices":[1,0,8,8,4,5,0,7,7,4,5,10,7,8,1,8,4,4,1,8,5,0,0,1,9,10,1,8,0,5,10,7,5,0,8,5,0,8,5,0,5,7,1,9,5,8,10,10,1,0,9,5,8,1,10,8,7,0,0,0,0,0,0,0,0,0,0,0,0,0,0,0,0,0,0,0,0,0,0,0,0,0,0,0,0,0,0,0,0,0,0,0,0,0,0,0,0,0,0,0,0],"split_type":[0,0,0,0,0,0,0,0,0,0,0,0,0,0,0,0,0,0,0,0,0,0,0,0,0,0,0,0,0,0,0,0,0,0,0,0,0,0,0,0,0,0,0,0,0,0,0,0,0,0,0,0,0,0,0,0,0,0,0,0,0,0,0,0,0,0,0,0,0,0,0,0,0,0,0,0,0,0,0,0,0,0,0,0,0,0,0,0,0,0,0,0,0,0,0,0,0,0,0,0,0],"sum_hessian":[6.1442456E3,2.2365005E3,3.907745E3,1.53054E3,7.059604E2,3.0766045E3,8.3114044E2,1.0260664E3,5.0447363E2,6.776232E2,2.8337162E1,7.321975E2,2.344407E3,1.5366136E2,6.774791E2,4.0375522E2,6.223112E2,2.03941E2,3.0053262E2,3.0392473E1,6.472308E2,2.4383772E1,3.9533913E0,1.7599324E2,5.562042E2,1.9734567E3,3.709504E2,1.25574234E2,2.8087132E1,3.2866992E2,3.488092E2,2.2343109E2,1.8032413E2,2.4804417E1,5.9750684E2,1.9548726E2,8.453732E0,1.121174E2,1.8841524E2,1.261065E1,1.7781822E1,1.538633E2,4.9336746E2,1.369703E2,3.902293E1,4.2217773E2,1.340265E2,4.0330313E2,1.5701536E3,1.6702257E1,3.5424814E2,7.342585E1,5.2148384E1,2.965123E2,3.215763E1,2.9551718E2,5.3292007E1,1.534012E2,7.0029884E1,2.9576277E1,1.5074785E2,8.029653E1,5.1721027E2,8.90157E0,1.865857E2,1.027941E2,9.323301E0,2.2898489E1,1.6551674E2,1.2142766E0,1.6567545E1,9.828174E1,5.558156E1,4.255563E1,4.5081183E2,1.27563675E2,9.406637E0,2.7919622E1,1.1103308E1,4.0846252E2,1.3715231E1,1.0522084E2,2.8805664E1,1.3402942E2,2.692737E2,9.639119E2,6.0624164E2,3.4155627E2,1.2691885E1,3.4521565E0,6.9973694E1,3.3997383E1,1.8151E1,1.7371921E2,1.22793076E2,2.3321873E1,8.835759E0,3.6196026E1,2.5932117E2,4.6250076E1,7.0419345E0],"tree_param":{"num_deleted":"0","num_feature":"12","num_nodes":"101","size_leaf_vector":"1"}},{"base_weights":[7.143085E-3,-5.4659E-1,3.196563E-1,4.3960647E-3,-1.2381519E0,5.291618E-1,-1.2221156E0,2.689965E-1,-7.973224E-1,-1.43012E0,-7.000387E-1,6.566025E-1,-7.461246E-2,-1.4326042E0,-1.096932E-1,-1.0611475E0,4.27957E-1,4.2922285E-1,-9.868971E-1,-1.4694566E0,7.8072715E-1,-1.423022E0,-1.9364184E-1,2.3740809E-1,7.8563744E-1,-1.2802205E0,3.3313486E-1,-1.495982E0,5.082023E-1,7.321656E-1,-7.930396E-2,-8.2507364E-2,3.9640954E-1,2.2546034E-3,8.597821E-1,1.2173662E0,-7.6312065E-2,-8.5703E-2,-4.9373552E-1,-9.344495E-1,-1.6166295E0,-6.9402814E-2,9.692638E-2,-8.410277E-2,-9.218227E-2,3.9917478E-1,-8.555911E-2,4.5248124E-1,-6.9457E-1,8.627478E-1,8.6966E-2,-1.6293813E0,4.0256068E-1,-1.5750885E-1,1.5443153E0,-1.5664145E0,-6.2920606E-1,-6.90813E-2,6.969679E-2,-7.321842E-2,1.109108E0,5.9248697E-2,-7.992046E-2,1.4561797E-2,-6.922745E-2,-7.8441955E-2,4.520262E-2,-6.5149054E-2,7.690921E-2,3.173139E-2,-5.0100118E-2,8.023953E-2,-5.5107214E-2,-8.351486E-2,-6.0414284E-2,7.748988E-2,-7.951907E-2,3.2292955E-2,-8.124291E-2,-4.008044E-2,3.210015E-2,-6.1634343E-2,4.4583675E-2,3.666452E-2,6.062112E-2,6.174627E-2,-5.8753517E-2,-9.300564E-2,3.3816624E-2,8.0211565E-2,-7.770025E-2,-9.4516076E-2,1.1252E-2,8.243037E-2,-8.59328E-2,-4.9651917E-2,-8.26484E-2,7.374125E-2,-7.827469E-2,-7.389542E-2,7.2794326E-2],"categories":[],"categories_nodes":[],"categories_segments":[],"categories_sizes":[],"default_left":[0,0,0,0,0,0,0,0,0,0,0,0,0,0,0,0,0,0,0,0,0,0,0,0,0,0,0,0,0,0,0,0,0,0,0,0,0,0,0,0,0,0,0,0,0,0,0,0,0,0,0,0,0,0,0,0,0,0,0,0,0,0,0,0,0,0,0,0,0,0,0,0,0,0,0,0,0,0,0,0,0,0,0,0,0,0,0,0,0,0,0,0,0,0,0,0,0,0,0,0,0],"id":6,"left_children":[1,3,5,7,9,11,13,15,17,19,21,23,25,27,29,31,33,35,37,39,41,43,45,47,49,51,53,55,57,59,-1,-1,61,63,65,67,-1,-1,69,71,73,-1,-1,-1,75,77,-1,79,81,83,85,87,89,91,93,95,97,-1,-1,-1,99,-1,-1,-1,-1,-1,-1,-1,-1,-1,-1,-1,-1,-1,-1,-1,-1,-1,-1,-1,-1,-1,-1,-1,-1,-1,-1,-1,-1,-1,-1,-1,-1,-1,-1,-1,-1,-1,-1,-1,-1],"loss_changes":[1.0445709E3,8.297964E2,1.2470028E3,2.5754086E2,9.875244E1,2.61484E2,1.07998535E2,1.9345105E2,7.047278E1,6.2963013E1,9.340312E1,1.5157068E2,2.9196725E2,4.8526062E1,9.3853E1,8.455115E1,1.5001126E2,6.508684E1,9.283394E1,5.3505127E1,3.5531822E1,3.6124207E1,1.3709492E2,1.3296347E2,1.1547693E2,8.884485E1,2.640769E2,2.1987305E1,2.3730574E1,4.1514397E1,0E0,0E0,4.7404724E1,1.6549231E2,4.4973785E1,2.6097263E1,0E0,0E0,9.0715225E1,6.6965485E1,9.960449E0,0E0,0E0,0E0,4.7247505E1,5.58964E1,0E0,1.284563E2,1.0735211E2,8.6547E1,3.1192352E2,6.7492065E1,6.501776E1,2.104805E2,4.6423187E1,1.559668E1,6.1311363E1,0E0,0E0,0E0,3.955337E1,0E0,0E0,0E0,0E0,0E0,0E0,0E0,0E0,0E0,0E0,0E0,0E0,0E0,0E0,0E0,0E0,0E0,0E0,0E0,0E0,0E0,0E0,0E0,0E0,0E0,0E0,0E0,0E0,0E0,0E0,0E0,0E0,0E0,0E0,0E0,0E0,0E0,0E0,0E0,0E0],"parents":[2147483647,0,0,1,1,2,2,3,3,4,4,5,5,6,6,7,7,8,8,9,9,10,10,11,11,12,12,13,13,14,14,15,15,16,16,17,17,18,18,19,19,20,20,21,21,22,22,23,23,24,24,25,25,26,26,27,27,28,28,29,29,32,32,33,33,34,34,35,35,38,38,39,39,40,40,44,44,45,45,47,47,48,48,49,49,50,50,51,51,52,52,53,53,54,54,55,55,56,56,60,60],"right_children":[2,4,6,8,10,12,14,16,18,20,22,24,26,28,30,32,34,36,38,40,42,44,46,48,50,52,54,56,58,60,-1,-1,62,64,66,68,-1,-1,70,72,74,-1,-1,-1,76,78,-1,80,82,84,86,88,90,92,94,96,98,-1,-1,-1,100,-1,-1,-1,-1,-1,-1,-1,-1,-1,-1,-1,-1,-1,-1,-1,-1,-1,-1,-1,-1,-1,-1,-1,-1,-1,-1,-1,-1,-1,-1,-1,-1,-1,-1,-1,-1,-1,-1,-1,-1],"split_conditions":[1.96E2,3E-1,8.4210527E-1,4.733772E0,1.44E2,9.031555E0,1.9739E1,8.928572E-2,5.7142857E-2,1.1510233E2,1.2E1,1.894E0,1.8761494E1,2.401E3,2.7644E1,1.7E1,9.916433E1,9.031555E0,8.1E1,6E0,1.339E0,1.8E1,1.7E1,6.95E-1,7.4509805E-1,1.521E3,8.177267E1,2.1E1,9.4572334E1,5.573E0,-7.930396E-2,-8.2507364E-2,9.220966E1,2.507E0,1.6E1,1.109E0,-7.6312065E-2,-8.5703E-2,5.9E-1,2.64E-1,8.181818E-1,-6.9402814E-2,9.692638E-2,-8.410277E-2,1E0,1.018E0,-8.555911E-2,5E0,2E1,9.778E1,7.905133E1,7.1435E0,6.315789E-1,3.6363637E-1,6E0,2.89E2,8.23E-1,-6.90813E-2,6.969679E-2,-7.321842E-2,3.61E2,5.9248697E-2,-7.992046E-2,1.4561797E-2,-6.922745E-2,-7.8441955E-2,4.520262E-2,-6.5149054E-2,7.690921E-2,3.173139E-2,-5.0100118E-2,8.023953E-2,-5.5107214E-2,-8.351486E-2,-6.0414284E-2,7.748988E-2,-7.951907E-2,3.2292955E-2,-8.124291E-2,-4.008044E-2,3.210015E-2,-6.1634343E-2,4.4583675E-2,3.666452E-2,6.062112E-2,6.174627E-2,-5.8753517E-2,-9.300564E-2,3.3816624E-2,8.0211565E-2,-7.770025E-2,-9.4516076E-2,1.1252E-2,8.243037E-2,-8.59328E-2,-4.9651917E-2,-8.26484E-2,7.374125E-2,-7.827469E-2,-7.389542E-2,7.2794326E-2],"split_indices":[2,8,8,11,2,11,6,8,8,3,10,5,11,2,6,7,3,11,2,10,9,7,10,9,8,2,3,10,3,5,0,0,3,6,2,6,0,0,6,6,8,0,0,0,10,9,0,10,10,3,3,9,8,8,10,2,6,0,0,0,2,0,0,0,0,0,0,0,0,0,0,0,0,0,0,0,0,0,0,0,0,0,0,0,0,0,0,0,0,0,0,0,0,0,0,0,0,0,0,0,0],"split_type":[0,0,0,0,0,0,0,0,0,0,0,0,0,0,0,0,0,0,0,0,0,0,0,0,0,0,0,0,0,0,0,0,0,0,0,0,0,0,0,0,0,0,0,0,0,0,0,0,0,0,0,0,0,0,0,0,0,0,0,0,0,0,0,0,0,0,0,0,0,0,0,0,0,0,0,0,0,0,0,0,0,0,0,0,0,0,0,0,0,0,0,0,0,0,0,0,0,0,0,0,0],"sum_hessian":[6.0342666E3,2.176695E3,3.8575715E3,1.2120309E3,9.646641E2,3.396668E3,4.6090347E2,9.117725E2,3.002584E2,7.097929E2,2.5487125E2,2.8046033E3,5.920647E2,3.8732703E2,7.357647E1,9.6725006E1,8.1504755E2,4.002609E1,2.602323E2,6.977141E2,1.2078772E1,1.04239006E2,1.5063225E2,6.607786E2,2.1438247E3,1.490932E2,4.429715E2,3.7530063E2,1.2026393E1,4.7178574E1,2.6397892E1,6.87934E1,2.7931597E1,4.1093967E2,4.0410788E2,2.8797007E1,1.1229084E1,1.04165474E2,1.5606683E2,1.521098E2,5.456043E2,4.134738E0,7.9440336E0,8.703474E1,1.720427E1,1.0884835E2,4.1783894E1,5.3730005E2,1.2347856E2,1.9305236E3,2.1330121E2,1.234999E2,2.5593304E1,3.158799E2,1.2709156E2,3.4634976E2,2.8950853E1,3.6591823E0,8.36721E0,6.4877915E0,4.069078E1,2.0309212E1,7.6223855E0,3.4072882E2,7.021088E1,6.6179204E0,3.9748996E2,2.9060018E0,2.5891005E1,4.839043E1,1.076764E2,8.892316E0,1.4321748E2,4.794948E2,6.6109505E1,8.191833E0,9.012436E0,9.76303E1,1.1218044E1,7.011437E1,4.6718567E2,9.236692E1,3.1111645E1,1.4111726E3,5.19351E2,1.1171015E2,1.0159106E2,1.1244123E2,1.1058667E1,1.5966922E1,9.626381E0,5.6411983E1,2.5946796E2,1.2363467E2,3.4568932E0,4.706163E1,2.9928815E2,8.738489E0,2.0212364E1,4.4241543E0,3.626663E1],"tree_param":{"num_deleted":"0","num_feature":"12","num_nodes":"101","size_leaf_vector":"1"}},{"base_weights":[2.2884768E-2,-4.8201293E-1,3.090519E-1,1.1860039E-2,-1.0898705E0,5.042201E-1,-8.305729E-1,-3.8864943E-1,5.321559E-1,-6.0256384E-2,-1.2840726E0,1.5956576E-1,7.0200497E-1,-1.0268824E0,1.9275837E-1,-2.3209183E-1,-8.727035E-2,-6.352195E-1,6.587322E-1,-9.333699E-1,9.156791E-1,-1.3134035E0,6.345912E-2,-6.118041E-1,3.6856973E-1,5.5868953E-1,9.5897204E-1,2.9942924E-2,-1.2046374E0,9.549414E-1,-7.767104E-2,-1.0140314E0,-7.7164555E-3,3.7029144E-1,-8.734976E-2,-1.7295629E-2,9.004177E-1,7.738253E-2,-1.2096947E0,-7.754537E-2,1.2137494E0,-1.3719118E0,-1.7384468E-1,-9.5894617E-1,2.642159E-1,5.7331574E-1,-2.7167743E-1,2.3056532E-1,8.500282E-1,2.5113794E-1,1.1167059E0,-7.7204384E-2,6.265778E-1,-2.4151075E-1,-1.4387579E0,-7.163493E-2,1.1920543E0,-2.3408525E-2,-8.096148E-2,-8.399665E-2,7.364664E-3,-7.783766E-2,4.7360353E-2,4.7825497E-2,-2.4269028E-2,-7.8587145E-2,4.7868207E-2,-7.9707466E-2,-1.126298E-2,-6.593793E-2,6.837704E-2,-7.450262E-2,-3.966757E-2,-8.176746E-2,6.444801E-2,-6.0803104E-2,5.8790267E-2,-8.477768E-2,3.5291746E-2,6.3648946E-3,4.1402426E-2,-5.7765823E-2,3.2430038E-2,-5.653019E-2,2.7334321E-2,-1.13522755E-2,5.0855078E-2,4.678238E-2,-2.0283652E-2,5.9899557E-2,2.2721753E-2,-7.452457E-2,6.478787E-2,1.632124E-2,-7.853403E-2,-7.589651E-2,-2.9312748E-2,7.2268546E-2,-6.716475E-2],"categories":[],"categories_nodes":[],"categories_segments":[],"categories_sizes":[],"default_left":[0,0,0,0,0,0,0,0,0,0,0,0,0,0,0,0,0,0,0,0,0,0,0,0,0,0,0,0,0,0,0,0,0,0,0,0,0,0,0,0,0,0,0,0,0,0,0,0,0,0,0,0,0,0,0,0,0,0,0,0,0,0,0,0,0,0,0,0,0,0,0,0,0,0,0,0,0,0,0,0,0,0,0,0,0,0,0,0,0,0,0,0,0,0,0,0,0,0,0],"id":7,"left_children":[1,3,5,7,9,11,13,15,17,19,21,23,25,27,29,31,-1,33,35,37,39,41,-1,43,45,47,49,51,53,55,-1,57,59,61,-1,63,65,-1,67,-1,69,71,73,75,77,79,81,83,85,87,89,-1,91,93,95,-1,97,-1,-1,-1,-1,-1,-1,-1,-1,-1,-1,-1,-1,-1,-1,-1,-1,-1,-1,-1,-1,-1,-1,-1,-1,-1,-1,-1,-1,-1,-1,-1,-1,-1,-1,-1,-1,-1,-1,-1,-1,-1,-1],"loss_changes":[8.7955414E2,6.611137E2,8.6458325E2,2.5359927E2,1.9731213E2,2.2605627E2,1.1439819E2,1.4566277E2,7.863254E1,1.3523146E2,6.386084E1,1.9546977E2,7.708826E1,8.966791E1,1.2438145E2,1.0836269E2,0E0,5.910025E1,7.8120026E1,5.9274788E1,5.7001747E1,5.4536133E1,0E0,7.8881325E1,1.2514697E2,1.2938531E2,8.382147E1,6.639895E1,9.175464E1,3.845158E1,0E0,4.4736496E1,1.2491814E2,3.291627E1,0E0,5.8296864E1,5.1082245E1,0E0,2.8366966E1,0E0,2.8073051E1,5.2219116E1,9.0328804E1,1.03187836E2,6.5383804E1,8.201311E1,1.8917766E2,2.7552658E2,1.2936963E2,6.2674915E1,3.260089E1,0E0,7.451433E1,6.171501E1,2.127417E1,0E0,4.0209763E1,0E0,0E0,0E0,0E0,0E0,0E0,0E0,0E0,0E0,0E0,0E0,0E0,0E0,0E0,0E0,0E0,0E0,0E0,0E0,0E0,0E0,0E0,0E0,0E0,0E0,0E0,0E0,0E0,0E0,0E0,0E0,0E0,0E0,0E0,0E0,0E0,0E0,0E0,0E0,0E0,0E0,0E0],"parents":[2147483647,0,0,1,1,2,2,3,3,4,4,5,5,6,6,7,7,8,8,9,9,10,10,11,11,12,12,13,13,14,14,15,15,17,17,18,18,19,19,20,20,21,21,23,23,24,24,25,25,26,26,27,27,28,28,29,29,31,31,32,32,33,33,35,35,36,36,38,38,40,40,41,41,42,42,43,43,44,44,45,45,46,46,47,47,48,48,49,49,50,50,52,52,53,53,54,54,56,56],"right_children":[2,4,6,8,10,12,14,16,18,20,22,24,26,28,30,32,-1,34,36,38,40,42,-1,44,46,48,50,52,54,56,-1,58,60,62,-1,64,66,-1,68,-1,70,72,74,76,78,80,82,84,86,88,90,-1,92,94,96,-1,98,-1,-1,-1,-1,-1,-1,-1,-1,-1,-1,-1,-1,-1,-1,-1,-1,-1,-1,-1,-1,-1,-1,-1,-1,-1,-1,-1,-1,-1,-1,-1,-1,-1,-1,-1,-1,-1,-1,-1,-1,-1,-1],"split_conditions":[1.4E1,3E-1,8.214286E-1,9.889367E1,-7.836E0,2.658E0,1.9739E1,3.472E0,-3.5136666E0,8.912067E1,1.8243333E0,6E0,1.5E1,-7.996333E0,2.7644E1,1.0344828E-1,-8.727035E-2,4E0,1.3207547E-1,2.58E-1,4.3137255E-1,1.1251667E2,6.345912E-2,6.202E0,6.95E-1,2.4E1,7.4043475E-2,-1.1287666E1,9.9E-1,8.965517E-1,-7.767104E-2,7.73E-1,-5.592E0,8.89E-1,-8.734976E-2,1.98E-1,6E0,7.738253E-2,9.82E-1,-7.754537E-2,7E0,8.039216E-1,5.976E0,1.8243333E0,8.4294334E1,6.9625E-2,-1.6653334E0,8.062E1,5E0,4.5833334E-1,3.4525E0,-7.7204384E-2,9E0,7.8363635E-2,2.598E1,-7.163493E-2,9.607843E-1,-2.3408525E-2,-8.096148E-2,-8.399665E-2,7.364664E-3,-7.783766E-2,4.7360353E-2,4.7825497E-2,-2.4269028E-2,-7.8587145E-2,4.7868207E-2,-7.9707466E-2,-1.126298E-2,-6.593793E-2,6.837704E-2,-7.450262E-2,-3.966757E-2,-8.176746E-2,6.444801E-2,-6.0803104E-2,5.8790267E-2,-8.477768E-2,3.5291746E-2,6.3648946E-3,4.1402426E-2,-5.7765823E-2,3.2430038E-2,-5.653019E-2,2.7334321E-2,-1.13522755E-2,5.0855078E-2,4.678238E-2,-2.0283652E-2,5.9899557E-2,2.2721753E-2,-7.452457E-2,6.478787E-2,1.632124E-2,-7.853403E-2,-7.589651E-2,-2.9312748E-2,7.2268546E-2,-6.716475E-2],"split_indices":[1,8,8,3,4,5,6,5,4,3,4,10,10,4,6,8,0,10,8,5,8,3,0,6,9,1,9,4,5,8,0,5,4,5,0,9,1,0,9,0,1,8,6,4,3,9,4,3,10,8,9,0,10,9,5,0,8,0,0,0,0,0,0,0,0,0,0,0,0,0,0,0,0,0,0,0,0,0,0,0,0,0,0,0,0,0,0,0,0,0,0,0,0,0,0,0,0,0,0],"split_type":[0,0,0,0,0,0,0,0,0,0,0,0,0,0,0,0,0,0,0,0,0,0,0,0,0,0,0,0,0,0,0,0,0,0,0,0,0,0,0,0,0,0,0,0,0,0,0,0,0,0,0,0,0,0,0,0,0,0,0,0,0,0,0,0,0,0,0,0,0,0,0,0,0,0,0,0,0,0,0,0,0,0,0,0,0,0,0,0,0,0,0,0,0,0,0,0,0,0,0],"sum_hessian":[6.085476E3,2.2011692E3,3.8843071E3,1.2149915E3,9.8617755E2,3.316835E3,5.674722E2,6.8666705E2,5.2832446E2,1.5670027E2,8.294773E2,1.2100472E3,2.1067876E3,4.7613077E2,9.134148E1,6.166789E2,6.998813E1,5.128842E1,4.7703604E2,8.273006E1,7.397022E1,8.2053687E2,8.9404335E0,2.5755673E2,9.5249054E2,1.35452E3,7.5226764E2,6.867305E1,4.074577E2,6.3902184E1,2.7439293E1,1.3671455E2,4.7996436E2,2.7281473E1,2.4006948E1,1.2587492E2,3.5116113E2,7.8296485E0,7.4900406E1,7.5219073E0,6.644831E1,7.8027155E2,4.0265293E1,1.8439252E2,7.3164215E1,7.217766E2,2.3071393E2,6.378848E2,7.1663525E2,1.3755928E2,6.147083E2,1.8439177E1,5.0233875E1,8.007524E1,3.2738248E2,5.31724E0,5.858494E1,7.281361E1,6.3900948E1,3.9882427E1,4.400819E2,5.8943706E0,2.1387102E1,4.0524387E1,8.535053E1,7.307946E0,3.4385318E2,5.341912E1,2.1481287E1,3.3705108E0,6.30778E1,6.466515E2,1.3362004E2,2.0082596E1,2.01827E1,1.6495517E2,1.943735E1,1.2932841E1,6.0231373E1,2.6292123E2,4.588554E2,1.1756967E2,1.1314426E2,1.197374E2,5.1814746E2,9.618693E1,6.204483E2,6.715144E1,7.0407845E1,5.4678815E2,6.79202E1,1.1770009E1,3.8463863E1,5.6631718E1,2.3443523E1,2.9884784E2,2.853463E1,5.3654068E1,4.9308763E0],"tree_param":{"num_deleted":"0","num_feature":"12","num_nodes":"99","size_leaf_vector":"1"}},{"base_weights":[-8.085498E-3,-5.7573456E-1,2.150481E-1,-9.1395475E-2,-1.1010047E0,3.771244E-1,-9.7591025E-1,-5.458293E-1,5.2008814E-1,6.113188E-1,-1.210625E0,-2.0469025E-1,5.162841E-1,-1.1680886E0,1.1884227E-2,-8.167167E-2,-1.2999201E0,-6.426617E-1,9.3275446E-1,1.3779123E0,-7.3080234E-2,-1.4610732E0,-7.371756E-1,8.7194216E-1,-3.8771927E-1,3.0380443E-1,8.3943915E-1,-1.3828824E0,-6.5712875E-1,7.992971E-1,-7.607291E-2,-1.0413994E0,2.53726E-1,-9.470431E-1,-8.834382E-2,7.342364E-1,-1.0455965E0,-8.361506E-2,1.0605127E0,1.0437778E0,8.436813E-2,-1.5131611E0,6.527565E-2,-7.893064E-2,-3.399854E-1,-8.1332736E-2,1.0294132E0,-9.5881246E-2,-2.812713E-1,1.8348433E-1,1.1144799E0,3.9557016E-1,1.017676E0,-4.9499318E-2,-7.8036E-2,5.801671E-1,-1.234043E0,-7.283339E-2,1.1303272E0,-6.763778E-2,4.8627645E-2,-8.126809E-2,2.2985516E-2,-5.855612E-2,6.870551E-2,-6.527059E-2,5.7735275E-2,-8.8204056E-2,2.9633299E-2,-6.819882E-2,5.519603E-2,-6.6635005E-2,7.433058E-2,-2.9145345E-2,-7.882338E-2,-5.882705E-2,5.814607E-3,5.5627923E-2,-7.151395E-2,-4.4559713E-2,5.673563E-4,5.5911493E-2,4.067285E-3,-8.624556E-2,5.976693E-2,-5.3670913E-2,3.654499E-2,5.4945674E-2,-1.980628E-2,-7.503299E-2,4.533073E-2,6.0629696E-2,-7.084744E-2,-7.851934E-2,2.9997963E-2,6.529073E-2,-5.9493583E-2],"categories":[],"categories_nodes":[],"categories_segments":[],"categories_sizes":[],"default_left":[0,0,0,0,0,0,0,0,0,0,0,0,0,0,0,0,0,0,0,0,0,0,0,0,0,0,0,0,0,0,0,0,0,0,0,0,0,0,0,0,0,0,0,0,0,0,0,0,0,0,0,0,0,0,0,0,0,0,0,0,0,0,0,0,0,0,0,0,0,0,0,0,0,0,0,0,0,0,0,0,0,0,0,0,0,0,0,0,0,0,0,0,0,0,0,0,0],"id":8,"left_children":[1,3,5,7,9,11,13,15,17,19,21,23,25,27,29,31,33,35,37,39,-1,41,43,45,47,49,51,53,55,57,-1,59,61,63,-1,65,67,-1,69,71,-1,73,-1,-1,75,-1,77,-1,79,81,83,85,87,89,-1,91,93,-1,95,-1,-1,-1,-1,-1,-1,-1,-1,-1,-1,-1,-1,-1,-1,-1,-1,-1,-1,-1,-1,-1,-1,-1,-1,-1,-1,-1,-1,-1,-1,-1,-1,-1,-1,-1,-1,-1,-1],"loss_changes":[7.511206E2,4.255996E2,8.220548E2,2.4249838E2,1.5139917E2,3.0353644E2,9.686606E1,1.7508759E2,1.7915569E2,7.9810135E1,8.840881E1,1.4302109E2,2.0742542E2,4.5967346E1,1.0273702E2,1.0033761E2,2.973944E1,5.5175365E1,9.3317795E1,1.9873886E0,0E0,7.295654E1,8.739952E1,4.319062E1,1.0035941E2,1.7793799E2,9.447467E1,7.101288E1,9.230803E1,4.3624195E1,0E0,5.1923813E1,9.0230286E1,5.920604E1,0E0,2.1051247E1,9.0830154E1,0E0,2.916452E1,2.308541E1,0E0,2.7580078E1,0E0,0E0,6.884972E1,0E0,2.2016457E1,0E0,1.0360201E2,1.5185591E2,5.6207245E1,1.7084242E2,9.8638E1,5.174333E1,0E0,5.4113262E1,5.512059E1,0E0,2.1741432E1,0E0,0E0,0E0,0E0,0E0,0E0,0E0,0E0,0E0,0E0,0E0,0E0,0E0,0E0,0E0,0E0,0E0,0E0,0E0,0E0,0E0,0E0,0E0,0E0,0E0,0E0,0E0,0E0,0E0,0E0,0E0,0E0,0E0,0E0,0E0,0E0,0E0,0E0],"parents":[2147483647,0,0,1,1,2,2,3,3,4,4,5,5,6,6,7,7,8,8,9,9,10,10,11,11,12,12,13,13,14,14,15,15,16,16,17,17,18,18,19,19,21,21,22,22,23,23,24,24,25,25,26,26,27,27,28,28,29,29,31,31,32,32,33,33,35,35,36,36,38,38,39,39,41,41,44,44,46,46,48,48,49,49,50,50,51,51,52,52,53,53,55,55,56,56,58,58],"right_children":[2,4,6,8,10,12,14,16,18,20,22,24,26,28,30,32,34,36,38,40,-1,42,44,46,48,50,52,54,56,58,-1,60,62,64,-1,66,68,-1,70,72,-1,74,-1,-1,76,-1,78,-1,80,82,84,86,88,90,-1,92,94,-1,96,-1,-1,-1,-1,-1,-1,-1,-1,-1,-1,-1,-1,-1,-1,-1,-1,-1,-1,-1,-1,-1,-1,-1,-1,-1,-1,-1,-1,-1,-1,-1,-1,-1,-1,-1,-1,-1,-1],"split_conditions":[1.44E2,2.5490198E-1,8.4210527E-1,1.0027966E2,-1.0087334E1,1.456E0,1.9739E1,1.109E0,1.3207547E-1,1E0,1.5E1,7.660067E1,1.5E1,9.277E0,2.7644E1,6.12E-1,-2.2246666E0,4.68E-1,-3.4506667E0,-1.0624E1,-7.3080234E-2,1.8243333E0,4.9E1,7.095E1,7.8038666E1,1.9033334E-1,8.649733E1,5.22E-1,1.1316E1,3.61E2,-7.607291E-2,1.9E1,7E0,-2.265E0,-8.834382E-2,8.450704E-2,3.121E0,-8.361506E-2,3.6E1,3.0036E1,8.436813E-2,4.52E-1,6.527565E-2,-7.893064E-2,-6.159E0,-8.1332736E-2,1.234E0,-9.5881246E-2,2.56E2,1E0,2.255E0,3.24E2,7.4E-1,1.5E1,-7.8036E-2,3.876E0,1.6E1,-7.283339E-2,9.607843E-1,-6.763778E-2,4.8627645E-2,-8.126809E-2,2.2985516E-2,-5.855612E-2,6.870551E-2,-6.527059E-2,5.7735275E-2,-8.8204056E-2,2.9633299E-2,-6.819882E-2,5.519603E-2,-6.6635005E-2,7.433058E-2,-2.9145345E-2,-7.882338E-2,-5.882705E-2,5.814607E-3,5.5627923E-2,-7.151395E-2,-4.4559713E-2,5.673563E-4,5.5911493E-2,4.067285E-3,-8.624556E-2,5.976693E-2,-5.3670913E-2,3.654499E-2,5.4945674E-2,-1.980628E-2,-7.503299E-2,4.533073E-2,6.0629696E-2,-7.084744E-2,-7.851934E-2,2.9997963E-2,6.529073E-2,-5.9493583E-2],"split_indices":[2,8,8,3,4,5,6,5,8,10,7,3,10,5,6,5,4,6,4,4,0,4,2,3,3,4,3,6,5,2,0,7,7,4,0,8,5,0,2,5,0,5,0,0,4,0,5,0,2,10,5,2,8,7,0,6,7,0,8,0,0,0,0,0,0,0,0,0,0,0,0,0,0,0,0,0,0,0,0,0,0,0,0,0,0,0,0,0,0,0,0,0,0,0,0,0,0],"split_type":[0,0,0,0,0,0,0,0,0,0,0,0,0,0,0,0,0,0,0,0,0,0,0,0,0,0,0,0,0,0,0,0,0,0,0,0,0,0,0,0,0,0,0,0,0,0,0,0,0,0,0,0,0,0,0,0,0,0,0,0,0,0,0,0,0,0,0,0,0,0,0,0,0,0,0,0,0,0,0,0,0,0,0,0,0,0,0,0,0,0,0,0,0,0,0,0,0],"sum_hessian":[5.92816E3,1.6722914E3,4.2558687E3,8.706551E2,8.016363E2,3.7466714E3,5.091973E2,4.995293E2,3.711258E2,4.795644E1,7.536799E2,7.230772E2,3.023594E3,4.261132E2,8.30841E1,3.0989264E2,1.8963667E2,9.7067116E1,2.740587E2,3.5254253E1,1.2702189E1,4.9156366E2,2.621162E2,1.0451634E2,6.1856085E2,1.8253422E3,1.1982518E3,2.9879947E2,1.2731373E2,5.5210655E1,2.7873446E1,7.970755E1,2.3018509E2,1.09737E2,7.989967E1,2.1788797E1,7.527832E1,1.2246982E1,2.618117E2,1.9053694E1,1.620056E1,4.8292447E2,8.639198E0,8.309888E1,1.7901732E2,5.6433487E0,9.887299E1,3.9131744E1,5.7942914E2,1.5905062E3,2.3483592E2,3.4422827E2,8.540236E2,3.5312603E1,2.6348688E2,4.048365E1,8.683008E1,6.6296043E0,4.858105E1,6.9319145E1,1.0388405E1,2.2059256E1,2.0812582E2,1.0052772E2,9.209279E0,3.3643007E0,1.8424496E1,5.227537E1,2.3002947E1,4.069905E0,2.577418E2,2.6771615E0,1.6376532E1,3.1420813E1,4.5150366E2,6.2623177E1,1.1639414E2,9.616984E1,2.7031531E0,1.8719704E2,3.922321E2,1.556934E2,1.4348129E3,5.939378E0,2.2889655E2,6.3565212E1,2.8066306E2,8.0782825E2,4.6195362E1,1.3799144E1,2.1513458E1,3.1045343E1,9.438305E0,7.349528E1,1.3334801E1,4.5571472E1,3.0095806E0],"tree_param":{"num_deleted":"0","num_feature":"12","num_nodes":"97","size_leaf_vector":"1"}},{"base_weights":[1.3899485E-2,-5.09565E-1,2.921829E-1,-1.0246067E0,-1.8230948E-1,-1.271668E-1,4.2407817E-1,7.682623E-2,-1.176407E0,7.8023665E-2,-9.0595603E-1,-2.4488696E-1,1.1813639E0,6.514006E-1,1.2000489E-1,1.1901212E0,-9.4073886E-1,-1.3845063E0,-6.130388E-1,-7.928053E-2,2.2470312E-1,2.3363551E-1,-1.1611079E0,-1.1616156E0,-5.212643E-2,-6.2321108E-2,1.307248E0,4.7144645E-1,9.903789E-1,-8.481621E-1,3.3415422E-1,1.3088014E0,-6.1850358E-2,-7.529547E-2,1.0172406E0,-1.490105E0,-8.9728975E-1,-7.870276E-2,-1.4212434E-1,-5.7936877E-1,5.3022987E-1,-7.526223E-2,8.938978E-1,-1.3972547E0,-5.0854254E-1,-8.441334E-2,-4.0627998E-1,-1.244416E0,1.2119027E-1,-5.688235E-2,1.3880098E0,-2.7599514E-1,6.656249E-1,-7.896185E-2,1.01426E0,-8.454096E-2,-4.1732547E-1,6.1934257E-1,-1.1096103E-1,7.1282566E-2,-5.3961255E-2,-5.9383523E-2,9.3513936E-2,-5.2399863E-2,-7.797867E-2,-7.722467E-2,2.8190283E-2,1.5110872E-2,-8.443908E-2,-8.265766E-2,-8.797799E-3,-8.4851265E-2,2.93539E-2,6.599299E-2,-6.8524376E-2,-7.546433E-2,2.4637027E-2,1.9897176E-2,-7.8281075E-2,-5.439652E-2,6.1256822E-2,2.171288E-3,-9.23051E-2,2.3960551E-2,-1.4494357E-2,3.889195E-2,7.403927E-2,2.3758331E-2,-3.648572E-2,6.0392492E-3,4.1010845E-2,5.1780082E-2,-8.539762E-2,-4.177719E-2,1.642145E-2,-8.950439E-2,3.3183005E-2,2.636866E-2,-2.9032921E-2],"categories":[],"categories_nodes":[],"categories_segments":[],"categories_sizes":[],"default_left":[0,0,0,0,0,0,0,0,0,0,0,0,0,0,0,0,0,0,0,0,0,0,0,0,0,0,0,0,0,0,0,0,0,0,0,0,0,0,0,0,0,0,0,0,0,0,0,0,0,0,0,0,0,0,0,0,0,0,0,0,0,0,0,0,0,0,0,0,0,0,0,0,0,0,0,0,0,0,0,0,0,0,0,0,0,0,0,0,0,0,0,0,0,0,0,0,0,0,0],"id":9,"left_children":[1,3,5,7,9,11,13,15,17,19,21,23,25,27,29,31,33,35,37,-1,39,41,43,45,47,-1,49,51,53,55,57,59,-1,-1,61,63,65,-1,67,69,71,-1,73,75,77,-1,79,81,83,-1,85,87,89,-1,91,-1,93,95,97,-1,-1,-1,-1,-1,-1,-1,-1,-1,-1,-1,-1,-1,-1,-1,-1,-1,-1,-1,-1,-1,-1,-1,-1,-1,-1,-1,-1,-1,-1,-1,-1,-1,-1,-1,-1,-1,-1,-1,-1],"loss_changes":[8.639109E2,3.4676984E2,2.1421753E2,1.3377484E2,2.374257E2,1.431195E2,2.0354474E2,1.1189729E2,8.154175E1,2.2668585E2,9.721887E1,1.5041115E2,2.5071396E1,1.02344604E2,2.6181216E2,1.51972885E1,5.8685635E1,2.5026123E1,8.6379135E1,0E0,2.0991544E2,7.2330605E1,4.129602E1,5.814647E1,1.457576E2,0E0,1.6074211E1,1.602499E2,3.7411865E1,8.234366E1,1.312811E2,1.4214493E1,0E0,0E0,2.5103561E1,1.1253052E1,8.956034E1,0E0,8.952897E1,1.01684814E2,7.934755E1,0E0,4.5637093E1,4.3003967E1,7.153614E1,0E0,7.036194E1,6.944472E1,9.0814476E1,0E0,2.8964996E0,7.8099365E1,7.366144E1,0E0,3.5394592E1,0E0,4.7897575E1,6.8475586E1,1.2158273E2,0E0,0E0,0E0,0E0,0E0,0E0,0E0,0E0,0E0,0E0,0E0,0E0,0E0,0E0,0E0,0E0,0E0,0E0,0E0,0E0,0E0,0E0,0E0,0E0,0E0,0E0,0E0,0E0,0E0,0E0,0E0,0E0,0E0,0E0,0E0,0E0,0E0,0E0,0E0,0E0],"parents":[2147483647,0,0,1,1,2,2,3,3,4,4,5,5,6,6,7,7,8,8,9,9,10,10,11,11,12,12,13,13,14,14,15,15,16,16,17,17,18,18,20,20,21,21,22,22,23,23,24,24,26,26,27,27,28,28,29,29,30,30,31,31,34,34,35,35,36,36,38,38,39,39,40,40,42,42,43,43,44,44,46,46,47,47,48,48,50,50,51,51,52,52,54,54,56,56,57,57,58,58],"right_children":[2,4,6,8,10,12,14,16,18,20,22,24,26,28,30,32,34,36,38,-1,40,42,44,46,48,-1,50,52,54,56,58,60,-1,-1,62,64,66,-1,68,70,72,-1,74,76,78,-1,80,82,84,-1,86,88,90,-1,92,-1,94,96,98,-1,-1,-1,-1,-1,-1,-1,-1,-1,-1,-1,-1,-1,-1,-1,-1,-1,-1,-1,-1,-1,-1,-1,-1,-1,-1,-1,-1,-1,-1,-1,-1,-1,-1,-1,-1,-1,-1,-1,-1],"split_conditions":[1.96E2,-4.019E0,1.0157894E-2,1E0,4.733772E0,1.0756533E2,6.95E-1,-8.847333E0,1.44E2,1.6E1,1.6E1,5E0,-4.8716664E0,5.773E0,1.919E0,9.903333E1,-6.3296666E0,9.954833E1,1E1,-7.928053E-2,8E0,8.8739334E1,1.143E0,9.5786E1,2.56E2,-6.2321108E-2,7.18E-1,7E0,7.095E1,-4.4843335E0,6E0,4.312E0,-6.1850358E-2,-7.529547E-2,7.257E0,7.5256E1,4.673706E0,-7.870276E-2,9.0382E1,9.1143E1,7.153467E1,-7.526223E-2,1.3E1,1.02458E2,6.4874563E0,-8.441334E-2,2.5003E1,1.305E0,7E0,-5.688235E-2,1.851E0,9E0,-6.483E0,-7.896185E-2,1.8E1,-8.454096E-2,1.456E0,1.169359E0,3.24E2,7.1282566E-2,-5.3961255E-2,-5.9383523E-2,9.3513936E-2,-5.2399863E-2,-7.797867E-2,-7.722467E-2,2.8190283E-2,1.5110872E-2,-8.443908E-2,-8.265766E-2,-8.797799E-3,-8.4851265E-2,2.93539E-2,6.599299E-2,-6.8524376E-2,-7.546433E-2,2.4637027E-2,1.9897176E-2,-7.8281075E-2,-5.439652E-2,6.1256822E-2,2.171288E-3,-9.23051E-2,2.3960551E-2,-1.4494357E-2,3.889195E-2,7.403927E-2,2.3758331E-2,-3.648572E-2,6.0392492E-3,4.1010845E-2,5.1780082E-2,-8.539762E-2,-4.177719E-2,1.642145E-2,-8.950439E-2,3.3183005E-2,2.636866E-2,-2.9032921E-2],"split_indices":[2,4,9,10,11,3,9,4,2,2,2,10,4,5,5,3,4,3,7,0,7,3,9,3,2,0,6,10,3,4,7,9,0,0,5,3,11,0,3,3,3,0,10,3,11,0,6,6,7,0,5,7,4,0,7,0,5,11,2,0,0,0,0,0,0,0,0,0,0,0,0,0,0,0,0,0,0,0,0,0,0,0,0,0,0,0,0,0,0,0,0,0,0,0,0,0,0,0,0],"split_type":[0,0,0,0,0,0,0,0,0,0,0,0,0,0,0,0,0,0,0,0,0,0,0,0,0,0,0,0,0,0,0,0,0,0,0,0,0,0,0,0,0,0,0,0,0,0,0,0,0,0,0,0,0,0,0,0,0,0,0,0,0,0,0,0,0,0,0,0,0,0,0,0,0,0,0,0,0,0,0,0,0,0,0,0,0,0,0,0,0,0,0,0,0,0,0,0,0,0,0],"sum_hessian":[5.9285205E3,2.0574766E3,3.8710437E3,7.985581E2,1.2589186E3,9.2622534E2,2.9448184E3,9.678673E1,7.0177136E2,9.2650055E2,3.3241806E2,8.5052216E2,7.570321E1,1.6844193E3,1.2603989E3,4.613829E1,5.0648434E1,5.1140775E2,1.9036362E2,7.427423E1,8.522263E2,6.0827396E1,2.7159067E2,1.4689485E2,7.0362726E2,3.2930229E0,7.241019E1,1.1018622E3,5.825571E2,2.2775595E2,1.0326431E3,4.44267E1,1.7115883E0,3.948266E1,1.1165778E1,4.1861856E2,9.278919E1,6.1833874E1,1.2852975E2,2.3441278E2,6.1781354E2,1.638796E1,4.4439434E1,1.9858618E2,7.300447E1,8.582146E1,6.10734E1,8.851692E1,6.1511035E2,1.8969693E0,7.0513214E1,2.271363E2,8.747259E2,4.764516E0,5.777926E2,7.60629E1,1.5169305E2,6.291506E2,4.0349243E2,4.273844E1,1.6882584E0,3.0053477E0,8.16043E0,5.9029762E1,3.595888E2,6.426529E1,2.8523897E1,1.00470116E2,2.8059631E1,6.317056E1,1.7124222E2,1.4658432E1,6.031551E2,3.775443E1,6.685005E0,1.8766364E2,1.0922555E1,3.963741E1,3.336706E1,4.3310303E1,1.7763094E1,2.8482065E1,6.0034855E1,3.2868347E2,2.864269E2,1.0544932E1,5.996828E1,8.55144E1,1.4162192E2,1.9373001E2,6.8099585E2,5.739128E2,3.8797863E0,9.711222E1,5.4580833E1,1.0651727E1,6.1849884E2,1.7098941E2,2.3250302E2],"tree_param":{"num_deleted":"0","num_feature":"12","num_nodes":"99","size_leaf_vector":"1"}},{"base_weights":[5.4715103E-3,-5.481816E-1,2.1716641E-1,-2.5854759E-2,-9.8324245E-1,3.88206E-1,-9.191354E-1,-8.258698E-1,2.6709896E-1,-1.2602782E0,-6.008178E-1,6.824683E-1,2.6829278E-3,-9.930949E-1,8.082608E-1,-1.4037523E0,3.0432025E-1,4.836364E-1,-1.1899846E0,-1.3645498E0,1.0954463E0,-7.6018944E-2,-3.6355484E-1,4.0019327E-1,8.8543606E-1,4.737095E-1,-4.6400455E-1,-3.2697815E-1,-1.1619403E0,-7.046964E-2,8.2012974E-2,5.065231E-1,-8.053647E-2,-8.645637E-2,9.252471E-1,-3.5848603E-1,6.773737E-1,1.3054929E0,-7.9465725E-2,-4.253646E-1,-1.4449668E0,-6.4728424E-2,9.4969794E-2,-8.4128267E-1,2.0392835E-1,2.0698423E-2,8.9299726E-1,-4.3707827E-1,9.771669E-1,-5.696637E-1,7.173677E-1,-9.586892E-1,6.0228044E-1,-8.5376763E-1,1.0790954E0,-8.407863E-1,-1.4139853E0,-6.50345E-2,7.236915E-2,-1.7543916E-4,6.516693E-2,-5.3146865E-2,3.1083224E-2,-8.69768E-2,3.622834E-2,8.5166395E-2,-4.5665156E-2,-9.054804E-2,3.6876317E-2,-2.4867093E-2,-7.554608E-2,-6.547197E-2,3.685171E-2,7.885599E-2,1.9859428E-4,-5.970748E-3,7.831945E-2,-9.125866E-2,4.730175E-2,-9.094658E-2,3.4794353E-2,5.1048566E-2,-8.417022E-2,-8.775899E-2,-3.4089226E-3,3.9819196E-2,-1.7886164E-2,-3.9526075E-2,-9.042123E-2,1.067702E-2,5.9527546E-2,-6.370228E-3,-7.525403E-2,-5.4278433E-2,6.486202E-2,-5.2533306E-2,3.213398E-2,-7.6767705E-2,5.007708E-2],"categories":[],"categories_nodes":[],"categories_segments":[],"categories_sizes":[],"default_left":[0,0,0,0,0,0,0,0,0,0,0,0,0,0,0,0,0,0,0,0,0,0,0,0,0,0,0,0,0,0,0,0,0,0,0,0,0,0,0,0,0,0,0,0,0,0,0,0,0,0,0,0,0,0,0,0,0,0,0,0,0,0,0,0,0,0,0,0,0,0,0,0,0,0,0,0,0,0,0,0,0,0,0,0,0,0,0,0,0,0,0,0,0,0,0,0,0,0,0],"id":10,"left_children":[1,3,5,7,9,11,13,15,17,19,21,23,25,27,29,31,33,35,37,39,41,-1,43,45,47,49,51,53,55,-1,-1,57,-1,-1,59,61,63,65,-1,67,69,-1,-1,71,73,75,77,79,81,83,85,87,89,91,93,95,97,-1,-1,-1,-1,-1,-1,-1,-1,-1,-1,-1,-1,-1,-1,-1,-1,-1,-1,-1,-1,-1,-1,-1,-1,-1,-1,-1,-1,-1,-1,-1,-1,-1,-1,-1,-1,-1,-1,-1,-1,-1,-1],"loss_changes":[6.8296375E2,3.6623846E2,8.196074E2,1.7211809E2,9.240173E1,4.1571674E2,7.1297E1,1.2898375E2,1.7020102E2,1.265246E2,8.0457794E1,1.1871277E2,3.4913794E2,5.9181824E1,4.512924E1,5.23815E1,8.6720856E1,7.6722946E1,7.1679054E1,3.6233032E1,4.4980392E1,0E0,8.054404E1,1.6289273E2,1.4699036E2,2.0136443E2,4.2140463E2,8.1274475E1,3.2977722E1,0E0,0E0,2.485449E1,0E0,0E0,1.8368942E1,6.164864E1,4.4768265E1,1.05454445E1,0E0,6.562077E1,2.7309937E1,0E0,0E0,1.2004388E2,3.7421085E1,1.06990295E2,5.635855E1,1.2502883E2,1.3342188E2,8.9180405E1,5.4759155E1,7.650214E1,5.7705444E1,3.7406693E1,1.5578251E1,5.9230286E1,7.044006E1,0E0,0E0,0E0,0E0,0E0,0E0,0E0,0E0,0E0,0E0,0E0,0E0,0E0,0E0,0E0,0E0,0E0,0E0,0E0,0E0,0E0,0E0,0E0,0E0,0E0,0E0,0E0,0E0,0E0,0E0,0E0,0E0,0E0,0E0,0E0,0E0,0E0,0E0,0E0,0E0,0E0,0E0],"parents":[2147483647,0,0,1,1,2,2,3,3,4,4,5,5,6,6,7,7,8,8,9,9,10,10,11,11,12,12,13,13,14,14,15,15,16,16,17,17,18,18,19,19,20,20,22,22,23,23,24,24,25,25,26,26,27,27,28,28,31,31,34,34,35,35,36,36,37,37,39,39,40,40,43,43,44,44,45,45,46,46,47,47,48,48,49,49,50,50,51,51,52,52,53,53,54,54,55,55,56,56],"right_children":[2,4,6,8,10,12,14,16,18,20,22,24,26,28,30,32,34,36,38,40,42,-1,44,46,48,50,52,54,56,-1,-1,58,-1,-1,60,62,64,66,-1,68,70,-1,-1,72,74,76,78,80,82,84,86,88,90,92,94,96,98,-1,-1,-1,-1,-1,-1,-1,-1,-1,-1,-1,-1,-1,-1,-1,-1,-1,-1,-1,-1,-1,-1,-1,-1,-1,-1,-1,-1,-1,-1,-1,-1,-1,-1,-1,-1,-1,-1,-1,-1,-1,-1],"split_conditions":[1.2E1,1.8309858E-1,8.245614E-1,9E0,1.4E1,2E0,4.9E1,1.0224267E2,2E0,2.9417988E1,6E0,8.480967E1,4.5172806E0,1.019E0,1.2076E1,4.08E-1,1.71E0,8.928572E-2,1.169359E0,2.0754717E-1,8.4553665E1,-7.6018944E-2,9.607533E1,2.4E1,1.169359E0,1.6E1,3.2E1,9.24E-1,7E0,-7.046964E-2,8.2012974E-2,3.9E-1,-8.053647E-2,-8.645637E-2,8E0,1.7E1,3.73E-1,3.9E-1,-7.9465725E-2,2.444E0,4.52E-1,-6.4728424E-2,9.4969794E-2,8.039216E-1,3.27E-1,8.181818E-1,3.472222E-1,2.5E1,7.4E-1,8.717567E1,7.4509805E-1,6.896552E-1,4.3E1,8.526767E1,1.7E1,2.3168E1,2.598E1,-6.50345E-2,7.236915E-2,-1.7543916E-4,6.516693E-2,-5.3146865E-2,3.1083224E-2,-8.69768E-2,3.622834E-2,8.5166395E-2,-4.5665156E-2,-9.054804E-2,3.6876317E-2,-2.4867093E-2,-7.554608E-2,-6.547197E-2,3.685171E-2,7.885599E-2,1.9859428E-4,-5.970748E-3,7.831945E-2,-9.125866E-2,4.730175E-2,-9.094658E-2,3.4794353E-2,5.1048566E-2,-8.417022E-2,-8.775899E-2,-3.4089226E-3,3.9819196E-2,-1.7886164E-2,-3.9526075E-2,-9.042123E-2,1.067702E-2,5.9527546E-2,-6.370228E-3,-7.525403E-2,-5.4278433E-2,6.486202E-2,-5.2533306E-2,3.213398E-2,-7.6767705E-2,5.007708E-2],"split_indices":[1,8,8,7,7,0,1,3,0,11,1,3,11,5,5,6,5,8,11,8,3,0,3,1,11,1,1,5,7,0,0,6,0,0,1,7,5,6,0,6,5,0,0,8,5,8,8,1,8,3,8,8,1,3,1,6,5,0,0,0,0,0,0,0,0,0,0,0,0,0,0,0,0,0,0,0,0,0,0,0,0,0,0,0,0,0,0,0,0,0,0,0,0,0,0,0,0,0,0],"split_type":[0,0,0,0,0,0,0,0,0,0,0,0,0,0,0,0,0,0,0,0,0,0,0,0,0,0,0,0,0,0,0,0,0,0,0,0,0,0,0,0,0,0,0,0,0,0,0,0,0,0,0,0,0,0,0,0,0,0,0,0,0,0,0,0,0,0,0,0,0,0,0,0,0,0,0,0,0,0,0,0,0,0,0,0,0,0,0,0,0,0,0,0,0,0,0,0,0,0,0],"sum_hessian":[5.825045E3,1.6107649E3,4.21428E3,7.324532E2,8.7831177E2,3.6634976E3,5.507824E2,1.9583539E2,5.366178E2,5.0800656E2,3.7030518E2,2.0772231E3,1.5862743E3,5.285762E2,2.2206234E1,1.2941936E2,6.641604E1,4.6777042E2,6.8847374E1,4.8687668E2,2.1129887E1,7.48399E1,2.9546527E2,8.701057E2,1.2071174E3,7.894596E2,7.9681476E2,1.0748206E2,4.2109415E2,5.8689194E0,1.6337315E1,1.251022E1,1.16909134E2,1.511893E1,5.129711E1,8.7328255E1,3.8044217E2,9.184256E0,5.966312E1,3.889651E1,4.4798016E2,5.164974E0,1.5964912E1,1.6015692E2,1.3530836E2,4.9215366E2,3.7795203E2,7.805195E1,1.1290656E3,1.4920563E2,6.4025397E2,5.443662E2,2.524485E2,7.847426E1,2.9007807E1,1.8706853E2,2.340256E2,4.152195E0,8.358025E0,1.5127688E1,3.6169422E1,5.0760986E1,3.656727E1,6.599522E0,3.7384265E2,7.98487E0,1.199386E0,1.749443E1,2.140208E1,2.9706297E1,4.1827386E2,1.2365038E2,3.650653E1,1.6323078E1,1.1898528E2,4.52095E2,4.0058655E1,6.5940866E0,3.7135794E2,3.489086E1,4.3161087E1,1.1113837E3,1.7681887E1,4.361035E1,1.0559527E2,5.9666034E2,4.3593647E1,4.560429E2,8.832332E1,1.5282314E2,9.962536E1,3.7664894E1,4.080937E1,2.291617E0,2.671619E1,1.6413812E2,2.2930405E1,2.2317644E2,1.0849177E1],"tree_param":{"num_deleted":"0","num_feature":"12","num_nodes":"99","size_leaf_vector":"1"}},{"base_weights":[4.2518582E-2,3.2596707E-1,-3.6799893E-1,4.1397443E-1,-7.918445E-1,-7.087918E-2,-6.7365503E-1,-3.993425E-1,4.680064E-1,-1.2071099E0,5.817742E-1,-7.545506E-1,1.8928902E-1,-7.8797686E-1,1.0823892E0,-6.205212E-1,7.794977E-1,5.832613E-2,6.09917E-1,3.1162956E-1,-1.3418826E0,9.4031054E-1,-6.720502E-2,-7.8532815E-2,-4.4473577E-1,7.306632E-1,-1.8784316E-1,-1.2853007E0,-6.5315557E-1,-7.534828E-2,1.2910022E0,1.0048517E0,-7.3341113E-1,-7.2404645E-2,1.3598375E0,-4.25946E-1,4.0333366E-1,9.510462E-1,4.615932E-1,9.57969E-2,-6.7587964E-2,-7.4135415E-2,7.1861756E-1,-6.5446414E-2,1.1898155E0,2.0594798E-1,-7.473428E-2,3.9535892E-1,1.055391E0,-1.8721795E-2,-7.507698E-2,-8.128244E-2,-6.930161E-1,-3.3343208E-1,-1.0284648E0,1.4624138E0,-8.311154E-2,8.178993E-2,-5.4842304E-2,-8.066019E-3,-6.3885264E-2,4.5397725E-2,7.869551E-2,-4.2079236E-2,5.6196135E-2,2.7682954E-2,-7.475968E-2,-8.424058E-2,4.86736E-2,7.31259E-3,3.309655E-2,7.8101985E-2,-5.8189947E-2,-6.312372E-2,7.145982E-2,-8.2103565E-2,2.0741228E-2,-9.1277175E-2,3.50519E-2,-7.5254724E-3,5.8501083E-2,-1.2860398E-2,3.0990392E-2,-2.8740575E-3,-7.875858E-2,-2.7331768E-2,6.180603E-2,-3.6164686E-2,-8.3431505E-2,7.5787745E-2,4.9189474E-2],"categories":[],"categories_nodes":[],"categories_segments":[],"categories_sizes":[],"default_left":[0,0,0,0,0,0,0,0,0,0,0,0,0,0,0,0,0,0,0,0,0,0,0,0,0,0,0,0,0,0,0,0,0,0,0,0,0,0,0,0,0,0,0,0,0,0,0,0,0,0,0,0,0,0,0,0,0,0,0,0,0,0,0,0,0,0,0,0,0,0,0,0,0,0,0,0,0,0,0,0,0,0,0,0,0,0,0,0,0,0,0],"id":11,"left_children":[1,3,5,7,9,11,13,15,17,19,21,23,25,27,29,31,33,35,37,39,41,43,-1,-1,45,47,49,51,53,-1,55,57,59,-1,61,63,65,67,69,-1,-1,-1,71,-1,73,75,-1,77,79,81,-1,-1,83,85,87,89,-1,-1,-1,-1,-1,-1,-1,-1,-1,-1,-1,-1,-1,-1,-1,-1,-1,-1,-1,-1,-1,-1,-1,-1,-1,-1,-1,-1,-1,-1,-1,-1,-1,-1,-1],"loss_changes":[6.857902E2,3.432982E2,2.1857477E2,1.4224121E2,1.4604167E2,2.1746623E2,2.3904498E2,5.3129177E1,1.7621704E2,4.0530884E1,4.2570786E1,8.450702E1,1.8099509E2,7.389044E1,4.1347084E1,3.203466E1,4.3779434E1,1.3067065E2,1.13484436E2,4.738139E1,5.3351044E1,3.0190437E1,0E0,0E0,1.6813791E2,3.9206924E1,1.1614786E2,4.6582428E1,1.0511743E2,0E0,3.6875298E1,1.704321E1,4.9637703E1,0E0,1.1028557E0,2.1058711E2,1.3114902E2,4.1916626E1,9.916281E1,0E0,0E0,0E0,2.1188717E1,0E0,2.9072311E1,5.956482E1,0E0,1.2391431E2,2.5649002E1,7.0859924E1,0E0,0E0,4.9308872E1,1.5998141E2,7.768176E1,1.6426086E-1,0E0,0E0,0E0,0E0,0E0,0E0,0E0,0E0,0E0,0E0,0E0,0E0,0E0,0E0,0E0,0E0,0E0,0E0,0E0,0E0,0E0,0E0,0E0,0E0,0E0,0E0,0E0,0E0,0E0,0E0,0E0,0E0,0E0,0E0,0E0],"parents":[2147483647,0,0,1,1,2,2,3,3,4,4,5,5,6,6,7,7,8,8,9,9,10,10,11,11,12,12,13,13,14,14,15,15,16,16,17,17,18,18,19,19,20,20,21,21,24,24,25,25,26,26,27,27,28,28,30,30,31,31,32,32,34,34,35,35,36,36,37,37,38,38,42,42,44,44,45,45,47,47,48,48,49,49,52,52,53,53,54,54,55,55],"right_children":[2,4,6,8,10,12,14,16,18,20,22,24,26,28,30,32,34,36,38,40,42,44,-1,-1,46,48,50,52,54,-1,56,58,60,-1,62,64,66,68,70,-1,-1,-1,72,-1,74,76,-1,78,80,82,-1,-1,84,86,88,90,-1,-1,-1,-1,-1,-1,-1,-1,-1,-1,-1,-1,-1,-1,-1,-1,-1,-1,-1,-1,-1,-1,-1,-1,-1,-1,-1,-1,-1,-1,-1,-1,-1,-1,-1],"split_conditions":[2E0,8.4E-1,4.5172806E0,1.0344828E-1,2.3168E1,1.6269231E-2,1.8243333E0,3.223E0,1.0157894E-2,1E0,1.2E1,4.9295774E-1,2.67E-1,4.084507E-1,4.117647E-1,7.188167E1,1.0018633E2,8.4360664E1,4.28E-1,-6.0363336E0,1.154E0,3.2883482E0,-6.720502E-2,-7.8532815E-2,6.896552E-1,-5.9063334E0,8.245614E-1,-2.1443334E0,9.1143E1,-7.534828E-2,6E0,-4.1533333E-1,7.017544E-2,-7.2404645E-2,8.450704E-2,8.039216E-1,7.5438595E-1,1.6E-1,2.34E0,9.57969E-2,-6.7587964E-2,-7.4135415E-2,1E0,-6.5446414E-2,8.965517E-1,2.043E0,-7.473428E-2,5.285714E-1,3.181818E-1,9.788033E1,-7.507698E-2,-8.128244E-2,8.09E-1,8.745634E1,4.5275E-1,9.5556335E1,-8.311154E-2,8.178993E-2,-5.4842304E-2,-8.066019E-3,-6.3885264E-2,4.5397725E-2,7.869551E-2,-4.2079236E-2,5.6196135E-2,2.7682954E-2,-7.475968E-2,-8.424058E-2,4.86736E-2,7.31259E-3,3.309655E-2,7.8101985E-2,-5.8189947E-2,-6.312372E-2,7.145982E-2,-8.2103565E-2,2.0741228E-2,-9.1277175E-2,3.50519E-2,-7.5254724E-3,5.8501083E-2,-1.2860398E-2,3.0990392E-2,-2.8740575E-3,-7.875858E-2,-2.7331768E-2,6.180603E-2,-3.6164686E-2,-8.3431505E-2,7.5787745E-2,4.9189474E-2],"split_indices":[0,8,11,8,6,9,4,6,9,10,10,8,9,8,8,3,3,3,9,4,4,11,0,0,8,4,8,4,3,0,10,4,8,0,8,8,8,6,5,0,0,0,0,0,8,6,0,8,8,3,0,0,5,3,9,3,0,0,0,0,0,0,0,0,0,0,0,0,0,0,0,0,0,0,0,0,0,0,0,0,0,0,0,0,0,0,0,0,0,0,0],"split_type":[0,0,0,0,0,0,0,0,0,0,0,0,0,0,0,0,0,0,0,0,0,0,0,0,0,0,0,0,0,0,0,0,0,0,0,0,0,0,0,0,0,0,0,0,0,0,0,0,0,0,0,0,0,0,0,0,0,0,0,0,0,0,0,0,0,0,0,0,0,0,0,0,0,0,0,0,0,0,0,0,0,0,0,0,0,0,0,0,0,0,0],"sum_hessian":[5.8916343E3,3.4853345E3,2.4062998E3,3.231539E3,2.5379533E2,1.2208134E3,1.1854865E3,2.0091237E2,3.0306267E3,1.9497324E2,5.882209E1,3.3599188E2,8.8482153E2,1.113544E3,7.194254E1,1.695705E2,3.1341875E1,7.800676E2,2.250559E3,1.5784718E1,1.7918852E2,5.0021446E1,8.800647E0,9.133364E1,2.4465823E2,3.6291653E2,5.2190497E2,2.3567209E2,8.778719E2,4.8999124E0,6.704263E1,1.0499474E1,1.5907103E2,6.168667E0,2.5173208E1,3.2443613E2,4.5563153E2,6.803689E2,1.5701901E3,7.957767E0,7.82695E0,1.6798775E2,1.1200768E1,4.5707684E0,4.5450676E1,1.5154521E2,9.311303E1,1.7964153E2,1.83275E2,4.632782E2,5.86268E1,1.4855966E2,8.711244E1,4.7505988E2,4.0281198E2,6.3841927E1,3.2007046E0,8.245719E0,2.253755E0,7.818722E1,8.0883804E1,9.776809E0,1.5396399E1,2.5618915E2,6.824698E1,4.22858E2,3.2773533E1,5.114356E0,6.752545E2,6.1068E2,9.5951013E2,7.852588E0,3.3481803E0,3.66201E0,4.1788666E1,1.4692552E1,1.3685266E2,2.1132425E1,1.585091E2,1.5882285E1,1.6739272E2,3.3773413E2,1.2554406E2,5.125311E1,3.585933E1,4.188203E2,5.6239555E1,2.7421954E2,1.2859244E2,5.549076E1,8.351165E0],"tree_param":{"num_deleted":"0","num_feature":"12","num_nodes":"91","size_leaf_vector":"1"}},{"base_weights":[4.6036817E-2,-4.0202302E-1,2.899468E-1,2.2605423E-2,-9.4699115E-1,5.046123E-1,-5.352282E-1,2.1902384E-1,-1.0865161E0,4.1034347E-1,-1.0487957E0,7.2721434E-1,2.2191693E-1,2.612242E-1,-7.610552E-1,-6.686246E-1,4.1193715E-1,-1.2032719E0,6.9371514E-2,-7.044031E-2,1.0792005E0,-1.1352793E0,-2.553193E-1,4.3433887E-1,8.670296E-1,-4.126027E-1,4.1179925E-1,8.560268E-1,-7.416097E-1,-8.4975284E-1,1.020811E0,-1.1394501E0,6.509719E-1,-7.8668594E-2,4.8408985E-1,8.507172E-1,-1.3568037E0,-6.4682096E-2,1.2453406E0,-8.226849E-2,-1.2203062E0,-7.346517E-2,2.9235724E-1,-3.255811E-1,9.168898E-1,-9.0021536E-2,8.859096E-1,-1.2040666E-1,-8.87273E-2,-1.966735E-1,5.807912E-1,-7.683539E-2,1.1483161E0,-7.135692E-2,6.10145E-1,-1.2891155E0,-6.0217106E-1,-6.302523E-2,1.431056E0,-7.543545E-2,5.7899356E-3,5.5233903E-2,-7.911331E-2,4.073412E-3,4.1921522E-2,-5.5170786E-2,8.23166E-2,2.3930475E-2,-7.624673E-2,7.114284E-2,-5.9925985E-2,8.526679E-2,-2.0511147E-2,-6.2587015E-2,6.1029065E-2,3.4680165E-2,-7.197537E-2,-7.6933496E-2,5.5887857E-3,3.4787774E-2,7.633904E-2,-8.82962E-2,4.4827145E-2,-2.644938E-2,4.3695487E-2,-4.4625606E-2,2.2958064E-2,-3.7916474E-2,3.3573736E-2,6.378064E-2,-6.778144E-2,-6.586401E-2,6.603138E-2,-7.0072435E-2,3.0481985E-2,-1.8015191E-2,-7.570604E-2,-4.3471005E-2,7.886235E-2],"categories":[],"categories_nodes":[],"categories_segments":[],"categories_sizes":[],"default_left":[0,0,0,0,0,0,0,0,0,0,0,0,0,0,0,0,0,0,0,0,0,0,0,0,0,0,0,0,0,0,0,0,0,0,0,0,0,0,0,0,0,0,0,0,0,0,0,0,0,0,0,0,0,0,0,0,0,0,0,0,0,0,0,0,0,0,0,0,0,0,0,0,0,0,0,0,0,0,0,0,0,0,0,0,0,0,0,0,0,0,0,0,0,0,0,0,0,0,0],"id":12,"left_children":[1,3,5,7,9,11,13,15,17,19,21,23,25,27,29,31,33,35,-1,-1,37,39,41,43,45,47,49,51,53,55,57,59,61,-1,63,65,67,-1,69,71,73,-1,75,77,79,-1,81,83,-1,85,87,-1,89,-1,91,93,95,-1,97,-1,-1,-1,-1,-1,-1,-1,-1,-1,-1,-1,-1,-1,-1,-1,-1,-1,-1,-1,-1,-1,-1,-1,-1,-1,-1,-1,-1,-1,-1,-1,-1,-1,-1,-1,-1,-1,-1,-1,-1],"loss_changes":[6.4572473E2,4.8198404E2,6.77953E2,2.5547095E2,1.2647284E2,1.9092035E2,1.4233876E2,1.7085638E2,5.2631775E1,7.982949E1,5.795581E1,6.916876E1,1.6151279E2,1.0521195E2,9.8217926E1,1.11473236E2,1.1806973E2,5.4454376E1,0E0,0E0,2.0385403E1,6.83999E1,5.6750427E1,2.0227524E2,5.943872E1,1.2272879E2,1.06147964E2,7.9054276E1,6.185305E1,6.3108765E1,2.956404E1,6.122908E1,4.9880783E1,0E0,1.1277649E2,2.1048214E1,4.9378326E1,0E0,2.1234718E1,3.4839222E1,5.5838257E1,0E0,4.214267E1,1.1405825E2,4.4407013E1,0E0,3.3761353E1,1.0423566E2,0E0,1.0303887E2,9.854434E1,0E0,3.330246E1,0E0,3.302284E1,4.5814667E1,8.2721085E1,0E0,9.983776E0,0E0,0E0,0E0,0E0,0E0,0E0,0E0,0E0,0E0,0E0,0E0,0E0,0E0,0E0,0E0,0E0,0E0,0E0,0E0,0E0,0E0,0E0,0E0,0E0,0E0,0E0,0E0,0E0,0E0,0E0,0E0,0E0,0E0,0E0,0E0,0E0,0E0,0E0,0E0,0E0],"parents":[2147483647,0,0,1,1,2,2,3,3,4,4,5,5,6,6,7,7,8,8,9,9,10,10,11,11,12,12,13,13,14,14,15,15,16,16,17,17,20,20,21,21,22,22,23,23,24,24,25,25,26,26,27,27,28,28,29,29,30,30,31,31,32,32,34,34,35,35,36,36,38,38,39,39,40,40,42,42,43,43,44,44,46,46,47,47,49,49,50,50,52,52,54,54,55,55,56,56,58,58],"right_children":[2,4,6,8,10,12,14,16,18,20,22,24,26,28,30,32,34,36,-1,-1,38,40,42,44,46,48,50,52,54,56,58,60,62,-1,64,66,68,-1,70,72,74,-1,76,78,80,-1,82,84,-1,86,88,-1,90,-1,92,94,96,-1,98,-1,-1,-1,-1,-1,-1,-1,-1,-1,-1,-1,-1,-1,-1,-1,-1,-1,-1,-1,-1,-1,-1,-1,-1,-1,-1,-1,-1,-1,-1,-1,-1,-1,-1,-1,-1,-1,-1,-1,-1],"split_conditions":[1.4E1,3E-1,7.4509805E-1,2E0,-9.392333E0,2E0,7.669867E1,1.0344828E-1,3.2913334E0,4.446E0,9.99E2,8.062E1,1.607E0,8.4E-1,4.9E1,1.7E1,-5.592E0,-1.0087334E1,6.9371514E-2,-7.044031E-2,4.4230768E-1,4.52E-1,-5.7926664E0,2.4E1,-1.1287666E1,1.202E0,4.8E-1,7.302966E1,2.3168E1,2.3E1,1.7433333E-1,1.05997E2,-3.0946667E0,-7.8668594E-2,1.1E1,2.6760563E-1,3.9E-1,-6.4682096E-2,1.568E0,2.64E-1,3.2913334E0,-7.346517E-2,1.9E1,1.0209091E-1,1.3628E1,-9.0021536E-2,2.2E-1,-6.9666666E-1,-8.87273E-2,8.7845E1,1.6E1,-7.683539E-2,-1.9933333E0,-7.135692E-2,1.1001E1,1.154E0,-2.9706666E0,-6.302523E-2,8.697E0,-7.543545E-2,5.7899356E-3,5.5233903E-2,-7.911331E-2,4.073412E-3,4.1921522E-2,-5.5170786E-2,8.23166E-2,2.3930475E-2,-7.624673E-2,7.114284E-2,-5.9925985E-2,8.526679E-2,-2.0511147E-2,-6.2587015E-2,6.1029065E-2,3.4680165E-2,-7.197537E-2,-7.6933496E-2,5.5887857E-3,3.4787774E-2,7.633904E-2,-8.82962E-2,4.4827145E-2,-2.644938E-2,4.3695487E-2,-4.4625606E-2,2.2958064E-2,-3.7916474E-2,3.3573736E-2,6.378064E-2,-6.778144E-2,-6.586401E-2,6.603138E-2,-7.0072435E-2,3.0481985E-2,-1.8015191E-2,-7.570604E-2,-4.3471005E-2,7.886235E-2],"split_indices":[1,8,8,0,4,0,3,8,4,5,6,3,5,8,1,7,4,4,0,0,8,5,4,1,4,5,8,3,6,1,9,3,4,0,7,8,6,0,9,6,4,0,7,9,6,0,6,4,0,3,1,0,4,0,5,4,4,0,5,0,0,0,0,0,0,0,0,0,0,0,0,0,0,0,0,0,0,0,0,0,0,0,0,0,0,0,0,0,0,0,0,0,0,0,0,0,0,0,0],"split_type":[0,0,0,0,0,0,0,0,0,0,0,0,0,0,0,0,0,0,0,0,0,0,0,0,0,0,0,0,0,0,0,0,0,0,0,0,0,0,0,0,0,0,0,0,0,0,0,0,0,0,0,0,0,0,0,0,0,0,0,0,0,0,0,0,0,0,0,0,0,0,0,0,0,0,0,0,0,0,0,0,0,0,0,0,0,0,0,0,0,0,0,0,0,0,0,0,0,0,0],"sum_hessian":[5.9064956E3,2.0817312E3,3.8247644E3,1.1705895E3,9.111417E2,3.0354854E3,7.892792E2,9.951561E2,1.7543333E2,6.3359188E1,8.4778253E2,1.697363E3,1.3381222E3,1.7432135E2,6.149578E2,1.7722554E2,8.179306E2,1.6801752E2,7.415816E0,1.6735603E1,4.6623585E1,7.64073E2,8.370952E1,5.497955E2,1.1475676E3,3.07936E2,1.0301863E3,1.0951312E2,6.480823E1,5.862963E2,2.8661537E1,1.3072133E2,4.650421E1,2.7954197E1,7.899764E2,1.1369699E1,1.5664783E2,2.60677E0,4.4016815E1,5.7233673E1,7.0683936E2,2.5501003E1,5.8208515E1,2.1365594E2,3.3613956E2,7.4020815E0,1.1401655E3,2.5443668E2,5.349932E1,2.2388858E2,8.0629767E2,1.14580345E1,9.8055084E1,4.29638E1,2.1844425E1,2.0979099E2,3.765053E2,4.0526657E0,2.4608871E1,1.0085169E2,2.9869642E1,3.907172E1,7.432491E0,3.7037057E2,4.196058E2,3.177782E0,8.191916E0,1.2990411E1,1.4365741E2,4.1425545E1,2.5912685E0,8.221306E0,4.9012367E1,6.983333E2,8.50606E0,4.7746014E1,1.0462503E1,5.5950085E1,1.5770586E2,2.4826457E2,8.787498E1,3.8942654E0,1.1362712E3,1.8066602E2,7.3770645E1,1.0845611E2,1.1543247E2,5.0671463E1,7.556262E2,9.377811E1,4.2769756E0,5.653453E0,1.6190973E1,1.9831999E2,1.1470998E1,2.986836E2,7.782174E1,1.1748084E0,2.3434063E1],"tree_param":{"num_deleted":"0","num_feature":"12","num_nodes":"99","size_leaf_vector":"1"}},{"base_weights":[-6.5375757E-3,-5.0697803E-1,1.8241651E-1,-7.467844E-2,-1.1230631E0,3.2654396E-1,-7.679032E-1,-5.3211665E-1,4.450201E-1,-1.1937729E0,5.917003E-1,5.7298326E-1,7.781734E-2,-9.527856E-1,1.7183961E-1,-7.573535E-2,-3.052402E-1,5.564777E-1,-7.648872E-2,-7.10496E-2,-7.852132E-1,-6.792217E-2,8.602377E-2,-9.0005505E-1,6.4247936E-1,4.2263904E-1,-3.4198257E-1,-7.156814E-2,-6.4875954E-1,9.018666E-1,-7.0517056E-2,-1.1898803E-1,-7.712439E-2,8.503375E-1,3.1739584E-1,-9.4941264E-1,1.0613316E0,4.686155E-1,-9.444558E-2,7.401342E-1,-3.0097547E-1,9.635362E-2,6.590294E-1,-5.637299E-1,8.1858224E-1,-1.6833946E-1,-1.2655404E0,-6.444332E-2,1.112436E0,-5.4486435E-2,5.426566E-3,-8.6464256E-2,4.597973E-2,-3.5695255E-2,3.0876908E-2,-7.264611E-2,-1.6308619E-2,-4.669915E-2,6.491598E-2,5.4918844E-2,-8.34695E-2,1.6931964E-2,4.54414E-2,-7.053723E-2,2.2560498E-2,-9.737095E-2,1.2164466E-2,-9.622367E-2,3.466755E-2,-3.7965965E-2,1.1178366E-2,-3.38646E-2,5.6805164E-2,3.701881E-2,-2.1182908E-2,-7.2228916E-2,3.5328824E-2,6.533476E-2,-5.861147E-2],"categories":[],"categories_nodes":[],"categories_segments":[],"categories_sizes":[],"default_left":[0,0,0,0,0,0,0,0,0,0,0,0,0,0,0,0,0,0,0,0,0,0,0,0,0,0,0,0,0,0,0,0,0,0,0,0,0,0,0,0,0,0,0,0,0,0,0,0,0,0,0,0,0,0,0,0,0,0,0,0,0,0,0,0,0,0,0,0,0,0,0,0,0,0,0,0,0,0,0],"id":13,"left_children":[1,3,5,7,9,11,13,15,17,19,21,23,25,27,29,-1,31,33,-1,-1,35,-1,-1,37,39,41,43,-1,45,47,-1,49,-1,51,53,55,57,59,-1,61,63,65,67,69,71,73,75,-1,77,-1,-1,-1,-1,-1,-1,-1,-1,-1,-1,-1,-1,-1,-1,-1,-1,-1,-1,-1,-1,-1,-1,-1,-1,-1,-1,-1,-1,-1,-1],"loss_changes":[5.407121E2,4.1733337E2,5.687907E2,2.1944342E2,7.9057434E1,2.2092685E2,9.518878E1,1.0896625E2,9.59831E1,5.6526855E1,6.01418E1,1.8593683E2,2.6002896E2,6.5589905E1,1.0610281E2,0E0,9.2002945E1,2.8524895E1,0E0,0E0,6.896971E1,0E0,0E0,1.1185565E2,1.5958234E2,7.599779E1,2.08966E2,0E0,8.316929E1,3.036407E1,0E0,7.7152084E1,0E0,3.4332245E1,7.088677E1,6.428706E1,1.009128E1,4.921837E1,0E0,1.05873474E2,1.36661E2,1.2523903E2,5.2024338E1,1.0500635E2,6.2694794E1,3.7282234E1,4.44711E1,0E0,2.7162987E1,0E0,0E0,0E0,0E0,0E0,0E0,0E0,0E0,0E0,0E0,0E0,0E0,0E0,0E0,0E0,0E0,0E0,0E0,0E0,0E0,0E0,0E0,0E0,0E0,0E0,0E0,0E0,0E0,0E0,0E0],"parents":[2147483647,0,0,1,1,2,2,3,3,4,4,5,5,6,6,7,7,8,8,9,9,10,10,11,11,12,12,13,13,14,14,16,16,17,17,20,20,23,23,24,24,25,25,26,26,28,28,29,29,31,31,33,33,34,34,35,35,36,36,37,37,39,39,40,40,41,41,42,42,43,43,44,44,45,45,46,46,48,48],"right_children":[2,4,6,8,10,12,14,16,18,20,22,24,26,28,30,-1,32,34,-1,-1,36,-1,-1,38,40,42,44,-1,46,48,-1,50,-1,52,54,56,58,60,-1,62,64,66,68,70,72,74,76,-1,78,-1,-1,-1,-1,-1,-1,-1,-1,-1,-1,-1,-1,-1,-1,-1,-1,-1,-1,-1,-1,-1,-1,-1,-1,-1,-1,-1,-1,-1,-1],"split_conditions":[1.44E2,3E-1,8.245614E-1,9.889367E1,2.9417988E1,4.5172806E0,1.9739E1,7E0,9.031555E0,1.5E1,8.4553665E1,1.169359E0,2E0,3.9133333E-2,2.7644E1,-7.573535E-2,3.024E0,1E0,-7.648872E-2,-7.10496E-2,8.939394E-1,-6.792217E-2,8.602377E-2,4.32E-2,6.923077E-1,3.61E2,1.521E3,-7.156814E-2,5.71E-1,8.965517E-1,-7.0517056E-2,9.859155E-2,-7.712439E-2,3E0,1.03214E2,8.1E1,7.745E0,6E0,-9.444558E-2,2.56E2,6.35E-1,4.5407333E0,-1.9127333E1,-6.9666666E-1,6.2857145E-1,1E0,1.3428E1,-6.444332E-2,9.607843E-1,-5.4486435E-2,5.426566E-3,-8.6464256E-2,4.597973E-2,-3.5695255E-2,3.0876908E-2,-7.264611E-2,-1.6308619E-2,-4.669915E-2,6.491598E-2,5.4918844E-2,-8.34695E-2,1.6931964E-2,4.54414E-2,-7.053723E-2,2.2560498E-2,-9.737095E-2,1.2164466E-2,-9.622367E-2,3.466755E-2,-3.7965965E-2,1.1178366E-2,-3.38646E-2,5.6805164E-2,3.701881E-2,-2.1182908E-2,-7.2228916E-2,3.5328824E-2,6.533476E-2,-5.861147E-2],"split_indices":[2,8,8,3,11,11,6,7,11,7,3,11,0,9,6,0,6,0,0,0,8,0,0,9,8,2,2,0,9,8,0,8,0,7,3,2,6,7,0,2,9,11,4,4,8,0,9,0,8,0,0,0,0,0,0,0,0,0,0,0,0,0,0,0,0,0,0,0,0,0,0,0,0,0,0,0,0,0,0],"split_type":[0,0,0,0,0,0,0,0,0,0,0,0,0,0,0,0,0,0,0,0,0,0,0,0,0,0,0,0,0,0,0,0,0,0,0,0,0,0,0,0,0,0,0,0,0,0,0,0,0,0,0,0,0,0,0,0,0,0,0,0,0,0,0,0,0,0,0,0,0,0,0,0,0,0,0,0,0,0,0],"sum_hessian":[5.716196E3,1.5662737E3,4.1499224E3,9.210823E2,6.451914E2,3.60399E3,5.459321E2,4.898728E2,4.3120947E2,6.1993176E2,2.5259628E1,1.8096641E3,1.794326E3,4.5617218E2,8.975994E1,9.082743E1,3.9904538E2,4.0885205E2,2.2357439E1,3.9678372E2,2.2314804E2,9.185943E0,1.6073685E1,8.099274E1,1.7286713E3,9.851344E2,8.0919165E2,1.7577348E2,2.8039868E2,6.1714508E1,2.8045431E1,3.4778662E2,5.1258762E1,1.8226733E2,2.2658472E2,2.053717E2,1.7776333E1,3.419279E1,4.6799946E1,1.5667194E3,1.6195192E2,4.144643E2,5.706701E2,6.7981476E2,1.293769E2,1.5833896E2,1.2205974E2,4.962679E0,5.6751827E1,6.531636E1,2.8247028E2,4.138834E0,1.781285E2,5.0767395E1,1.7581732E2,1.1286111E2,9.25106E1,1.5749557E0,1.6201378E1,2.6788383E1,7.4044065E0,4.6441333E2,1.102306E3,6.507104E1,9.688088E1,2.6977173E1,3.8748712E2,6.7598805E0,5.639103E2,5.445636E2,1.3525116E2,2.2455183E1,1.06921715E2,3.4313282E1,1.2402567E2,1.12146095E2,9.913647E0,5.2699028E1,4.052801E0],"tree_param":{"num_deleted":"0","num_feature":"12","num_nodes":"79","size_leaf_vector":"1"}},{"base_weights":[1.2667483E-2,-4.0641326E-1,2.389909E-1,-1.2920833E-1,-1.0216116E0,4.5730737E-1,1.3170355E-2,-7.010311E-1,1.2637791E-1,6.7257535E-1,-1.1637952E0,-8.252982E-1,5.1689076E-1,3.388878E-1,-2.7183914E-1,-1.9701307E-1,-1.0787698E0,-3.3916327E-1,4.3030006E-1,-6.1479468E-2,1.0282673E0,-1.2809979E0,1.0273145E0,4.057064E-1,-8.597847E-2,2.3349638E-1,7.5660545E-1,1.727055E-1,9.410774E-1,-6.366462E-1,3.1922495E-1,6.3611016E-2,-7.533977E-2,-1.262966E0,2.6107872E-1,-7.709878E-2,6.398986E-4,5.579768E-1,-5.335834E-1,1.2362895E0,-5.6288153E-2,-1.329823E0,7.340712E-2,-5.7303913E-2,1.2367159E0,-7.428448E-2,9.8721856E-1,-1.3827133E0,3.34795E-1,9.129601E-1,2.7815622E-1,3.5342774E-1,-8.206034E-2,-7.72099E-2,1.0323987E0,-1.0682017E0,-2.6527014E-1,-7.464089E-2,4.8357505E-1,1.3346172E-2,-7.2819464E-2,-5.0124157E-2,-8.019561E-2,-7.1913525E-2,7.438975E-2,-7.825618E-2,1.3975687E-2,1.01346625E-2,4.0726192E-2,5.079723E-2,-8.401712E-2,-4.7754806E-2,6.823666E-2,1.6312264E-2,-6.883886E-2,-4.6521883E-2,7.002362E-2,-7.1469605E-2,6.913067E-2,5.490568E-2,-1.013487E-1,-5.63085E-3,3.9987758E-2,3.413992E-2,5.9491355E-2,-1.2901162E-2,2.8121296E-2,-3.444481E-3,3.4915693E-2,5.3756464E-2,-5.4636158E-2,-3.2535646E-2,-8.0753334E-2,-2.9936312E-2,1.905045E-2,1.4076668E-2,6.874075E-2],"categories":[],"categories_nodes":[],"categories_segments":[],"categories_sizes":[],"default_left":[0,0,0,0,0,0,0,0,0,0,0,0,0,0,0,0,0,0,0,0,0,0,0,0,0,0,0,0,0,0,0,0,0,0,0,0,0,0,0,0,0,0,0,0,0,0,0,0,0,0,0,0,0,0,0,0,0,0,0,0,0,0,0,0,0,0,0,0,0,0,0,0,0,0,0,0,0,0,0,0,0,0,0,0,0,0,0,0,0,0,0,0,0,0,0,0,0],"id":14,"left_children":[1,3,5,7,9,11,13,15,17,19,21,23,25,27,29,31,33,35,37,-1,39,41,43,45,-1,47,49,51,53,55,57,59,-1,61,63,-1,65,67,69,71,-1,73,-1,-1,75,-1,77,79,81,83,85,87,-1,-1,89,91,93,-1,95,-1,-1,-1,-1,-1,-1,-1,-1,-1,-1,-1,-1,-1,-1,-1,-1,-1,-1,-1,-1,-1,-1,-1,-1,-1,-1,-1,-1,-1,-1,-1,-1,-1,-1,-1,-1,-1,-1],"loss_changes":[5.3886414E2,3.3962503E2,1.8186514E2,2.0098262E2,1.4982233E2,1.4376813E2,1.6852634E2,8.065593E1,1.3467526E2,3.410485E1,1.4799615E2,9.278459E1,1.2162909E2,8.46165E1,2.0897449E2,6.2628685E1,6.019507E1,1.5372525E2,7.114703E1,0E0,1.9958988E1,7.478668E1,1.4868614E1,4.1070282E1,0E0,1.3521933E2,7.237805E1,2.1863223E2,4.3127625E1,9.572319E1,1.1096647E2,4.7901245E1,0E0,1.7346527E1,6.498251E1,0E0,1.289274E2,4.621544E1,1.2227162E2,1.2073608E1,0E0,4.1947327E1,0E0,0E0,1.1040932E1,0E0,2.8865473E1,8.0128334E1,1.6138531E2,4.5791443E1,3.681398E1,8.827286E1,0E0,0E0,1.7258057E1,6.213092E1,6.990006E1,0E0,6.0864204E1,0E0,0E0,0E0,0E0,0E0,0E0,0E0,0E0,0E0,0E0,0E0,0E0,0E0,0E0,0E0,0E0,0E0,0E0,0E0,0E0,0E0,0E0,0E0,0E0,0E0,0E0,0E0,0E0,0E0,0E0,0E0,0E0,0E0,0E0,0E0,0E0,0E0,0E0],"parents":[2147483647,0,0,1,1,2,2,3,3,4,4,5,5,6,6,7,7,8,8,9,9,10,10,11,11,12,12,13,13,14,14,15,15,16,16,17,17,18,18,20,20,21,21,22,22,23,23,25,25,26,26,27,27,28,28,29,29,30,30,31,31,33,33,34,34,36,36,37,37,38,38,39,39,41,41,44,44,46,46,47,47,48,48,49,49,50,50,51,51,54,54,55,55,56,56,58,58],"right_children":[2,4,6,8,10,12,14,16,18,20,22,24,26,28,30,32,34,36,38,-1,40,42,44,46,-1,48,50,52,54,56,58,60,-1,62,64,-1,66,68,70,72,-1,74,-1,-1,76,-1,78,80,82,84,86,88,-1,-1,90,92,94,-1,96,-1,-1,-1,-1,-1,-1,-1,-1,-1,-1,-1,-1,-1,-1,-1,-1,-1,-1,-1,-1,-1,-1,-1,-1,-1,-1,-1,-1,-1,-1,-1,-1,-1,-1,-1,-1,-1,-1],"split_conditions":[1.96E2,2E0,2E0,4.7333334E-2,-9.392333E0,1.169359E0,4.5172806E0,1E0,1E1,8.717567E1,3.7266666E-1,7.4043475E-2,8.4294334E1,9.788033E1,1.024E3,1.3E1,1.08041E2,6.4E1,3.189E0,-6.1479468E-2,1.9E1,1.1510233E2,6E0,9.296367E1,-8.597847E-2,6E0,1.1E1,9.2459335E1,-7.4653335E0,-3.5693333E0,3E0,1.02458E2,-7.533977E-2,-4.924667E0,1.3999E1,-7.709878E-2,-2.9706666E0,9.6281E1,2E0,3.6E1,-5.6288153E-2,1.169359E0,7.340712E-2,-5.7303913E-2,1.163E0,-7.428448E-2,-3.2476666E0,3.49E-1,5.76E2,3.61E2,-3.7983334E0,4.84E2,-8.206034E-2,-7.72099E-2,6.25E2,-5.9653335E0,1.4E1,-7.464089E-2,1.8243333E0,1.3346172E-2,-7.2819464E-2,-5.0124157E-2,-8.019561E-2,-7.1913525E-2,7.438975E-2,-7.825618E-2,1.3975687E-2,1.01346625E-2,4.0726192E-2,5.079723E-2,-8.401712E-2,-4.7754806E-2,6.823666E-2,1.6312264E-2,-6.883886E-2,-4.6521883E-2,7.002362E-2,-7.1469605E-2,6.913067E-2,5.490568E-2,-1.013487E-1,-5.63085E-3,3.9987758E-2,3.413992E-2,5.9491355E-2,-1.2901162E-2,2.8121296E-2,-3.444481E-3,3.4915693E-2,5.3756464E-2,-5.4636158E-2,-3.2535646E-2,-8.0753334E-2,-2.9936312E-2,1.905045E-2,1.4076668E-2,6.874075E-2],"split_indices":[2,0,0,9,4,11,11,0,7,3,4,9,3,3,2,10,3,2,6,0,7,3,10,3,0,10,7,3,4,4,10,3,0,4,6,0,4,3,10,2,0,11,0,0,6,0,4,6,2,2,4,2,0,0,2,4,7,0,4,0,0,0,0,0,0,0,0,0,0,0,0,0,0,0,0,0,0,0,0,0,0,0,0,0,0,0,0,0,0,0,0,0,0,0,0,0,0],"split_type":[0,0,0,0,0,0,0,0,0,0,0,0,0,0,0,0,0,0,0,0,0,0,0,0,0,0,0,0,0,0,0,0,0,0,0,0,0,0,0,0,0,0,0,0,0,0,0,0,0,0,0,0,0,0,0,0,0,0,0,0,0,0,0,0,0,0,0,0,0,0,0,0,0,0,0,0,0,0,0,0,0,0,0,0,0,0,0,0,0,0,0,0,0,0,0,0,0],"sum_hessian":[5.6793335E3,1.9912888E3,3.6880447E3,1.3735741E3,6.177148E2,1.8746576E3,1.8133871E3,4.23758E2,9.4981604E2,4.7538662E1,5.7017615E2,8.265062E1,1.792007E3,8.461697E2,9.6721735E2,1.8218692E2,2.4157106E2,3.7511197E2,5.747041E2,7.1019645E0,4.0436695E1,5.416202E2,2.8555922E1,3.500752E1,4.76431E1,8.220917E2,9.699152E2,6.6416986E2,1.8199982E2,5.9803235E2,3.6918503E2,1.5274478E2,2.944214E1,2.124252E2,2.9145868E1,8.184934E1,2.932626E2,5.0785443E2,6.6849686E1,3.7264034E1,3.1726613E0,5.326761E2,8.944139E0,2.1164122E0,2.643951E1,7.866495E0,2.7141024E1,4.7740864E1,7.743508E2,7.3033685E2,2.395784E2,6.047255E2,5.9444366E1,5.886672E0,1.7611314E2,2.7573718E2,3.2229517E2,3.0028E1,3.39157E2,1.3545143E2,1.729334E1,1.2265617E2,8.976902E1,1.2146739E1,1.6999128E1,4.36384E1,2.4962422E2,2.1369931E2,2.9415512E2,2.8480383E1,3.8369297E1,1.7068819E0,3.555715E1,1.4522398E1,5.181537E2,1.52857E0,2.491094E1,3.4485793E0,2.3692446E1,9.696916E0,3.804395E1,3.9500836E2,3.7934247E2,4.0069885E2,3.29638E2,8.304126E1,1.5653714E2,2.7220605E2,3.3251947E2,1.7312611E2,2.9870236E0,1.5760667E2,1.181305E2,2.126495E2,1.0964568E2,2.775525E2,6.1604515E1],"tree_param":{"num_deleted":"0","num_feature":"12","num_nodes":"97","size_leaf_vector":"1"}},{"base_weights":[6.1567314E-2,-3.3054563E-1,2.724285E-1,3.8950067E-2,-8.087022E-1,4.713858E-1,-4.7240126E-1,1.9981049E-1,-8.784015E-1,-1.2382836E0,-5.51504E-1,6.992192E-1,2.4836302E-1,-8.3851117E-1,-1.3271394E-1,-3.063685E-1,4.5057052E-1,-7.182112E-2,-3.6553657E-1,-1.3043343E0,2.6889792E-1,-7.99606E-1,-1.5490456E-1,-2.0505056E-1,7.5418985E-1,5.6830597E-1,-1.7949718E-1,-1.1305271E0,2.8585082E-1,8.296873E-1,-4.3243927E-1,-8.150694E-2,5.05957E-2,6.160818E-1,-2.2563492E-1,-7.135741E-2,2.5984764E-2,-6.895654E-2,-9.126653E-1,7.364749E-2,-6.3504405E-2,2.4570426E-1,-1.0757937E0,-1.1349558E0,2.7233177E-1,-1.0645472E0,5.8568674E-1,-9.886696E-2,7.65669E-1,1.141927E-1,7.582169E-1,-5.4142886E-1,5.8755696E-1,-7.612624E-2,-6.926932E-1,8.1272894E-1,-7.003323E-2,-9.277909E-2,1.0378915E0,-1.1755846E0,-1.10106364E-1,-5.67027E-2,2.2994552E-2,-3.2538306E-2,3.415742E-2,3.960864E-2,-4.8112497E-2,1.9735876E-2,-6.595199E-2,4.0734068E-2,-6.602914E-2,-6.598648E-2,3.134824E-2,-5.855931E-2,5.130182E-2,-3.0934745E-3,-7.253236E-2,3.5720956E-2,-7.400526E-2,4.334509E-2,-8.4726706E-2,3.6912944E-2,-7.147251E-2,2.9726638E-2,4.7920246E-2,2.211286E-2,-7.195796E-2,4.8670325E-2,2.2535393E-2,-3.4142222E-2,3.1303275E-2,-7.2397225E-2,3.538357E-2,-5.6817513E-2,3.790829E-3,5.054123E-2,-6.04482E-2,7.318536E-2,-1.4602034E-2,1.2627669E-2,-7.2867475E-2,1.50612015E-2,-4.3522105E-2],"categories":[],"categories_nodes":[],"categories_segments":[],"categories_sizes":[],"default_left":[0,0,0,0,0,0,0,0,0,0,0,0,0,0,0,0,0,0,0,0,0,0,0,0,0,0,0,0,0,0,0,0,0,0,0,0,0,0,0,0,0,0,0,0,0,0,0,0,0,0,0,0,0,0,0,0,0,0,0,0,0,0,0,0,0,0,0,0,0,0,0,0,0,0,0,0,0,0,0,0,0,0,0,0,0,0,0,0,0,0,0,0,0,0,0,0,0,0,0,0,0,0,0],"id":15,"left_children":[1,3,5,7,9,11,13,15,17,19,21,23,25,27,29,31,33,-1,35,37,39,41,43,45,47,49,51,53,55,57,59,-1,61,63,65,-1,67,-1,69,-1,-1,71,73,75,77,79,81,-1,83,85,87,89,91,-1,93,95,-1,-1,97,99,101,-1,-1,-1,-1,-1,-1,-1,-1,-1,-1,-1,-1,-1,-1,-1,-1,-1,-1,-1,-1,-1,-1,-1,-1,-1,-1,-1,-1,-1,-1,-1,-1,-1,-1,-1,-1,-1,-1,-1,-1,-1,-1],"loss_changes":[4.7749557E2,3.568556E2,5.567319E2,1.6843349E2,9.659235E1,1.5044489E2,9.840451E1,1.2337735E2,4.8212296E1,3.3094055E1,5.4241104E1,7.3014465E1,2.0536707E2,1.2543927E2,1.1923094E2,1.5235603E2,7.2851135E1,0E0,3.74785E1,7.977417E0,2.8995565E1,9.832001E1,8.985614E1,5.8245136E1,4.4846436E1,7.392349E1,1.7863507E2,5.0898254E1,7.165933E1,5.683142E1,7.5299805E1,0E0,1.24054794E2,4.4812332E1,9.708964E1,0E0,3.364648E1,0E0,3.8779778E1,0E0,0E0,4.36793E1,5.5104767E1,2.1970467E1,1.1706761E2,5.1333134E1,1.4830134E1,0E0,4.484619E1,1.3019597E2,3.9591766E1,7.256267E1,5.1485596E1,0E0,4.9465385E1,2.5693554E1,0E0,0E0,5.2403564E1,3.865999E1,6.929619E1,0E0,0E0,0E0,0E0,0E0,0E0,0E0,0E0,0E0,0E0,0E0,0E0,0E0,0E0,0E0,0E0,0E0,0E0,0E0,0E0,0E0,0E0,0E0,0E0,0E0,0E0,0E0,0E0,0E0,0E0,0E0,0E0,0E0,0E0,0E0,0E0,0E0,0E0,0E0,0E0,0E0,0E0],"parents":[2147483647,0,0,1,1,2,2,3,3,4,4,5,5,6,6,7,7,8,8,9,9,10,10,11,11,12,12,13,13,14,14,15,15,16,16,18,18,19,19,20,20,21,21,22,22,23,23,24,24,25,25,26,26,27,27,28,28,29,29,30,30,32,32,33,33,34,34,36,36,38,38,41,41,42,42,43,43,44,44,45,45,46,46,48,48,49,49,50,50,51,51,52,52,54,54,55,55,58,58,59,59,60,60],"right_children":[2,4,6,8,10,12,14,16,18,20,22,24,26,28,30,32,34,-1,36,38,40,42,44,46,48,50,52,54,56,58,60,-1,62,64,66,-1,68,-1,70,-1,-1,72,74,76,78,80,82,-1,84,86,88,90,92,-1,94,96,-1,-1,98,100,102,-1,-1,-1,-1,-1,-1,-1,-1,-1,-1,-1,-1,-1,-1,-1,-1,-1,-1,-1,-1,-1,-1,-1,-1,-1,-1,-1,-1,-1,-1,-1,-1,-1,-1,-1,-1,-1,-1,-1,-1,-1,-1],"split_conditions":[1.4E1,3E-1,7.4E-1,2E0,1E1,4.5172806E0,1.1E1,8E0,2.0754717E-1,2.9417988E1,1.1E1,1.169359E0,2E0,1.761E1,1.3E1,3.667381E0,4.733772E0,-7.182112E-2,1.289E0,8.181818E-1,5E0,3E0,1.1E1,2.5E1,2.64E-1,1.9E1,3.2E1,8.965517E-1,1.6E1,8.0701756E-1,3.9133333E-2,-8.150694E-2,1E1,1.169359E0,5.9E-1,-7.135741E-2,3.974E0,-6.895654E-2,8.214286E-1,7.364749E-2,-6.3504405E-2,1.5E1,2.9417988E1,1E0,1.7E1,6.25E-1,1.4E1,-9.886696E-2,1.1E1,3.9655173E-1,6.3905625E0,1.761E1,4E0,-7.612624E-2,1.3E1,9.607843E-1,-7.003323E-2,-9.277909E-2,8.4E-1,2.3726754E0,7.29E-1,-5.67027E-2,2.2994552E-2,-3.2538306E-2,3.415742E-2,3.960864E-2,-4.8112497E-2,1.9735876E-2,-6.595199E-2,4.0734068E-2,-6.602914E-2,-6.598648E-2,3.134824E-2,-5.855931E-2,5.130182E-2,-3.0934745E-3,-7.253236E-2,3.5720956E-2,-7.400526E-2,4.334509E-2,-8.4726706E-2,3.6912944E-2,-7.147251E-2,2.9726638E-2,4.7920246E-2,2.211286E-2,-7.195796E-2,4.8670325E-2,2.2535393E-2,-3.4142222E-2,3.1303275E-2,-7.2397225E-2,3.538357E-2,-5.6817513E-2,3.790829E-3,5.054123E-2,-6.04482E-2,7.318536E-2,-1.4602034E-2,1.2627669E-2,-7.2867475E-2,1.50612015E-2,-4.3522105E-2],"split_indices":[1,8,8,0,7,11,10,1,8,11,1,11,0,6,10,11,11,0,6,8,7,10,10,1,6,1,1,8,7,8,9,0,7,11,6,0,6,0,8,0,0,7,11,0,10,6,7,0,10,8,11,6,10,0,7,8,0,0,8,11,9,0,0,0,0,0,0,0,0,0,0,0,0,0,0,0,0,0,0,0,0,0,0,0,0,0,0,0,0,0,0,0,0,0,0,0,0,0,0,0,0,0,0],"split_type":[0,0,0,0,0,0,0,0,0,0,0,0,0,0,0,0,0,0,0,0,0,0,0,0,0,0,0,0,0,0,0,0,0,0,0,0,0,0,0,0,0,0,0,0,0,0,0,0,0,0,0,0,0,0,0,0,0,0,0,0,0,0,0,0,0,0,0,0,0,0,0,0,0,0,0,0,0,0,0,0,0,0,0,0,0,0,0,0,0,0,0,0,0,0,0,0,0,0,0,0,0,0,0],"sum_hessian":[5.7730366E3,2.0186434E3,3.7543933E3,1.1392251E3,8.794183E2,2.9632292E3,7.9116406E2,9.6992755E2,1.6929759E2,3.279126E2,5.515057E2,1.4647495E3,1.4984797E3,3.800661E2,4.11098E2,3.212458E2,6.4868176E2,8.0216995E1,8.908059E1,3.1427444E2,1.3638159E1,3.386433E2,2.1286237E2,8.378309E1,1.3809664E3,8.5717664E2,6.413031E2,3.0170316E2,7.8362946E1,9.720619E1,3.1389178E2,6.747054E1,2.5377524E2,5.2119946E2,1.2748234E2,2.3288527E1,6.579207E1,2.6176447E2,5.2509964E1,7.6757855E0,5.9623733E0,7.079816E1,2.6784515E2,6.4119675E1,1.4874269E2,3.9980152E1,4.3802937E1,5.062491E0,1.3759039E3,2.5323787E2,6.039388E2,4.3591318E2,2.053899E2,1.5787683E2,1.4382632E2,6.0104134E1,1.825881E1,6.425273E0,9.078092E1,9.415904E1,2.1973276E2,6.471005E1,1.8906519E2,2.576732E1,4.9543213E2,5.3493294E1,7.3989044E1,5.219073E1,1.3601333E1,9.840923E0,4.266904E1,1.338375E1,5.7414406E1,2.5664023E2,1.120495E1,1.4847301E1,4.9272377E1,1.1925145E2,2.9491243E1,9.740653E0,3.02395E1,4.1308956E1,2.4939833E0,7.3095264E2,6.449513E2,2.096711E2,4.356678E1,3.540295E2,2.4990926E2,3.891871E2,4.6726093E1,1.0828675E1,1.9456122E2,9.088196E1,5.2944363E1,5.5195786E1,4.9083476E0,6.868793E1,2.209299E1,1.5533001E1,7.862604E1,1.4298422E2,7.674853E1],"tree_param":{"num_deleted":"0","num_feature":"12","num_nodes":"103","size_leaf_vector":"1"}},{"base_weights":[-8.988369E-3,8.837386E-2,-8.236034E-1,-2.3716742E-1,3.8508353E-1,-2.921394E-1,-9.438141E-1,9.5644906E-2,-6.956294E-1,-1.7756613E-1,5.3760445E-1,-1.0645859E0,1.1749042E0,-1.2819216E0,-6.574041E-1,-7.3657113E-1,2.6029775E-1,-1.1685734E0,-4.8104706E-1,-3.8551736E-1,1.1679863E0,1.1862923E-1,6.782106E-1,-2.3236799E-1,-6.990861E-2,1.3642572E0,-5.2191325E-2,-6.990219E-2,3.4231666E-1,-9.0775836E-1,1.0739812E-1,-2.4719642E-1,-7.785188E-2,-5.2217704E-1,4.3688214E-1,-1.2544948E0,6.7258286E-1,6.496095E-1,-6.3237184E-1,9.7504276E-1,-6.2579197E-1,-6.607824E-2,1.2641536E0,3.666074E-1,-8.1636965E-1,4.7916165E-1,9.2040414E-1,-6.545499E-2,1.2201616E0,-4.270046E-2,1.494268E0,7.009269E-2,-6.0347814E-2,-2.764286E-1,-7.023094E-2,6.355127E-1,-6.934193E-2,2.087816E-2,-4.233372E-2,-4.2990927E-2,2.5117377E-2,2.6266305E-2,-5.0402787E-2,6.560416E-4,-6.781163E-2,8.928588E-2,-6.0250904E-2,-7.1031E-2,4.8248563E-2,-6.302556E-2,-1.729836E-2,5.2946296E-2,-8.649267E-2,-4.549027E-2,2.5734236E-2,6.7638E-2,2.881278E-2,-9.322058E-2,2.4246499E-2,-8.934543E-2,1.0812392E-3,-9.614167E-3,3.7574567E-2,-1.0451811E-2,4.846387E-2,7.5957954E-2,-3.4851674E-2,7.982935E-2,-3.991903E-2,-7.020817E-2,2.6104325E-2,-2.1417765E-2,7.151748E-2],"categories":[],"categories_nodes":[],"categories_segments":[],"categories_sizes":[],"default_left":[0,0,0,0,0,0,0,0,0,0,0,0,0,0,0,0,0,0,0,0,0,0,0,0,0,0,0,0,0,0,0,0,0,0,0,0,0,0,0,0,0,0,0,0,0,0,0,0,0,0,0,0,0,0,0,0,0,0,0,0,0,0,0,0,0,0,0,0,0,0,0,0,0,0,0,0,0,0,0,0,0,0,0,0,0,0,0,0,0,0,0,0,0],"id":16,"left_children":[1,3,5,7,9,11,13,15,17,19,21,23,25,27,29,31,33,35,37,39,41,43,45,47,-1,49,-1,-1,51,53,55,57,-1,59,61,63,65,67,69,71,73,-1,75,77,79,81,83,-1,85,-1,87,-1,-1,89,-1,91,-1,-1,-1,-1,-1,-1,-1,-1,-1,-1,-1,-1,-1,-1,-1,-1,-1,-1,-1,-1,-1,-1,-1,-1,-1,-1,-1,-1,-1,-1,-1,-1,-1,-1,-1,-1,-1],"loss_changes":[4.328279E2,4.7094498E2,3.694586E1,3.5482495E2,2.18983E2,1.2467929E2,4.5125122E1,1.8490363E2,9.869452E1,1.528679E2,1.1814978E2,1.9628876E1,1.740715E1,4.1340027E1,4.9697357E1,8.911697E1,1.55823E2,4.9022522E1,1.1581268E2,1.5509245E2,1.9187134E1,1.1750366E2,7.198956E1,3.5638847E1,0E0,1.151017E1,0E0,0E0,2.6739065E1,6.0863464E1,5.200038E1,5.6470154E1,0E0,7.231241E1,1.1801178E2,3.7588287E1,3.1892715E1,5.3671898E1,1.0667311E2,1.8013588E1,1.3075722E2,0E0,3.5452805E0,1.06555305E2,8.647149E1,1.5132208E2,3.7555176E1,0E0,6.6671867E0,0E0,9.223442E0,0E0,0E0,